
            -0.165727 0.150673 0.163347 0.127315 0.11037 0.184285 0.192666 0.145637 0.149242 0.182727 0.158097 0.154445 0.154272 0.0525502 0.0942673 0.160775 0.124041 0.125079 0.0593395 0.147775 0.107644 0.108956 0.15437 0.168039 0.148849 0.121239 0.0337114 0.0946973 0.157462 0.0977536 0.133939 0.0764007 0.10285 0.128405 0.133292 0.183122 0.0971385 0.0295968 0.120448 0.0603708 0.130207 0.064633 0.117711 0.126411 0.115758 0.104968 0.178433 0.130877 0.112564 0.0671424 0.0956973 0.0816418 0.109554 0.0925402 0.0679539 0.169215 0.121927 0.0958249 -0.0729961 0.123367 0.127894 0.0584629 0.0257357 0.0723195 0.00952033 0.0772232 0.0914336 0.0596617 0.136317 0.0584732 0.0396738 0.0477067 0.0717934 0.0891201 0.0158356 -0.0359053 -0.0159792 0.0871929 0.0742818 0.133464 0.112896 0.0824307 0.0704734 0.060479 0.0873782 0.0746348 0.131666 0.148868 0.0773753 0.0903576 0.0449341 0.104449 0.0710263 0.0964948 0.0667938 0.0856392 0.154847 0.0526046 0.0354515 0.0758691 0.0823098 0.0977426 0.0855924 0.129452 0.0788624 0.0517646 0.040494 0.0918478 0.117432 0.042675 0.069412 0.0899278 0.0596798 0.0907994 0.0697584 0.000282068 0.0627536 0.100761 0.0337398 0.0839949 0.0660919 0.0611289 0.0786597 0.101574 0.0351591 0.0629754 0.0670338 0.0707596 0.0865084 0.0856381 0.0629596 0.0632342 0.109744 -0.0120207 0.133734 0.110728 0.0983912 0.102699 0.039958 0.0861367 0.0938471 0.0696121 0.0742134 0.105138 0.117803 0.122029 0.0980637 0.00400266 0.0913763 -0.00450006 0.0396267 0.091005 0.0446008 0.0776994 0.0724844 0.0981806 0.0948255 0.0624394 0.0592222 0.0220015 0.0190346 0.0643728 -0.000240879 -0.0136991 0.145674 0.113274 -0.0474286 0.100869 0.078306 0.0749024 0.114102 0.101955 0.076792 0.01193 0.135192 0.0601502 0.0686964 0.0521067 0.0154186 0.0587289 0.0620012 0.0271806 0.0256498 0.0442539 0.0639379 0.0578743 0.0808129 0.114815 0.0798554 0.0415781 0.02966 0.0101196 0.0175391 0.0759775 0.101016 0.124947 0.0684682 0.0369924 -0.00566637 0.108395 0.0901063 0.0897745 0.0665954 0.031985 0.0886607 0.0944564 0.12206 0.0667349 0.0951999 0.00243228 -0.0502854 0.124602 0.0601618 0.067133 0.0447146 0.0390159 0.0542378 0.0207477 0.0942419 -0.000534401 0.0330881 0.0805587 0.10248 0.0574048 0.0943166 0.0544317 0.0614953 0.0946123 0.0771003 0.0764849 0.0309867 0.0993294 0.0836668 0.0597795 0.0848329 0.0416004 0.0244437 0.0673852 0.0776149 0.0940443 0.0124087 0.0732828 0.0968331 0.072551 0.112106 0.0136026 0.0986617 -0.00589153 0.0167532 0.0389425 0.0656138 0.0344044 0.0527527 0.0332483 -0.0787388 -0.0268315 0.149912 -0.0711569 -0.00611133 0.0581375 0.123323 0.0630665 0.114181 0.104604 0.0362255 0.0614681 0.0217881 0.110446 0.065063 0.0967824 0.112948 0.0761498 0.0500335 0.0629238 -0.0448079 0.0149936 0.0415516 0.0540656 0.0578443 0.117229 0.0403062 0.0580824 -0.00204725 0.0208056 0.075153 0.0639066 0.0480232 0.0613295 -0.0179659 0.0592902 0.0313305 -0.00074284 0.0677496 0.0624897 0.120557 -0.0267984 0.0461803 0.0883925 0.0910521 0.0565564 0.046297 0.101327 0.0910748 0.0156305 0.0891158 0.0895551 0.0603775 0.0223 0.0570406 0.100351 0.0774311 0.0389518 0.126837 0.0644594 0.0822402 0.0424468 0.00408851 -0.140086 0.0159404 -0.0242489 0.0414795 0.0802944 0.0644238 0.011921 0.0155651 0.0833932 0.0443347 0.100109 -0.00134095 0.101568 0.0282184 0.0361227 0.0873018 0.0521376 0.0456972 0.0300583 0.0647778 0.0599151 0.00533761 0.0413896 0.104945 0.112918 0.0913037 0.0316709 0.0635149 0.0630371 0.049792 0.0764757 0.120958 0.0684455 0.0227508 0.011684 0.0216348 0.0387261 0.03906 0.118304 0.0890237 -0.0329049 0.123147 0.0771773 0.0548774 0.110157 0.114542 0.0669699 0.0828837 0.120749 0.0380476 0.105453 0.0769163 0.0772173 0.0469446 0.0519647 0.0689855 0.0376423 0.0972936 0.0594183 0.0332867 0.105089 0.0577137 0.0376598 0.049913 0.0418649 0.0172747 0.0586551 0.087183 0.0164241 0.104193 0.0782984 0.0816873 0.0940409 0.0414808 0.0398786 0.0305037 0.0312064 0.0619065 0.0808123 0.105202 0.0572604 0.0502554 0.0781344 0.111232 0.0470422 0.0787522 0.0195834 0.0281805 0.04987 0.0460116 0.0934003 0.0673303 0.104972 -0.0215783 0.106073 0.0261913 0.0357038 0.095213 0.0377166 0.0157228 0.031767 0.0954278 0.0911149 0.0500365 0.0240702 0.102179 0.0589845 0.0355823 0.0348372 -0.00756943 0.0708091 0.0394275 0.0396368 0.0629748 0.0295356 0.0242837 0.083473 -0.0188982 0.0921693 0.00742021 0.0744043 0.0735495 0.0154685 0.0646719 0.0633555 0.0388159 -0.0137623 0.060824 -0.0379948 0.0630481 0.0547443 0.071856 0.0482801 0.0406604 0.0575765 0.0945527 0.00934204 0.061313 -0.00340994 0.0175903 0.00437886 0.0293992 0.0497212 0.0222333 0.09529 0.000766589 0.0426886 0.0602941 -0.0251405 0.0288596 -0.0181976 -0.0066896 -0.012711 0.0282306 0.0393217 0.0579579 0.0608034 0.0336506 0.0523966 0.110802 0.015645 0.0481453 0.0283546 0.0150784 0.0229176 -0.0450007 0.0584726 0.0445451 0.0549654 0.100218 0.103421 -0.0193595 -0.0740148 0.0635876 0.00469247 0.125551 -0.0424935 0.0769053 0.0400533 0.00474723 0.0784241 0.0742285 -0.00273592 0.080954 0.119562 0.0493407 0.0528251 -0.0186385 0.108406 0.0972375 -0.024298 0.0602017 0.094893 0.143789 0.1457 0.0653338 0.0101762 0.00734325 -0.0414905 0.0688742 0.075697 0.0580711 0.0370411 0.0312862 0.0451727 0.0859324 0.0404798 -0.0123609 0.0538324 0.0124877 -0.0123534 0.0469489 0.0305721 0.0387231 0.0361887 0.0253619 0.0389379 0.0378833 0.0720621 -0.0348519 0.0363928 0.0528273 0.0166228 0.0285605 0.0416384 -0.00971648 0.102768 0.0250571 0.0922722 -0.030643 0.0309063 0.0213845 0.0528681 0.0532436 0.0430799 0.0887568 0.041268 0.0675726 0.0100675 0.0973429 0.0617938 0.0781592 -0.0170358 0.0928932 0.0455646 0.09635 0.0856763 0.0199156 0.0753421 0.0113843 0.0208314 0.0642468 0.0743139 0.0164484 0.111611 0.00951639 0.0516905 -0.00800841 0.0782423 0.0961651 0.0232079 -0.00120688 0.037749 0.0110261 0.0742619 0.0668378 0.0460828 0.0191009 0.0571908 0.0701689 0.00913469 0.0201581 -0.00487363 0.0275253 0.0176388 0.0469537 0.0203159 0.0756484 0.0443274 0.0374933 0.0476356 0.0443223 0.073931 0.0178718 0.0564798 0.0721077 -0.0153219 0.0911659 0.0652923 -0.0265008 0.0629068 0.0295675 -0.0390583 -0.0376887 0.0426957 -0.013009 0.014582 0.0566421 0.0407818 0.0750639 0.040562 0.0334597 0.10321 0.0541068 0.0272894 0.0433533 0.0329293 0.0401703 0.0310838 0.0401893 0.0666798 0.0112179 -0.00873862 0.0562283 -0.0162466 0.0658351 0.0652206 0.0470365 0.0139053 0.0352259 0.0950121 0.0611343 0.0566579 0.104399 0.0102207 0.0510277 0.0838531 0.00323658 0.0234274 -0.0117663 0.00197331 0.030984 0.0397229 -0.0201583 0.0602503 -0.00386583 0.0599739 0.0221819 -0.0176706 -0.0267768 0.0580361 0.0178323 -0.0184075 0.10185 0.078587 0.00245682 0.0503279 0.00257177 0.0208802 0.041693 0.0620195 0.0572444 0.034087 -0.0108221 -0.00127705 0.0359585 0.0511778 -0.0087644 0.0446967 0.00490999 0.0504317 -0.00768337 0.0510511 -0.00345147 0.0460216 0.0128721 -0.030764 0.0764906 0.0299407 0.0284699 0.0565828 0.112545 0.00659152 -0.00545483 0.0468984 0.018147 0.0802473 -0.0606348 0.0602416 0.00820664 -0.000614482 0.0315552 -0.0824256 -0.0677527 0.0291783 0.0577157 0.0441594 0.00235002 0.0219091 0.0330656 0.0693185 0.0117824 0.0551089 -0.0217788 0.0202842 0.00867227 0.0572043 0.00662581 0.00423038 -0.0101786 0.0166954 0.0120709 -0.0199509 -0.0103987 0.00854515 0.0269275 0.00971984 -0.0179193 0.0189446 0.082706 0.0244462 0.104823 0.0628596 0.0587409 0.0347774 -0.0228574 -0.0140703 0.0610153 0.0440584 0.0231159 0.0387154 0.0263945 -0.0636619 0.0763109 0.0985753 0.0569276 0.024757 0.00408431 0.0364517 0.0331454 0.101846 0.0133953 0.0698334 0.0251657 0.0141546 0.097626 0.0155234 -0.0383656 0.0602629 0.0545563 0.0354186 0.00113256 0.0273917 0.0491101 -0.00336569 -0.0288474 0.00859326 0.0560455 0.0576747 0.0100655 0.0425261 0.0644412 0.0325461 -0.0344276 -0.00437008 0.0813531 0.0192061 0.0814437 -0.00347161 0.0956859 0.0271913 -0.0240643 0.0326961 0.0334483 0.0815025 0.0519166 0.0496003 0.0473851 0.0281322 -0.0212343 0.0889538 0.0114068 0.0622445 -0.0588871 0.063462 0.0424969 -0.0128916 0.0523249 0.0435316 0.0200068 -0.0460014 0.0732889 0.0498044 0.0258304 0.019955 -0.0536811 0.00574173 0.0113429 0.0372463 0.055498 0.0535595 0.03446 0.0352421 0.00558443 -0.00112661 0.0366209 -0.0754385 -0.039306 0.0156934 0.0338328 -0.0548937 -0.0132757 0.035238 0.0456595 -0.00165411 -0.0342784 0.0450014 -0.0508655 0.0753866 0.00792173 0.0708322 0.0157237 0.0277945 0.032402 0.0199431 0.0291645 0.0348191 0.0336123 0.0588281 -0.0335497 0.0171108 0.0810088 0.0435272 -0.0326567 0.0459047 0.00422477 0.0326537 -0.0201458 -0.00088353 0.0112851 -0.0149861 0.0414675 0.00857397 0.0741613 0.048956 0.0160977 0.00227717 -0.0164531 -0.0175581 0.0394712 0.0212293 0.0265901 0.0408269 0.00399862 0.0104028 0.0216493 0.0535954 -0.0318481 -0.0283291 0.0121428 0.00338101 -0.0448116 0.00888168 0.0602159 0.0248689 0.036787 -0.052553 0.0462056 -0.111504 0.00773162 0.0633933 -0.00812265 -0.0647409 0.0502152 -0.030245 0.0573604 -0.00451374 0.00310421 -0.0193081 -0.0180228 0.0198148 0.0931424 -0.0853388 0.0562816 -0.00263982 0.0273756 0.0458233 -0.0045698 -0.0295706 0.0331521 0.057968 0.0590305 0.039251 0.05012 0.0562481 0.0295797 0.037684 -0.0249379 -0.001486 0.0344216 0.0613211 0.0501696 -0.00601792 -0.00592476 0.0357835 0.00138775 0.038215 0.0313638 -0.0177124 -0.0191421 -0.00082514 -0.0138098 -0.00677219 0.0432671 0.0557164 -0.025123 0.0412714 0.0632614 0.0435903 0.0262237 0.0629891 0.0363847 0.0186403 0.0233261 -0.00300582 0.0305345 -0.0304853 -0.00242664 0.0104604 -0.0010543 0.0665459 0.0290417 0.0471644 -0.0237124 0.0568748 -0.015939 -0.0013307 -0.0544734 0.0706882 0.0285071 0.0365199 0.0585141 -0.0207746 -0.0436328 0.0461162 0.0274782 0.0691369 -0.0205787 0.0764599 -0.0415235 0.0755667 -0.135562 -0.00363951 -0.0640281 0.0402369 -0.00180503 0.00533082 0.0110329 0.00773099 -0.0292155 0.0401511 -0.00672726 0.0238827 -0.00952386 -0.0206995 0.0529706 0.023081 0.064772 -0.0282449 -0.0344737 -0.0476656 0.0853846 -0.0150396 0.0140794 0.0505773 0.0508476 0.0244258 -0.0596738 -0.0340796 0.00532841 0.0640393 0.0487695 0.0110584 0.0254337 0.0840716 0.0385366 -0.0342544 0.0424038 -0.0232925 0.0213819 0.0210451 -0.0211094 0.0725877 0.0571797 0.117935 0.0126027 -0.0164985 0.046451 0.02013 0.0421729 -0.00236975 -0.022118 -0.00546158 0.00754865 0.00740339 0.0755322 0.0887443 0.0528201 0.0248955 0.124485 0.00458727 0.0142181 0.0302278 -0.00562957 0.00338079 0.0256278 0.0807429 0.0807348 0.0286566 0.0371735 0.0109593 0.0328976 0.0653177 0.0282179 -0.0224726 0.00624759 0.00858179 -0.016806 -0.0234596 -0.0533265 0.0362187 0.049768 0.0159405 0.0187239 -0.0416726 -0.00639876 0.0331839 0.0227308 -0.00991249 -0.00928742 0.0506164 -0.0175781 -0.00962987 -0.0364333 0.0436726 0.0379947 0.00443521 -0.00921369 0.0435914 -0.0131746 -0.0228098 -0.133667 0.0170542 -0.0235108 0.0577746 -0.0193963 0.069349 -0.0402138 0.0103454 0.0576882 0.0024007 0.0531696 0.0276186 -0.000638452 0.0697395 0.0255637 0.00486581 0.0469378 0.0235982 -0.0151148 0.0139492 -0.0189351 0.0167604 0.00595726 0.00357554 0.0276215 -0.00326318 -0.0400309 0.0582438 0.0507326 0.0427254 -0.00366637 0.00614701 0.00763474 0.0216766 0.0120587 -0.015444 0.0697604 0.0283845 0.0594001 -0.0011289 0.0371027 0.0350259 0.0456873 0.0272682 0.00525765 -0.00329089 0.00762732 -0.0602554 0.00595513 0.0162395 0.0060034 0.0579343 -0.0735264 -0.0461943 0.00977633 0.00145742 0.00404774 0.0525441 0.0164105 0.0447885 0.0282191 0.0139873 -0.0145055 -0.0439204 -0.0277673 0.0125483 0.00697393 -0.0300262 -0.0116226 0.0303699 0.00677413 0.0114678 0.000306323 -0.090805 -3.65145e-05 0.0322256 0.0346892 0.0213956 0.0186051 0.052585 -0.0686205 -0.0334941 0.0510109 -0.0597216 0.000436224 -0.0451772 0.0780422 -0.0138223 0.0550282 0.0202234 -0.0550399 -0.0116216 0.00948153 -0.00831197 0.0268166 -0.0288612 0.0384665 0.00419309 -0.090831 -0.0128872 0.062583 0.0510545 0.0271759 0.00796621 0.00236034 0.0750278 -0.051315 0.0385646 -0.0100288 0.0316889 -0.00693726 -0.00613988 0.0375491 0.0432237 0.000929977 0.0115106 -0.0395604 -0.0448222 -0.0355629 -0.0475294 -0.0209565 0.0252684 -0.00831191 0.0600736 0.0198106 -0.00927225 -0.0114206 -0.00689943 0.052664 0.0161843 -0.010383 0.0115251 0.054211 0.0686593 0.00583038 0.0242608 0.00676253 -0.0584697 -0.0172961 -0.0347468 -0.00462079 -0.0236949 -0.00676399 -0.0349561 -0.0140801 -0.0516416 0.0646336 0.0648698 0.0204822 -0.00539028 -0.0198062 0.0519566 0.047266 -0.0594987 -0.0236689 0.0403421 -0.0813712 0.0614065 0.0394947 0.0095237 0.0185029 -0.0661484 -0.0158718 -0.0183577 0.0155861 0.0330365 0.040017 0.0537234 0.00193423 0.0519561 0.03905 -0.0255231 -0.025352 0.0231132 0.0523068 -0.025834 0.0385012 0.0119216 0.0191796 -0.0280685 0.00704945 0.031936 0.000229078 0.0688509 0.039773 -0.0121999 0.00328185 -0.0141732 0.0684019 -0.00932049 0.0573648 0.0279188 0.00513863 0.0648539 -0.0142793 0.0488778 0.0439511 -0.0376036 -0.0200983 -0.0449641 0.016159 0.0501958 0.0260175 -0.00787122 0.0565551 0.0382464 -0.0607991 -0.0550234 -0.0972877 0.0226447 -0.00713693 0.00492691 -0.0694438 -0.0255819 0.0331948 0.039437 0.00992359 0.0216125 -0.0572061 -0.0153429 0.0137632 -0.0460699 0.0180177 -0.0388074 -0.00697193 0.0128389 0.0579418 -0.012466 -0.0108248 -0.166888 0.00724749 -0.0563643 -0.023169 0.0393426 0.047804 -0.165089 0.00659033 0.0066827 0.0389603 0.00293701 -0.0408887 0.0121875 0.073764 0.0575691 0.0258891 0.0371012 0.0419606 0.0949207 0.0394833 0.0870355 -0.02015 0.0134189 0.00354305 -0.0385386 0.0170094 -0.0642606 0.0209381 0.0180062 0.0332413 0.0533855 0.0345213 0.0431725 0.000591482 0.0848999 0.0176525 -0.0223204 -0.00387421 -0.0554017 0.0386889 0.0305621 0.0490303 0.0328107 -0.0562842 -0.0200045 -0.0481834 0.00932352 0.0113388 -0.0014641 -0.000613501 -0.0289065 -0.0159556 -0.016296 -0.0198243 -0.01277 0.00132031 0.0473823 -0.0237174 0.00951756 -0.0672978 0.0489494 0.0227629 0.0328356 -0.0634048 -0.0540151 -0.0129039 -0.00970576 0.0210982 0.000340522 -0.111296 0.000693751 -0.0280409 -0.0618156 -0.00736035 -0.090929 0.0261929 -0.0381368 -0.00961803 -0.0180125 -0.0057881 0.00682413 0.0518257 -0.028707 -0.0692533 0.0285352 0.0228386 -0.025698 -0.0323965 -0.0255912 0.00706354 0.0431253 9.55902e-05 -0.0261325 0.0109852 -0.00810655 -0.0159149 -0.0345509 -0.0496707 0.0122833 -0.0763508 -0.0522724 -0.0446719 -0.0199328 -0.0312434 0.0105563 0.00461289 -0.0460101 -0.00677873 -0.0488895 -0.0203883 0.0207552 -0.0712193 0.0534234 0.0178512 0.0413749 -0.0296182 0.0633174 0.0193416 0.0266256 0.0580865 -0.0209591 -0.0164137 0.0382362 -0.0269542 0.0652342 0.0763598 -0.0283084 0.00361522 0.00184599 -0.0268817 0.0211905 -0.026889 0.0503479 0.0567574 0.0275507 -0.0460455 -0.0174043 -0.0303857 0.0329413 -0.0058788 -0.00683669 -0.00135729 -0.0311743 -0.00283035 0.0498725 -0.0296054 0.0102033 0.0793184 0.0154764 -0.00927983 0.0163517 0.0312546 -0.0390511 0.000576468 0.0338056 -0.0197396 -0.0567957 -0.029837 -0.0203434 0.0321683 0.0101762 -0.0407829 -0.00739496 -0.0306143 0.0199669 0.00327909 -0.0925255 -0.08755 -0.00735643 0.0083534 0.00735323 0.0229363 0.0281062 0.0073534 0.0589983 -0.0209235 0.00440213 -0.00933829 -0.0599567 -0.0498075 -0.032667 -0.0847738 -0.0963039 -0.0294901 0.00622742 -0.0784069 -0.0163364 -0.0108894 -0.00980054 0.0363102 0.0225873 0.00386258 -0.0398364 -0.0350166 -0.0362582 -0.0297876 0.0207576 0.00294024 -0.0106448 0.0198912 -0.0168685 -0.0591835 0.0133253 0.0413806 0.0192276 0.0333715 -0.0218703 -0.053756 0.0256037 0.000798065 -0.0409759 0.00381927 0.0520624 0.0564275 -0.0301341 0.0224784 -0.0207031 -0.0326783 0.0257042 -0.0177212 0.0239506 -0.0606288 -0.0315639 -0.0318331 -0.0296295 0.0307483 -0.0410607 -0.0241753 -0.0172826 -0.0512051 0.0683298 0.0107201 -0.0443457 -0.0295302 -0.0840721 0.00644726 0.0372147 0.0448053 -0.0051266 -0.0158215 0.0163084 -0.0192829 -0.0585513 0.000926078 -0.0390014 -0.0138767 0.018413 -0.0177722 -0.0021606 0.0151032 -0.0357286 -0.0845837 -0.0220499 0.0519658 -0.0295537 0.000756301 0.0115334 0.024685 -0.0201835 0.00519827 -0.00239994 -0.0836045 -0.00993731 -0.00175775 -0.0547552 -0.00818851 0.0236146 -0.00640291 -0.0141948 0.0404282 -0.0209033 0.0218841 -0.0381796 -0.0259553 0.0131391 0.0108788 0.0170009 -0.0182804 0.0261968 0.0459273 0.00124955 -0.0537245 -0.0363129 0.0570891 -0.0111303 0.0483773 0.0477025 0.0114282 -0.0748469 -0.0296222 -0.00559555 -0.0589688 -0.0116668 -0.0156673 -0.0499095 0.0395263 0.0112817 -0.0273469 0.0224473 -0.0309624 -0.0353689 0.00386948 0.0155108 -0.081181 -0.00897185 0.00617694 0.0156236 0.0178604 0.0394849 -0.0270249 0.00571088 0.0135165 -0.109258 -0.0474173 -0.0621821 -0.0175803 -0.020636 0.0321945 -0.021905 0.013953 0.0123894 0.0219601 -0.162976 -0.00168561 -0.0377237 -0.0132271 -0.0203365 -0.014172 -0.000618646 -0.0605259 -0.019327 -0.0117887 -0.016858 0.0124207 -0.066682 -0.0646509 -0.0287698 -0.0122485 0.0861107 -0.0456333 -0.0293678 -0.0108452 -0.0511366 0.0210478 0.0101088 0.0202732 -0.00723631 -0.0139613 -0.0187416 0.00261596 -0.0400656 -0.0643447 0.039241 0.0153269 0.0146987 -0.0274452 -0.0366058 -0.0312603 0.0252516 -0.0210722 0.0597287 -0.0669838 0.00267077 0.027981 0.031972 -0.0220459 0.00524717 -0.0406065 -0.0563745 -0.0038664 -0.0245721 -0.00661812 -0.00313262 -0.00496165 -0.0255581 -0.0224232 0.00276534 0.00438599 0.00102138 0.0812656 0.0708252 0.0321638 -0.00893003 -0.00461037 -0.0396172 -0.0375705 -0.00804917 -0.036883 0.013268 -0.0344306 -0.0182043 -0.00819801 -0.0733255 -0.0403579 -0.0719139 -0.0621708 -0.0568019 -0.098892 0.00346797 0.017416 -0.0409708 -0.0409908 -0.0712981 -0.0176503 -0.015365 -0.00589883 -0.0632757 0.00309623 0.0190876 -0.00732324 -0.0487256 -0.0197484 -0.00922077 -0.0407 -0.0542572 0.0286267 -0.0696722 0.0523789 -0.00461638 -0.0202924 -0.0106594 0.0811975 0.00812793 0.00700015 -0.022752 -0.0207319 -0.0747606 -0.0265635 0.0284059 -0.0273398 -0.063107 -0.0386085 0.00345767 0.0298491 -0.0237634 0.0188746 0.0156597 -0.130878 -0.0126914 -0.0284484 -0.00212359 0.0443389 -0.00826112 -0.100784 0.0154533 -0.00675698 0.00694628 -0.0900336 -0.110515 -0.0588263 -0.0262188 0.0154019 0.020847 -0.00489553 0.0243899 0.0239669 -0.0318169 -0.0192888 0.0200401 -0.0247383 0.0268561 -0.00308991 -0.00441784 -0.068873 -0.0589941 0.0485038 -0.0204659 -0.03399 0.0156672 -0.012746 -0.00132211 -0.0109367 -0.103987 -0.050451 -0.0524464 -0.0532905 -0.00462728 -0.0340259 -0.018522 0.00306097 -0.0123956 0.039079 0.0013351 -0.0497496 0.0422208 -0.164486 -0.0559628 0.00739196 -0.0436735 0.0539614 0.0363271 -0.0515141 -0.0577861 -0.0706943 -0.0383473 0.0536563 -0.0360395 -0.0161111 -0.0133767 0.053616 -0.0127428 0.0336119 -0.0343862 -0.0457941 -0.0789624 -0.00783044 -0.00050772 -0.0456749 0.00213298 -0.0012144 0.0501157 -0.0219929 -0.0964848 0.0361635 -0.0410914 -0.00297684 0.0336175 -0.0437709 -0.00856677 -0.0414803 -0.0295581 -0.0291381 -0.0819745 -0.0572856 -0.024385 0.0161599 -0.0655929 0.0328543 0.0246394 0.00793444 -0.0209269 0.0757283 -0.0119743 0.00176918 -0.00226545 -0.0415741 -0.0674727 -0.00442444 -0.102069 -0.0517964 -0.0134633 0.0331158 -0.0221437 -0.00411633 -0.0181008 -0.00531256 -0.0117726 -0.0174025 -0.114912 0.0122473 -0.024877 0.0240512 -0.00536378 -0.0133994 -0.0764276 0.0186646 0.00633498 0.0345831 -0.0399827 -0.0123329 0.00143639 -0.00730506 -0.015026 -0.00367395 0.0163298 -0.0499785 -0.0711415 -0.000801231 0.00138734 0.021717 0.0125941 0.020566 -0.00409517 0.0189151 -0.0587622 -0.0122886 -0.045053 -0.000375897 -0.0379152 -0.051703 -0.0612134 -0.018151 -0.0138957 -0.0281317 -0.0313421 -0.0491756 -0.0456502 0.0288061 0.0326474 -0.0380567 0.0136264 -0.0159638 0.0506437 -0.0559333 -0.0515873 -0.0439199 -0.0414231 -0.0206374 -0.036753 0.0034522 -0.103394 0.000138036 -0.019736 0.0106844 -0.0254095 -0.0211778 -0.0138824 0.00239356 0.0396663 0.0330846 0.00330732 0.0258763 -0.0247799 -0.0371587 -0.0327123 -0.0633166 0.0343127 -0.0998331 -0.0465895 0.0257498 -0.0688076 -0.0353919 0.0105657 -0.00287358 -0.0217433 -0.0353648 0.0220627 -0.0503415 0.0188537 0.0139547 -0.00555908 0.0245796 0.0339817 -0.0400686 -0.0641847 -0.0300713 -0.14172 -0.038974 -0.092688 0.0280405 -0.0849371 -0.0478338 -0.0230744 -0.035151 -0.0794594 -0.0807284 -0.0944058 -0.0738962 -0.0265335 -0.0542555 0.00644752 -0.0615635 -0.0626858 -0.0216135 -0.0488691 -0.0234621 -0.0401103 -0.0259621 -0.0964669 -0.020244 -0.0326255 -0.0150991 -0.0204001 -0.0242906 0.00651556 0.0036913 -0.0595645 0.00183763 -0.0653679 0.0207826 -0.0336082 -0.104967 -0.0543379 -0.0429581 -0.00813443 0.0413073 -0.00578085 -0.0308177 0.0367706 -0.0103921 -0.0494744 -0.0482329 0.0652496 -0.0285822 -0.0222719 0.00647082 -0.0262619 -0.0343955 0.0391723 -0.0210701 -0.0629674 -0.015772 -0.00538737 -0.0173525 0.0240376 -0.027242 -0.0383941 0.00431414 -0.057018 -0.027971 0.0109471 0.0323249 -0.0488531 -0.0345563 -0.0110204 -0.0229343 -0.0747437 -0.0322692 -0.0800125 -0.00327303 -0.0498583 -0.0439044 -0.0355021 0.0229634 -0.01452 -0.0664805 -0.0221861 -0.0482352 -0.00158308 0.000319942 -0.0282308 -0.0194357 -0.017038 0.0104041 0.00738499 -0.00648961 -0.00603294 -0.00659626 -0.0186915 -0.0933909 -0.0203408 0.0170187 -0.0537682 0.0444566 0.0551432 -0.0115804 -0.0727044 -0.0199942 -0.0449872 -0.0232876 0.00977518 -0.0742852 -0.0281319 -0.0195608 -0.0303866 -0.0300928 0.0490084 -0.0773003 -0.0330221 -0.0267555 0.0028111 0.037335 0.000878425 -0.0107299 -0.0134222 -0.037983 -0.0105624 0.0614381 -0.0620042 -0.0340645 -0.0463462 0.000147809 -0.0290641 -0.021457 0.0102172 -0.0837381 -0.0448545 -0.0284723 -0.0334907 -0.0072779 0.0275325 -0.027966 0.00635969 0.00676747 -0.0228342 0.0201456 -0.0696668 -0.0797614 -0.0211545 -0.0425314 -0.00347996 -0.0260755 -0.0666867 -0.0159531 -0.0264449 -0.0546726 -0.0307018 -0.040747 -0.0888506 -0.0282956 -0.0737445 -0.0362429 -0.08985 -0.0409364 -0.00753623 -0.0127328 -0.0363715 -0.0674057 -0.0177364 -0.0288418 -0.0101441 0.0858058 -0.0447856 0.0062351 -0.0688816 0.00778142 0.014655 0.0326289 -0.0363674 -0.0362525 -0.0215626 -0.0580089 -0.0501628 -0.0532154 -0.0391224 -0.0220502 -0.13384 -0.0220562 -0.0473936 -0.0278018 -0.079914 -0.064712 0.00237766 0.0444616 -0.0294564 -0.0244875 0.0223906 0.0266944 -0.0653239 -0.0722056 0.000288004 -0.0610165 -0.0566281 -0.0447685 -0.0285746 -0.123827 0.0244806 0.00202842 -0.0878014 0.00219199 -0.0623787 -0.0901067 -0.0313677 0.00421975 -0.0294887 0.0102581 -0.0517754 -0.0100388 -0.0529041 -0.0734786 -0.0112919 0.042802 -0.164293 -0.0120695 -0.016066 -0.00538563 -0.0446634 -0.015308 -0.0113392 -0.0318893 -0.00870257 -0.0235595 -0.163645 -0.045471 0.0485957 -0.0630236 -0.0215001 0.0438871 0.000833369 -0.0107667 -0.00615633 -0.049601 -0.00155045 -0.0479932 -0.039941 -0.0200911 0.0375531 -0.0598074 0.00106983 -0.00290863 -0.0611422 -0.0269195 0.00194781 -0.0147233 -0.0247738 -0.0360617 0.0438717 -0.027617 -0.0407684 0.00204038 -0.0515551 -0.0476719 0.00356902 -0.041451 -0.0414914 -0.0110493 0.028705 -0.055521 -0.0611892 -0.00866538 -0.0659209 -0.0307007 0.0161757 0.0170009 -0.0335383 -0.0493381 0.00124957 -0.0379596 -0.0344408 -0.0446717 0.00726512 0.000360823 -0.0365449 0.0140681 0.015249 -0.0544783 -0.0118078 -0.0033942 -0.0925218 -0.0688374 0.0394123 -0.0470254 -0.0191464 -0.0461099 -0.057506 -0.0448392 -0.0870149 0.0424675 -0.0383246 0.0335911 -0.000880532 0.0188476 0.00976027 -0.029362 -0.122053 -0.139974 -0.0671406 -0.0308851 -0.0565861 0.0229395 -0.0752758 -0.00760019 -0.0492807 -0.00545086 -0.0283517 -0.0399707 -0.0658428 -0.0574023 -0.0300189 -0.00634128 -0.050625 -0.0481593 -0.0702556 -0.0839638 -0.076231 -0.0271719 0.0152117 -0.0291242 -0.0893579 -0.0463163 -0.00224373 -0.0328628 0.0502596 0.00409364 -0.05616 -0.0521714 -0.0396236 -0.105347 -0.0316642 -0.00792498 -0.0234092 -0.0615668 -0.0458858 -0.00685127 -0.0490978 -0.0686295 -0.0278618 -0.105367 -0.0416705 0.0372446 -0.016652 -0.0312863 -0.0585501 -0.0166757 0.00095964 0.00793735 -0.00495709 -0.10787 -0.00843757 -0.00224995 -0.0312216 0.0100245 -0.0366293 0.00418101 -0.0836269 -0.0207324 -0.0870351 -0.0300923 0.00961518 0.0143286 -0.0412429 0.000422664 -0.033547 0.0016824 -0.0501792 -0.0108297 -0.0157042 -0.0278577 -0.0982203 -0.0466942 -0.0834518 -0.0459713 0.0272378 -0.00677865 -0.021008 -0.0184376 -0.027758 -0.00448168 -0.0129691 -0.0622472 0.0375395 0.0125994 -0.057246 -0.051491 -0.0286194 -0.0507987 -0.0135674 -0.112274 -0.0438371 -0.0600833 0.0154115 -0.0689025 -0.081737 -0.0678385 -0.0531766 -0.0320089 0.0216602 0.00320137 -0.106913 0.00821225 -0.0246661 0.0275075 -0.031965 -0.0528689 -0.0214866 -0.0539138 -0.0502792 -0.0248036 -0.00779339 -0.0738405 -0.0163345 -0.0182779 -0.0785409 0.0280679 -0.0401296 -0.0188939 -0.0186705 0.0199768 -0.00436103 -0.064056 0.000633396 -0.0286735 -0.055822 -0.0148285 0.030297 -0.0456013 0.0204954 -0.00160725 -0.0623698 0.035676 -0.0563843 0.0144248 -0.0677342 -0.0692047 -0.0734341 0.0342679 -0.029347 -0.0152926 -0.0775689 -0.0435974 -0.0373407 -0.0220123 -0.00448873 -0.0804644 -0.0371277 -0.0455766 -0.021306 -0.0620172 -0.0416934 -0.0341016 0.0152041 0.00306966 0.00514494 -0.0468757 -0.0267517 0.0043105 -0.0554108 -0.0657688 0.0668705 -0.0402741 0.0183397 -0.100068 -0.055657 -0.0426681 -0.0601422 -0.0321879 -0.0674418 -0.025358 -0.013177 -0.0384942 0.00803846 -0.0875466 -0.0440381 -0.00657926 -0.0742432 -0.0386307 -0.0624841 -0.050467 -0.0569119 -0.0483201 -0.0368683 -0.0536553 -0.0838588 0.00547384 0.00132814 -0.0185441 -0.0662311 -0.0324096 -0.0293762 0.0181927 0.0292241 -0.0401414 -0.0396503 -0.0514658 -0.0852437 -0.0438803 0.0025636 -0.0571335 -0.04912 0.0100023 -0.0292352 0.013603 0.0478601 -0.0126165 -0.0063124 -0.0255259 -0.039528 0.0191469 0.0119621 0.0154377 -0.0252126 -0.0545107 -0.115095 0.0266123 -0.0434753 -0.0782649 -0.0751496 -0.0436127 -0.0701268 -0.0901596 -0.062763 -0.0255235 -0.0141987 -0.0109211 1.2168e-05 0.0182543 0.00818361 0.0189916 -0.0102404 0.0290058 -0.0584346 -0.0620849 -0.030872 -0.00539235 -0.0237997 -0.026457 -0.063657 -0.0246126 -0.0315239 0.0094354 -0.0163608 -0.0105081 -0.0221116 -0.0104416 -0.0501779 -0.0279174 0.00451293 -0.0214933 -0.16446 0.0565008 0.0261848 -0.0643104 -0.0229861 -0.052491 -0.0493675 -0.0558902 -0.000492945 -0.0478151 -0.00941882 -0.0187809 0.0181068 -0.0900474 0.0653557 -0.0571145 -0.0960805 -0.0255684 0.00882998 -0.0727964 -0.00951807 -0.0126932 0.019744 -0.0949935 -0.0483624 -0.102339 -0.0379435 -0.0713819 -0.0405331 -0.057061 -0.0867528 -0.0601496 -0.0737802 0.0585908 -0.0365455 -0.0874183 -0.0569502 0.0230063 -0.0456024 -0.00769721 -0.0659906 -0.0176537 -0.035602 0.0112281 -0.0419917 0.0375186 -0.00443948 -0.0283698 -0.0115587 7.54767e-05 -0.0803485 -0.0538374 -0.0537856 -0.0686613 -0.0524842 -0.108298 -0.0592675 -0.0151231 -0.090575 -0.00524624 0.0114661 -0.0763683 -0.0382343 -0.103768 -0.0249181 -0.0170217 -0.0543177 -0.0117085 -0.0731506 -0.0460888 -0.0442681 -0.0314595 -0.0650538 -0.0755154 -0.101716 -0.0848723 0.0152003 -0.0394075 -0.0044838 -0.042071 -0.108815 -0.0561122 -0.0889689 -0.090537 0.00288883 -0.0553103 -0.0265692 -0.104146 -0.0474082 0.00949546 -0.101699 -0.0673725 -0.0260059 -0.0381503 -0.0681493 -0.0556756 -0.00621068 -0.00646361 0.0025107 -0.0186733 -0.00839944 -0.0136146 -0.0424427 -0.0251583 -0.0147473 -0.0377939 -0.0998963 0.00575693 -0.0679214 -0.030009 -0.00655809 -0.0905698 0.0244807 -0.0625886 -0.097632 0.014919 -0.0457879 -0.0134452 0.0181345 -0.0343422 -0.0182562 -0.0479782 -0.0249051 0.0153007 -0.0604061 0.0047093 -0.0084787 -0.0221122 -0.0394506 -0.0257399 -0.0229543 0.0194213 -0.0338949 -0.040368 -0.108534 -0.0463369 -0.0648923 -0.0961236 0.0128617 -0.16315 -0.0360719 -0.0232437 -0.0352065 -0.0786807 -0.0068246 -0.0395754 0.00946358 -0.0862117 -0.00897725 -0.0302123 -0.0373334 -0.0782465 -0.073994 -0.0433012 0.0325896 -0.0520848 -0.0506451 -0.0667854 0.0242738 -0.0335603 -0.0198356 -0.115471 -0.0459646 -0.0550822 -0.0272131 0.0235106 -0.0469529 -0.114595 0.0325172 -0.022161 -0.026006 -0.0709854 -0.0360178 -0.0366841 0.0352626 -0.0777815 -0.000361227 0.0077932 -0.0331719 -0.0823689 0.00268341 -0.0580629 -0.0480207 -0.0716793 -0.0637948 -0.0972358 -0.00560032 0.0138015 -0.0251727 -0.0277901 -0.0323469 -0.0680313 -0.0296999 -0.0510415 -0.0594829 -0.00207395 -0.0809715 -0.0362624 -0.0817195 -0.11272 -0.0655656 0.026658 -0.045096 0.0109401 0.0490341 0.0176573 -0.0206771 -0.0654466 -0.0453364 -0.15896 -0.00855909 -0.0883734 -0.102927 -0.0309653 -0.00617577 -0.014085 -0.0195057 -0.0620129 -0.0399118 -0.0317986 -0.0185432 -0.0121349 -0.0564837 0.0167662 -0.058164 -0.0342116 0.0108321 -0.00368693 -0.0105524 -0.0812927 -0.000184248 -0.0440126 -0.0584674 -0.0770535 -0.029954 -0.0878067 -0.0272553 -0.0485166 -0.0742141 -0.0512042 -0.0353293 0.0537889 -0.0818038 -0.103498 -0.0125207 -0.0283751 -0.0960451 -0.0620134 0.00619151 -0.0968426 -0.0314291 0.00710067 0.00782133 -0.103093 -0.0199035 0.0251252 0.0100118 -0.100043 -0.0652752 -0.0911628 -0.0508035 -0.049431 -0.00302127 -0.0336652 -0.00896986 -0.0372766 -0.0290539 -0.0356776 -0.0476436 -0.105524 -0.0261693 -0.031729 -0.070714 -0.0224704 -0.0648768 -0.00766285 -0.080829 -0.033635 -0.0360808 -0.063389 0.0652962 -0.0515705 -0.0420593 -0.0242788 -0.0214713 -0.0104458 -0.0217393 -0.109764 -0.0103559 -0.0489899 -0.0674696 -0.0760618 -0.0860773 -0.0786893 -0.0427711 0.00881485 0.00301441 -0.0394944 -0.0855914 -0.0762655 -0.0447843 -0.0793467 -0.061723 -0.0264801 -0.0539601 0.00110689 -0.0670897 -0.0885663 -0.0854542 -0.0443658 -0.065697 -0.0442111 -0.0345146 -0.0603096 -0.116679 0.00441092 0.00876861 -0.00554614 -0.0292417 -0.02271 -0.0527698 -0.0653842 -0.0531197 -0.0975862 -0.057064 -0.0747129 0.000385975 -0.067941 -0.0841228 -0.0777121 -0.0325179 -0.0560717 -0.0885178 -0.051868 -0.0636438 -0.0489695 -0.164501 -0.110916 -0.0552428 -0.107468 -0.0720566 -0.155384 -0.0667041 -0.123845 -0.0604382 -0.0903422 -0.037643 -0.0544985 -0.0177191 -0.102145 -0.0120554 -0.0232074 -0.0976275 -0.03722 -0.0890689 -0.0100799 0.0100498 0.0212527 -0.0449086 -0.0364438 -0.108786 -0.0360871 -0.0671609 -0.0649156 -0.0760677 -0.0453024 -0.0896009 0.0043065 -0.0528711 0.0133621 -0.0160329 -0.0401423 0.0140207 -0.0772292 -0.0392705 -0.0811465 -0.040896 -0.0278718 -0.0831628 -0.000165134 -0.0380694 -0.0132718 -0.0450515 -0.0635332 -0.0621611 -0.0744201 -0.076056 -0.0719481 -0.0669577 -0.0436634 -0.0246017 0.0386849 -0.0673298 0.0285865 -0.0897404 -0.00741075 -0.0489486 -0.0138038 -0.00234953 -0.0885193 -0.00650619 -0.0228687 -0.0140833 -0.0444541 -0.00236113 -0.0293181 -0.0866508 -0.00931951 -0.0505794 0.00715705 -0.0950792 -0.0523526 -0.0234468 -0.0220961 -0.0384286 -0.0493358 -0.0259903 -0.0631899 -0.0672981 -0.01065 -0.0854893 -0.0720566 -0.0209666 -0.0296611 -0.0428894 -0.0520585 -0.00112973 -0.0716163 -0.0104897 -0.0964714 -0.0742356 -0.019183 -0.0357561 -0.0705944 -0.0491091 -0.0783728 -0.0363566 0.067658 -0.0377844 -0.0386359 -0.00234299 -0.0848891 -0.0269615 -0.00847053 -0.0345399 -0.0764256 -0.0040526 -0.0544636 -0.10121 -0.0574937 -0.0370977 -0.107702 -0.0787903 -0.0234286 -0.0622174 -0.00361823 -0.051765 -0.0473621 -0.0411004 -0.0616166 -0.0115932 -0.0681093 -0.0798657 -0.040904 -0.0127522 -0.0397329 -0.097263 -0.0388579 0.0213309 -0.048804 -0.00237326 -0.10093 -0.0633662 -0.0469818 -0.0718958 -0.0532131 -0.0634714 -0.162077 -0.0661036 -0.0824083 -0.0629001 -0.090823 -0.036352 -0.0740731 0.0251607 -0.0352699 -0.0552521 -0.0826514 -0.0328591 -0.0751392 -0.024959 -0.164626 -0.0706207 -0.00725738 -0.0959867 -0.08416 -0.078255 -0.0169627 -0.0832174 -0.0444025 -0.0669467 -0.044149 0.0128828 -0.123825 -0.0304392 -0.0312527 0.0766541 -0.03043 -0.0847374 -0.031909 -0.0778351 -0.0678576 -0.0100695 -0.0585953 -0.0464986 -0.0472728 -0.0971679 -0.0234311 -0.0414168 -0.00980586 -0.0456265 -0.0371236 -0.0881096 -0.0355006 -0.0626895 -0.0369756 -0.0319825 -0.00499665 -0.0908089 -0.0510249 -0.0884049 -0.0461443 -0.0641071 -0.0396361 -0.0497692 -0.0387698 -0.0544449 -0.0980715 -0.0744587 -0.0126183 -0.0700459 0.0181065 -0.00569613 0.000843414 -0.0974772 -0.0360706 0.0151749 -0.162306 -0.0608394 0.00989847 0.0226736 -0.066116 -0.0354275 -0.0127152 -0.035072 -0.0347665 -0.00776695 -0.0723825 -0.0559755 -0.0700331 -0.0523773 -0.0849213 -0.0579537 -0.0340145 -0.0269903 -0.0776618 0.0389514 -0.0769117 -0.00384556 0.0590085 -0.0471039 -0.0453833 -0.0762529 0.027405 -0.0243206 0.028988 -0.032977 -0.0261932 -0.0654244 -0.0654135 -0.0244238 -0.0456782 -0.091003 -0.118523 -0.0197577 -0.16612 -0.0830228 -0.0541613 -0.0211439 -0.0232174 -0.0556424 -0.0362861 -0.0646602 -0.0718182 -0.0797044 -0.00626013 -0.0720748 -0.0895949 -0.0647764 -0.00785458 -0.0474912 -0.0476662 -0.0972672 -0.0501266 -0.00518772 -0.0551581 -0.0500721 0.00462438 -0.0181413 -0.0636038 -0.0449287 -0.0259916 -0.0599107 -0.0652369 -0.035922 -0.0511717 -0.0652677 -0.085023 -0.111027 -0.102193 -0.0113777 -0.0469273 -0.0564935 -0.0784499 -0.0909871 -0.000371118 -0.0133889 -0.0162021 0.0145313 -0.066747 -0.064598 -0.0634531 -0.0327194 -0.024804 -0.0379028 -0.0342486 -0.0261464 -0.0660161 -0.0461843 -0.0374274 -0.0112039 -0.0268247 -0.0348622 -0.0310918 -0.118095 -0.0600538 -0.0820948 -0.0644985 -0.0750751 -0.0381416 -0.0276929 -0.0949569 -0.0210154 -0.164072 -0.0462112 0.0168853 0.0137055 -0.0582197 -0.0475986 -0.0905324 -0.0304999 -0.0733291 -0.0517515 -0.0448821 -0.0704876 -0.0836738 -0.102054 0.0165175 -0.109381 -0.0303623 -0.122856 -0.0564072 -0.0473283 -0.0253271 -0.0183265 -0.0138879 -0.0102038 -0.0609959 -0.0563553 -0.0283651 -0.036993 -0.0249382 -0.112104 -0.033745 -0.0560497 -0.0503912 -0.0471066 -0.0940979 -0.0741018 -0.0920509 -0.0762356 -0.0749769 -0.0203599 0.0357937 -0.0429159 -0.00604025 -0.0853824 -0.0288443 -0.0908438 -0.017587 -0.0168575 0.0238014 -0.0239322 -0.0616064 -0.0738528 -0.0297972 0.000731726 -0.0767591 -0.0227472 -0.0624729 -0.0706455 -0.0680924 -0.0371524 -0.0399154 -0.102685 -0.0789757 -0.0748104 -0.0578261 -0.0895535 -0.0553855 -0.0244867 -0.0685972 -0.063872 -0.165654 -0.165157 -0.163123 -0.0826756 -0.16929 -0.0771805 -0.071235 -0.0287071 -0.037547 -0.051889 -0.000160654 -0.0920584 -0.027838 -0.0500806 -0.124046 -0.044713 0.0140121 -0.0137855 -0.0310208 -0.0195713 -0.0604922 -0.0193019 -0.0496147 -0.0462081 -0.0347851 -0.0924605 -0.0943113 -0.0524755 -0.057067 -0.0456086 -0.065767 -0.123929 -0.024828 -0.0723864 -0.0274586 -0.0510571 -0.086658 -0.0528871 -0.0390521 -0.0614976 -0.0635912 -0.0855863 -0.0977632 -0.0562855 -0.110959 -0.0476112 0.00765054 -0.0685416 -0.0565627 -0.0932694 -0.0556694 -0.072578 -0.0259521 -0.0828991 -0.0836257 0.0305631 -0.0739639 -0.00719284 -0.0376812 -0.0687553 -0.0517099 -0.0386327 -0.0150746 -0.0295723 -0.0553804 -0.0241319 -0.0316007 -0.0467869 -0.0474388 -0.0767126 -0.0326327 -0.0105483 -0.0772064 -0.0997165 -0.0519005 -0.0599138 -0.0750061 -0.1066 -0.0510974 -0.0633711 -0.0376556 0.0161936 -0.0651573 -0.0536567 -0.0254297 -0.0759125 -0.00219423 -0.0226071 -0.0451662 -0.0263961 -0.0319572 -0.0652581 -0.162243 -0.0806341 -0.0265411 -0.0934738 -0.0577156 -0.0992848 -0.0570531 -0.0320535 -0.017752 -0.099964 -0.0726361 -0.0650502 -0.0456535 -0.0823536 -0.0486152 -0.0758124 -0.075333 -0.0429406 -0.0855944 -0.0407034 -0.0282414 -0.0212883 -0.0678176 0.0491208 -0.092201 -0.0509469 -0.102998 0.010556 -0.0427909 -0.0172467 -0.094315 -0.0687118 -0.0822071 -0.0519066 0.0276492 -0.0575537 -0.163737 -0.0844584 -0.0837698 -0.163386 -0.00549302 -0.0675211 -0.0234971 -0.101508 -0.0955004 -0.0504647 -0.0596115 -0.0141844 -0.108584 -0.129371 -0.0696605 -0.0401614 -0.046351 -0.0763978 -0.0196002 0.000571771 -0.0860828 -0.0471197 -0.0585065 -0.0407258 -0.0581522 -0.121607 -0.0379336 -0.0113251 -0.0808627 -0.0147735 -0.0949815 -0.0790441 -0.0206349 -0.0336718 -0.0199028 -0.0122077 -0.0423695 -0.0706256 -0.0418847 -0.0691958 -0.0737436 -0.0988948 -0.038267 -0.0510336 -0.0687424 -0.0458299 -0.0285063 -0.0828958 -0.0191271 -0.0673161 -0.101556 -0.043931 -0.0925549 -0.0458006 -0.0609036 -0.0967477 -0.0684307 -0.03296 -0.0327029 -0.0874345 -0.082513 -0.0902252 -0.0822555 -0.0669633 -0.00556078 -0.0752097 -0.0191285 -0.0676953 -0.0265649 -0.0422338 -0.0919157 -0.0670659 -0.0558013 -0.0534605 -0.164229 0.00790987 -0.0823728 -0.0188439 -0.0954519 -0.0549448 -0.0839991 -0.165498 -0.0745728 -0.0104659 -0.0139813 -0.0626556 -0.0446797 -0.0587547 -0.0389446 -0.120876 -0.0720102 -0.0602961 -0.0738661 -0.0884874 -0.0628721 -0.123722 -0.0460368 -0.0630969 -0.0580195 -0.0162256 -0.0597919 -0.0336627 -0.125596 -0.0855084 -0.0594582 -0.0555847 -0.0931236 -0.0977647 -0.100805 -0.00804221 -0.0548464 -0.0307458 -0.0198824 -0.10502 -0.0369896 -0.0626262 0.000676656 -0.040556 -0.101539 -0.0157242 -0.0589469 -0.0174723 -0.00419728 -0.0555914 -0.0368129 -0.0983078 -0.0384487 -0.0938248 -0.0226345 -0.0451151 -0.0500803 -0.0447784 -0.0268365 -0.00824074 0.00890776 -0.0283846 0.0247189 -0.0364134 -0.00492166 -0.0293833 -0.108971 -0.0825321 -0.0755512 -0.0371572 0.00491665 -0.0188472 -0.0590205 -0.0625812 -0.0547977 -0.0987239 -0.0200452 -0.0258566 -0.0741927 -0.0763399 -0.0241673 -0.0183478 0.000115483 -0.0839832 -0.0534806 -0.0074028 0.0111251 -0.0697614 -0.0639402 -0.0507301 -0.0688787 -0.079509 -0.0819028 -0.0664544 0.00727739 -0.038485 -0.0936164 -0.0544874 -0.0237769 -0.0286255 -0.0362252 -0.0916554 -0.011156 -0.0115749 -0.00901986 -0.00857172 -0.0708742 -0.0107908 0.0167236 -0.0445379 -0.0636514 -0.0145693 -0.0143105 -0.0464175 -0.0538108 -0.0478655 -0.081859 0.0192642 -0.0431694 -0.096982 -0.0638082 -0.0892943 -0.0478593 -0.00459248 -0.037119 -0.0520585 -0.0537453 -0.0772925 -0.037586 -0.00931568 -0.0129014 -0.0440257 -0.0861453 -0.0957137 -0.0992179 0.0409108 -0.119794 -0.163224 -0.162981 -0.1311 -0.129613 -0.113693 -0.103574 -0.103966 0.0053183 -0.114316 -0.0227295 -0.0471565 -0.0615053 -0.0706255 -0.0867059 -0.0623857 -0.0761351 -0.165587 -0.13582 0.0169389 -0.049639 -0.0573732 -0.0871991 -0.0661271 -0.0642922 -0.0584125 -0.0210545 -0.0549517 -0.0399001 -0.0397326 -0.0346747 -0.0961773 -0.0663266 -0.0669979 -0.093418 -0.0911503 -0.0936353 -0.0616314 -0.0826708 -0.00203629 -0.0384331 -0.0706152 -0.0740971 -0.0981815 -0.049376 -0.00982297 -0.163526 -0.026842 0.0274812 -0.0876772 -0.0875331 -0.0767646 -0.0838464 -0.0697016 -0.128434 -0.103965 -0.0812997 -0.0927048 -0.080652 -0.0926498 -0.0368955 -0.0586233 -0.093852 0.0216835 -0.088626 -0.0435809 -0.109091 -0.0352137 -0.052154 -0.0320359 -0.107357 -0.0998449 -0.0640235 -0.0682021 -0.118777 -0.0544376 -0.0586897 -0.0857978 -0.068756 -0.0659873 -0.0733231 -0.0372518 -0.0258822 -0.0505242 -0.0536009 -0.072951 -0.0705503 -0.0777028 -0.0906041 -0.0563768 -0.0750205 -0.00531541 -0.0966867 -0.0887305 -0.00149975 -0.0693542 -0.103727 -0.118436 -0.104932 -0.00984962 -0.105979 -0.0515069 -0.0706969 -0.044035 -0.0603592 -0.0851025 -0.0471342 0.0178011 -0.0157477 -0.103765 -0.133655 -0.0112877 -0.0362202 -0.0934697 -0.0834999 -0.165138 -0.101413 -0.0214201 0.0457119 -0.0362338 -0.0322842 0.00432941 -0.0447518 -0.0703935 -0.100326 -0.04297 -0.0445805 -0.0449328 -0.068368 0.00606521 -0.060331 0.0239052 -0.0758519 -0.0816198 -0.107857 -0.117999 -0.164965 -0.126193 -0.0712181 -0.0159361 -0.0162357 -0.085897 -0.0360256 -0.0787869 -0.0613729 -0.0228456 -0.0586816 -0.102431 -0.0810106 -0.0287794 -0.032444 -0.0960297 -0.0939303 -0.00939099 -0.0563354 -0.0711124 -0.0912472 -0.10735 -0.0400772 -0.0530282 -0.0975967 -0.0429711 -0.0649477 -0.0892772 -0.0179237 -0.0957069 -0.0918173 -0.0600147 -0.169243 -0.0922503 0.00673749 0.0392832 -0.0484783 -0.0597309 -0.0580779 -0.0838764 -0.0490584 -0.0225104 -0.0297966 -0.0684518 0.0134703 -0.0541579 -0.0637185 -0.165172 -0.165076 -0.0376039 -0.0941673 -0.0246419 -0.0768585 -0.0263451 -0.121828 -0.164403 -0.0403986 -0.0488792 0.035889 -0.0845091 -0.0538934 -0.0120528 -0.0399588 -0.0602386 -0.0902628 -0.0505384 -0.0909858 -0.0803127 -0.0366107 -0.0794458 -0.0645492 -0.0971474 -0.0620761 -0.0202298 -0.0428058 -0.0654325 -0.101177 -0.0258626 -0.0642215 0.0221989 -0.0570579 -0.0746006 -0.0451665 -0.0887559 0.00982369 -0.0319486 -0.0628149 -0.0767099 -0.163717 -0.109885 -0.0066594 -0.0737919 -0.0273263 -0.0985526 -0.0725137 -0.101268 -0.0621501 -0.0826584 -0.0287244 -0.0762961 -0.105016 -0.099575 -0.123386 -0.0547166 0.0276345 -0.0452314 -0.0510634 -0.00118074 -0.0425509 -0.0483605 -0.0647084 -0.0258523 -0.0766083 -0.0911024 -0.0682741 -0.0475954 -0.103463 0.0201871 -0.0487317 -0.0378668 -0.0237745 -0.0661752 -0.055138 -0.0733601 -0.0207969 -0.0532334 -0.120788 -0.0936786 -0.0675456 -0.0887737 -0.0595028 -0.0961134 -0.0802128 -0.0855741 -0.00288743 -0.0571513 -0.0903791 -0.0580823 -0.0946034 -0.0963722 -0.072759 -0.0865501 -0.0358451 -0.0261045 -0.0241073 -0.0687189 -0.106001 -0.114375 -0.0473883 -0.106963 -0.0238622 -0.0215539 -0.0893557 -0.0706594 -0.0506467 -0.12137 -0.0912171 -0.0411266 -0.0746355 -0.058729 -0.0149124 -0.164362 -0.0708797 -0.0564973 -0.108343 -0.0330831 -0.0399177 -0.098682 -0.0993163 -0.0208113 -0.100884 -0.0982644 -0.0404853 0.0382555 -0.0736596 -0.0698472 -0.0952378 -0.101282 -0.0534899 -0.0935183 -0.163956 -0.0215877 -0.0432133 -0.0503227 0.00427389 -0.0367637 -0.105675 -0.085278 -0.137429 -0.093566 0.00165165 -0.0391805 -0.10617 -0.163442 -0.163731 -0.0701502 -0.0176193 -0.0965718 -0.0172517 -0.0911511 -0.0680211 -0.0793632 -0.0580809 -0.0798797 -0.0619798 -0.0986019 -0.0954074 -0.112594 -0.0770837 -0.162621 -0.0901466 -0.116721 -0.0977736 -0.105804 -0.104379 -0.039706 -0.0918834 -0.16596 -0.0209492 -0.165989 -0.0634675 -0.0443384 -0.108658 -0.0957826 -0.0357045 -0.054935 0.00138535 -0.0316123 -0.101612 -0.04814 -0.0735081 -0.078136 -0.0690943 -0.042245 -0.0320056 -0.162834 -0.0865338 -0.0488585 -0.0604681 -0.103853 -0.0946339 -0.0542522 -0.105118 -0.115415 -0.0673499 -0.066254 -0.0263846 -0.0793496 -0.0606543 0.0039851 -0.0910739 -0.0902596 -0.0196988 -0.0659781 -0.0684348 -0.0287898 -0.032451 -0.00170576 -0.052496 -0.096979 -0.0862514 -0.0782136 -0.0555802 -0.0958762 -0.025777 -0.0703558 -0.0755536 -0.0401162 -0.026521 -0.0971247 -0.0268806 -0.0171104 0.0181375 -0.165602 -0.0852198 0.0140204 -0.110295 -0.0953594 -0.0110041 -0.0507495 -0.0794932 -0.0570803 -0.0949618 -0.163578 -0.0445383 -0.164275 -0.0703252 -0.0489394 -0.0635914 -0.0680699 -0.020451 -0.0669932 -0.0283387 -0.033801 0.0450667 -0.0696701 -0.0375367 -0.0607498 -0.100931 -0.0468039 -0.0641226 -0.0643141 -0.0470276 -0.0312015 -0.101604 -0.033089 -0.0474797 -0.0677119 -0.0727859 -0.0617369 -0.0737675 -0.16223 -0.0763849 -0.0212614 -0.0502569 -0.164543 -0.102718 -0.0545343 -0.0770599 -0.0250146 -0.0477985 0.0212834 -0.0952994 -0.0852173 -0.0872156 -0.0861358 -0.0539681 -0.0402099 -0.0492662 0.0167931 -0.030634 -0.0724208 -0.0769567 -0.0333638 -0.0743223 -0.043912 -0.10995 -0.0930404 -0.0952452 -0.166622 0.022762 -0.0646963 -0.0208938 -0.0843772 -0.107236 -0.0929665 -0.0741831 -0.061602 -0.078646 -0.0637779 -0.0425855 -0.076887 -0.0469465 -0.0148359 0.000574733 -0.0925206 -0.0687316 -0.0989385 -0.0498651 -0.0820246 -0.0617967 -0.0517504 -0.0683504 -0.143326 -0.0692922 -0.0760479 -0.0398275 -0.108739 -0.0416063 -0.0629564 -0.02481 -0.0789864 -0.0780308 -0.0389238 -0.0858501 -0.0816919 -0.0896198 -0.0275155 -0.0022076 -0.0582016 -0.0232379 -0.0328003 -0.0903797 -0.0971125 -0.0236606 -0.0226364 -0.118265 -0.0386901 -0.0601934 -0.0891418 -0.0526158 -0.0476238 -0.079435 -0.0193168 -0.0424918 -0.0392603 -0.113216 -0.124341 -0.0622005 -0.122305 -0.0591898 -0.0812968 -0.0716078 -0.119363 -0.161419 -0.0938068 -0.0845362 -0.110692 -0.0822846 -0.0730128 -0.0619701 -0.0885813 -0.0213226 -0.0715914 -0.106817 -0.0729337 -0.0938245 -0.0865037 -0.0320063 -0.0871138 -0.0227226 -0.0701477 -0.0328189 -0.071819 -0.032 -0.042769 -0.0339987 -0.08786 -0.0579986 -0.0620019 -0.0391733 -0.0751159 -0.0751468 -0.0503833 -0.0862199 -0.0614426 -0.0399483 -0.0827042 -0.0294665 -0.0632121 -0.0187426 -0.0857489 -0.032923 -0.102577 -0.165873 -0.042523 -0.0396155 -0.0871147 -0.045467 -0.0577289 -0.0934206 -0.0549076 -0.088142 -0.0263667 -0.0455159 -0.0880672 -0.0415201 -0.119877 -0.108804 -0.0670285 -0.141395 -0.0333099 -0.165402 -0.013779 -0.0941654 -0.0750026 0.00267109 -0.0226285 -0.033713 -0.164751 -0.0899472 -0.071965 -0.104685 -0.00694714 -0.125194 -0.00518866 -0.0328545 -0.0717551 -0.0715881 -0.0704788 -0.163894 -0.0957276 -0.0614618 -0.107506 -0.0749269 -0.0163024 -0.0110533 -0.0252146 -0.0849525 -0.0525118 -0.0958984 -0.0636861 -0.069599 -0.0815453 0.0119082 -0.0917984 -0.0484188 -0.0011867 -0.0258477 -0.102459 -0.0939647 -0.0688557 -0.0658131 -0.0888765 -0.0350973 -0.0423809 -0.109732 -0.0356213 -0.0689426 -0.0723924 -0.061987 -0.0398213 -0.072484 -0.0202026 -0.162682 -0.104363 -0.0976157 -0.126206 -0.0779269 -0.0928414 -0.0800788 -0.0523944 -0.0725038 -0.0356314 -0.0736117 -0.116971 -0.0695662 -0.0217264 -0.0655742 -0.113288 -0.0615813 -0.0324381 -0.0720167 -0.0526865 -0.0708772 -0.165044 -0.0411381 -0.0991794 -0.165092 -0.16613 -0.0803492 -0.0160277 -0.0817159 -0.0729363 -0.164172 -0.0642341 -0.0945585 -0.0991685 -0.0645984 -0.164402 -0.0778752 -0.0596087 -0.0822927 -0.100491 -0.0635889 -0.096568 -0.0297584 -0.0608333 -0.0777356 -0.0233729 -0.0697573 -0.0675106 -0.0383707 -0.0843802 -0.116318 -0.103573 0.0012918 -0.0800406 -0.0368909 -0.093237 -0.103123 -0.117349 -0.0671282 -0.0943238 -0.104851 -0.0759812 -0.0481698 -0.0316522 -0.0951916 -0.0812321 -0.0953668 -0.0799539 -0.0888769 -0.0583365 -0.0656442 -0.102451 -0.0177796 -0.0499043 -0.0731892 -0.0445831 -0.102833 -0.0454942 -0.0635173 -0.093671 -0.163616 -0.166482 -0.161297 -0.112564 -0.162661 -0.0809703 -0.0332538 -0.0883489 -0.0851698 -0.104927 -0.0592883 -0.0704867 -0.0574064 -0.0449617 -0.0729523 -0.0514766 -0.0765675 -0.066961 -0.00482685 -0.0390227 -0.050766 -0.0797036 -0.0432522 -0.0773401 -0.00403798 -0.0509402 -0.0754822 -0.0276315 -0.0740248 -0.0806479 -0.0756024 -0.162751 -0.0805195 -0.0767732 -0.08473 -0.0608648 -0.0673695 -0.0483001 -0.091013 -0.061328 -0.102406 -0.0681219 -0.0982512 -0.103106 -0.075192 -0.036623 -0.16339 -0.0512406 -0.0474409 -0.009083 -0.0918125 -0.0651395 -0.0518626 -0.0567252 -0.0418345 -0.0147505 -0.0684419 -0.0786359 -0.0970964 -0.0534659 -0.0797107 -0.0652914 -0.0915746 -0.0762954 -0.0909622 -0.0857805 -0.0366635 -0.0595835 -0.0464298 -0.0258719 -0.085237 -0.0444929 -0.0935852 -0.0487508 -0.0567018 -0.08633 -0.0312521 -0.0655494 -0.0612244 -0.0351831 -0.0819524 -0.0497297 -0.163641 -0.0641384 -0.068634 -0.0492893 -0.0232301 -0.0430903 -0.108443 -0.0139162 -0.109452 -0.0627644 -0.0381555 -0.0745625 -0.0589164 -0.0254664 -0.0133879 -0.0485209 -0.0698003 -0.164571 -0.0732639 -0.0871581 -0.081313 -0.0717235 -0.068997 -0.0423321 -0.0375586 -0.0362304 -0.09292 -0.0861174 -0.0918405 -0.106357 -0.0898951 -0.0635476 -0.0894286 -0.060426 -0.0603207 -0.0458095 -0.0269399 -0.074942 -0.0751658 -0.0727712 -0.0972782 -0.0357447 -0.136801 -0.0884311 -0.102285 -0.0727951 -0.0293973 -0.0813925 -0.165191 0.0212838 -0.105099 -0.0254576 -0.10517 -0.0825206 -0.1032 -0.0845606 -0.115995 -0.100194 -0.0479291 -0.165349 -0.0480487 -0.0970909 -0.0716282 -0.0645083 -0.0862333 -0.0603682 -0.107294 -0.0408385 -0.0367409 -0.0467519 -0.0972075 -0.0577718 -0.107097 -0.0832857 -0.0434926 -0.100792 -0.0530568 -0.0647847 -0.0459899 -0.0851175 -0.120047 -0.0907343 -0.0136488 -0.0815126 -0.0741084 -0.0550587 -0.0654905 -0.0934188 -0.0613401 -0.0299638 -0.0287525 -0.0284631 -0.0472515 -0.162653 -0.0770438 -0.113873 -0.0785471 -0.108607 -0.053696 -0.0450671 -0.0424703 -0.0967094 -0.087708 -0.0524956 -0.0544805 -0.0451773 -0.0642048 -0.164619 -0.0795101 -0.0418431 -0.0778519 -0.0687722 -0.107143 -3.43825e-05 -0.0799771 -0.0550503 -0.0792031 -0.0359655 -0.0766601 -0.0445041 -0.0864309 -0.0223318 -0.0847022 -0.0342419 -0.0645994 -0.0637414 -0.110815 -0.0532918 -0.0585776 -0.0917784 -0.0253802 -0.0986505 -0.109073 -0.0206525 -0.0350175 -0.0528977 -0.0244633 -0.0526954 -0.0761967 -0.0916667 -0.12343 -0.108464 -0.103629 -0.0572272 -0.111936 -0.0272709 -0.0374351 -0.0998654 -0.109129 -0.0995757 -0.114225 -0.068604 -0.0307994 -0.0183032 -0.0852869 -0.0816608 -0.104294 -0.0512434 -0.113078 -0.0616376 -0.0993517 -0.11019 -0.0663789 -0.0127831 -0.0930172 -0.0352468 -0.093324 -0.0878488 -0.0846402 -0.086615 -0.0673568 -0.0545708 -0.0474795 -0.0669118 -0.12129 -0.072824 -0.040012 -0.0980817 -0.0848361 -0.0767478 -0.0780824 -0.0738222 -0.0182452 -0.0731121 -0.0754879 -0.0913063 -0.0857622 -0.0553835 0.00667403 -0.104731 -0.11945 -0.0716824 -0.0698994 -0.0927575 -0.0710368 -0.0861057 -0.102578 -0.0846057 0.00494648 -0.0642434 -0.0903482 -0.0894201 -0.0837013 -0.0409295 -0.137464 -0.0393704 -0.0871763 -0.0791877 -0.100124 -0.133727 -0.0756913 -0.16382 -0.0397929 -0.083 -0.164299 -0.0815415 -0.0702037 -0.0154235 -0.163926 -0.105685 -0.104515 -0.0757607 -0.0717198 -0.162755 -0.165103 -0.0646968 -0.123183 -0.0835239 -0.0803368 -0.0295626 -0.0604051 -0.076454 -0.0860676 -0.0925843 -0.165385 -0.0904002 -0.0527371 -0.056809 -0.0883053 -0.0727746 -0.0746658 -0.058522 -0.165106 -0.0793623 -0.163564 -0.0769178 -0.167154 -0.164807 -0.0906699 -0.085096 -0.071137 -0.0774996 -0.0842197 -0.0486129 -0.0926361 -0.0890522 -0.136603 -0.0372625 -0.0806687 0.0415566 -0.0454844 -0.126619 -0.072922 -0.0950259 -0.0860042 -0.0849916 -0.106431 -0.0812684 -0.0491807 -0.16452 -0.0601389 -0.0357931 -0.0359241 -0.0991998 -0.038013 -0.0555675 -0.0819669 -0.0914298 -0.0942766 -0.0641659 -0.0913909 -0.0733947 -0.137409 -0.103851 -0.00916746 -0.0899969 -0.10596 -0.0194634 -0.0661772 -0.0722334 -0.0343197 -0.112595 -0.0753684 -0.0732796 -0.0846653 -0.0924512 -0.163184 -0.0910075 -0.0995939 -0.105223 -0.123194 -0.0688388 -0.0767199 -0.115874 -0.163062 -0.0643673 -0.0804054 -0.0802979 -0.0594597 -0.165422 -0.0965715 -0.0857659 -0.0893688 -0.077187 -0.0332523 -0.0801512 -0.162095 -0.119459 -0.0846804 -0.0989149 -0.15556 -0.0629872 -0.0308374 -0.0666884 -0.0975242 -0.164828 -0.0772765 -0.0828089 -0.0960199 -0.0575007 -0.0988013 -0.0302393 -0.162631 -0.165218 -0.164276 -0.098128 -0.106069 -0.0366343 -0.0600195 -0.0525687 -0.0411518 -0.0990663 -0.0670705 -0.0574039 -0.0234731 -0.108167 -0.0550133 -0.101023 -0.0908356 -0.0673597 -0.0986129 -0.0893481 -0.0625945 -0.103107 -0.0488674 -0.0810118 -0.163222 -0.0345343 -0.042734 -0.0160946 -0.0917042 -0.163901 -0.0939961 -0.163714 -0.077588 -0.110372 -0.0663262 -0.0632454 -0.0237894 -0.00520985 -0.0699241 -0.0649788 -0.0495906 -0.101837 -0.105645 -0.105948 -0.014864 -0.100119 -0.102704 -0.0620588 -0.08513 -0.0500266 -0.0590879 -0.0922229 -0.0460997 -0.0521819 -0.164544 -0.0772646 -0.0431167 -0.0459785 -0.0628908 -0.0849155 -0.128964 -0.0780106 -0.116997 -0.062139 -0.0727986 -0.0998006 -0.0759987 -0.109842 -0.07687 -0.0912538 -0.0465741 -0.073927 -0.0476087 -0.0864266 -0.064761 -0.102624 -0.0727922 -0.11529 -0.116191 -0.150562 -0.0703105 -0.0902292 -0.164173 -0.0998017 -0.167241 -0.165195 -0.091438 -0.0825449 -0.0912632 -0.105698 -0.087 -0.137002 -0.0612014 -0.100765 -0.0996684 -0.010677 -0.0812482 -0.104056 -0.110646 -0.0825788 -0.0695884 -0.10382 -0.0957382 -0.0444815 -0.0714352 -0.0611938 -0.164353 -0.0966915 -0.102938 -0.0525638 -0.161719 -0.0365755 -0.0964311 -0.108263 -0.0657109 -0.0735832 -0.0984211 -0.0673405 -0.0554618 -0.101582 -0.0605377 -0.0683029 -0.101261 -0.0636309 -0.063239 -0.0339351 -0.0689267 -0.111128 -0.0561737 0.0472898 -0.115599 -0.0907262 -0.0656727 -0.164298 -0.060794 -0.0900432 -0.163841 -0.0998871 -0.112575 -0.107224 -0.0621536 -0.0665247 -0.163543 -0.052862 -0.0724234 -0.127745 -0.0349319 -0.165595 -0.093993 -0.0704182 -0.163917 -0.0751604 -0.109221 -0.0811784 -0.104695 -0.165387 -0.165219 -0.100393 -0.0714155 -0.0810289 -0.0957068 -0.0531387 -0.0965772 -0.0523001 -0.0840546 -0.0710111 -0.0691972 -0.165416 -0.164543 -0.0507772 -0.090685 -0.0923643 -0.0869569 -0.115729 -0.0533687 -0.0941273 -0.0101587 -0.074426 -0.0619586 -0.0604112 -0.11838 -0.0352886 -0.0401406 -0.0432903 -0.0735723 -0.111682 -0.0282538 -0.0305662 -0.129551 -0.0613331 -0.046569 -0.0308756 -0.0884563 -0.0839229 -0.100868 -0.0789746 -0.0995941 -0.0652612 -0.0386035 -0.0646647 -0.0959985 -0.083555 -0.0946493 -0.111607 -0.125351 -0.0820745 -0.0996652 -0.165216 -0.0748778 -0.056997 -0.0809627 -0.164612 -0.1644 -0.11144 -0.0828737 -0.110804 -0.103204 -0.112991 -0.0981295 -0.0857414 -0.165246 -0.0824549 -0.0696797 -0.0792254 -0.112476 -0.0541921 -0.0356488 -0.0855109 -0.0254319 -0.121882 -0.164732 -0.0908536 -0.10819 -0.100787 -0.0986577 -0.0927732 -0.0936475 -0.0639763 -0.0690925 -0.0579395 -0.0725582 -0.116322 -0.101044 -0.0779513 -0.0922164 -0.11415 -0.0336507 -0.0915339 -0.0845807 -0.0827351 -0.0496532 -0.141396 -0.0572853 -0.0719866 -0.0666902 -0.0850348 -0.0536127 -0.0863541 -0.0801635 -0.16165 -0.0678134 -0.0415034 -0.136906 -0.0993572 -0.0627499 -0.0704514 -0.113561 -0.0654253 -0.0888065 -0.0418327 -0.0685666 -0.089813 -0.0841983 -0.0430743 -0.0774952 -0.0918641 -0.0919585 -0.0474989 -0.0690363 -0.0750924 -0.0873012 -0.0523815 -0.0980771 -0.076706 -0.0432647 -0.0736894 -0.0794502 -0.0980303 -0.0747965 -0.0629844 -0.105376 -0.117353 -0.0924097 -0.0488897 -0.077386 -0.0933952 -0.0798578 -0.0379361 -0.08537 -0.0636097 -0.000278592 -0.164783 -0.0837666 -0.0949931 -0.0957226 -0.0421146 -0.0677135 -0.115737 -0.0927589 -0.0261938 -0.163977 -0.0774709 -0.0893997 -0.165854 -0.02219 -0.0566792 -0.0949126 -0.0421046 -0.0507894 -0.110698 -0.0646876 -0.0942719 -0.0505953 -0.085737 -0.0903461 -0.0694485 -0.0846092 -0.0552194 -0.0434129 -0.0966893 -0.165257 -0.066634 -0.0492567 -0.067532 -0.0695225 -0.0726878 -0.0508621 -0.163838 -0.0628047 -0.0982505 -0.0323947 -0.0563101 -0.0897602 -0.091186 -0.0494718 -0.0565583 -0.10043 -0.0932358 -0.0678884 -0.0615857 -0.0895967 -0.0327644 -0.0710276 -0.100827 -0.0727646 -0.0960847 -0.0927881 -0.0646506 -0.089608 -0.0781869 -0.164875 -0.088617 -0.0820385 -0.105529 -0.0935983 -0.0268676 -0.0650993 -0.110052 -0.0890858 -0.071374 -0.165049 -0.0626012 -0.0940786 -0.0691616 -0.0873974 -0.0508309 -0.0906821 -0.0903791 -0.100109 -0.0414063 -0.0458448 -0.0614814 -0.16418 -0.164265 -0.0988465 -0.0798335 -0.0729002 -0.0630823 -0.0755741 -0.0760408 -0.132192 -0.129983 -0.0936889 -0.0718278 -0.064492 -0.102679 -0.0998861 -0.0642736 -0.0928032 -0.161862 -0.0732567 -0.0677409 -0.163223 -0.10846 -0.0859834 -0.075305 -0.0362578 -0.0850626 -0.0343129 -0.103095 -0.0824533 -0.0891452 -0.0691561 -0.093712 -0.0716432 -0.164264 -0.0891265 -0.0907545 -0.0284903 -0.0948537 -0.112309 -0.0649506 -0.168411 -0.0745945 -0.162615 -0.0676416 -0.0807602 -0.0940811 -0.068235 -0.0829377 -0.0528043 -0.107557 -0.163627 -0.0564535 -0.0611614 -0.0623777 -0.0767087 -0.0949187 -0.0909423 -0.0574521 -0.111096 -0.0925185 -0.0825403 -0.0310803 -0.061258 -0.0884538 -0.0537888 -0.0854814 -0.0567464 -0.0538409 -0.0950704 -0.098691 -0.16439 -0.0902204 -0.0671614 -0.0725615 -0.0809515 -0.058019 -0.0992979 -0.0863961 -0.162971 -0.101572 -0.0323927 -0.161629 -0.0983625 -0.0833303 -0.10012 -0.0970651 -0.101767 -0.0650884 -0.0859534 -0.0928111 -0.0376196 -0.0941368 -0.0754669 -0.0698536 -0.0776255 -0.0840614 -0.0282549 -0.0967431 -0.100333 -0.0730186 -0.0247924 -0.0799834 -0.099713 -0.0608318 -0.0310751 -0.0602469 -0.0961635 -0.112375 -0.0930632 -0.076707 -0.0926665 -0.0840599 -0.10325 -0.0733247 -0.0223189 -0.0768134 -0.1632 -0.056736 -0.117275 -0.0750857 -0.101631 -0.0888542 -0.0948199 -0.0979415 -0.0818774 -0.164994 -0.0852176 -0.0995329 -0.102743 -0.0730874 -0.164395 -0.0520301 -0.0692525 -0.164917 -0.050634 -0.0738992 -0.0701925 -0.0919272 -0.0538601 -0.0948984 -0.162009 -0.0415281 -0.0433772 -0.0700176 -0.102195 -0.0608256 -0.086208 -0.103092 -0.0672221 -0.120311 -0.0616227 -0.0752231 -0.081753 -0.0338005 -0.0572635 -0.0480094 -0.080201 -0.0784503 -0.0145541 -0.043693 -0.0367361 -0.0893932 -0.0968591 -0.0529126 -0.0607185 -0.0402168 -0.0812938 -0.0426088 -0.165145 -0.166121 -0.090919 -0.0949804 -0.0604916 -0.070421 -0.0457437 -0.129243 -0.0847639 -0.138844 -0.123054 -0.106256 -0.0842277 -0.0597581 -0.0973225 -0.0490002 -0.0622929 -0.0877274 -0.0474394 -0.111604 -0.0558414 -0.165008 -0.0935618 -0.123494 -0.0581504 -0.102301 -0.0953885 -0.108041 -0.16607 -0.165613 -0.0877186 -0.105402 -0.165197 -0.0928955 -0.0736828 -0.162653 -0.103354 -0.0841904 -0.0997553 -0.0761708 -0.0625472 -0.0839207 -0.102446 -0.067601 -0.0501486 -0.0926606 -0.164887 -0.162953 -0.0826344 -0.163837 -0.098585 -0.117052 -0.164795 -0.164644 -0.0998363 -0.0737658 -0.166023 -0.106512 -0.0916224 -0.0981072 -0.164828 -0.079985 -0.0708266 -0.0593437 -0.114485 -0.0744363 -0.104379 -0.0602956 -0.0833325 -0.0447001 -0.163372 -0.0825534 -0.165639 -0.0133789 -0.0585155 -0.00549285 -0.107526 -0.043676 -0.167365 -0.0956892 -0.0977942 -0.0637656 -0.0620905 -0.030443 -0.0966455 -0.103429 -0.0893734 -0.0755711 -0.163291 -0.0873538 -0.153101 -0.095295 -0.163157 -0.164533 -0.0933063 -0.0889357 -0.0600087 -0.077653 -0.0907016 -0.0895163 -0.0924068 -0.0493954 -0.0720875 -0.165036 -0.047116 -0.0853613 -0.0602467 -0.0864875 -0.0366709 -0.0787837 -0.0730424 -0.0895277 -0.0736287 -0.0642968 -0.163132 -0.0566795 -0.0650476 -0.0705141 0.00376251 -0.0937861 -0.063971 -0.10674 -0.0112137 -0.163012 -0.0689545 -0.0716629 -0.0562453 -0.0607315 -0.0782983 -0.160717 -0.0781089 -0.118616 -0.145965 -0.117693 -0.116748 -0.129539 -0.102533 -0.0523981 -0.114754 -0.111879 -0.06665 -0.164852 -0.164378 -0.162378 -0.0952202 -0.04612 -0.0710389 -0.0847365 -0.0899716 -0.106727 -0.056069 -0.163364 -0.130431 -0.111588 -0.0444794 -0.0763758 -0.121216 -0.166209 -0.0758007 -0.125667 -0.0598336 -0.161596 -0.086317 -0.0634267 -0.0598666 -0.163369 -0.0853275 -0.117968 -0.0715613 -0.0567683 -0.092766 -0.0968918 -0.0912723 -0.0845698 -0.0963033 -0.0528082 -0.166052 -0.0952439 -0.0733792 -0.101703 -0.0698276 -0.164204 -0.0438506 -0.0822116 -0.0988722 -0.0539193 -0.0802236 -0.121549 -0.0877124 -0.0739695 -0.0546298 -0.115718 -0.0737946 -0.1631 -0.165938 -0.131291 -0.0879275 -0.120248 -0.0962029 -0.0861416 -0.0938979 -0.0990471 -0.164213 -0.165272 -0.0239074 -0.0946376 -0.0462166 -0.10451 -0.149378 -0.0810426 -0.0739032 -0.0608211 -0.044907 -0.107697 -0.0910066 -0.0989319 -0.0649794 -0.164185 -0.114537 -0.0825386 -0.0934815 -0.0895438 -0.103814 -0.0931305 -0.0658372 -0.0904401 -0.0975224 -0.111077 -0.103688 -0.102853 -0.0663811 -0.0997625 -0.0638908 -0.0625911 -0.0311735 -0.0984029 -0.0615629 -0.0515444 -0.130482 -0.0431277 -0.164047 -0.164655 -0.105573 -0.0771085 -0.164641 -0.165271 -0.101586 -0.112966 -0.0836695 -0.0367926 -0.166576 -0.0242117 -0.107836 0.00808406 -0.16259 -0.100222 -0.0884885 -0.082306 -0.109336 -0.0778388 -0.0765863 -0.0337294 -0.108061 -0.0652703 -0.0938408 -0.102086 -0.0446827 -0.0836143 -0.0981602 -0.166097 -0.164748 -0.164132 -0.0622082 -0.0544547 -0.125694 -0.103239 -0.0989307 -0.120795 -0.162656 -0.167879 -0.0372088 -0.084465 -0.048491 -0.165474 -0.16439 -0.104394 -0.164606 -0.0669399 -0.104695 -0.0857874 -0.102876 -0.0911274 -0.0872424 -0.0866922 -0.121824 -0.101947 -0.0111394 -0.0945809 -0.0808261 -0.0339831 -0.161814 -0.093262 -0.165886 -0.0358846 -0.124768 -0.0882419 -0.069425 -0.0879562 -0.0732457 -0.0603676 -0.063295 -0.0669442 -0.0669341 -0.0718494 -0.0425247 -0.0736297 -0.0932115 -0.16473 -0.164596 -0.0776887 -0.0932226 -0.0847237 -0.0895439 -0.165493 -0.165112 -0.0264405 -0.165259 -0.0766387 -0.1005 -0.063042 -0.0625472 -0.0795276 -0.165118 -0.0810248 -0.0527133 -0.085832 -0.0752124 -0.164696 -0.163673 -0.165698 -0.0839702 -0.0904234 -0.0560661 -0.104388 -0.0973059 -0.0875895 -0.0915389 -0.0966915 -0.111547 -0.0728906 -0.0231923 -0.0771459 -0.089608 -0.0741221 -0.109141 -0.0775979 -0.0771871 -0.073563 -0.017075 -0.10235 -0.0437001 -0.0365173 -0.105076 -0.0776273 -0.0807252 -0.0611948 -0.0479699 -0.0710778 -0.0844703 -0.118326 -0.0777233 -0.10434 -0.0982396 -0.0820394 -0.165732 -0.1015 -0.0458602 -0.162831 -0.163391 -0.0143572 -0.11083 -0.101467 -0.0992455 -0.0966174 0.00409824 -0.0743359 -0.0973417 -0.123243 -0.111899 -0.098827 -0.0801605 -0.167052 -0.100978 -0.0879776 -0.0935859 -0.0809132 -0.092465 -0.0843679 -0.0932458 -0.102711 -0.08109 -0.0564102 -0.0937613 -0.0805621 -0.0922904 -0.105629 -0.0726132 -0.0790833 -0.0673665 -0.11758 -0.0972162 -0.0669907 -0.091637 -0.0729273 -0.0901026 -0.0892164 -0.165665 -0.0997118 -0.0841379 -0.0471292 -0.00411197 -0.0720619 -0.163533 -0.0384523 -0.164837 -0.0929129 -0.0588807 -0.0212244 -0.0792211 -0.0186287 -0.0851038 -0.0554639 -0.165167 -0.0709243 -0.0727963 -0.0559207 -0.0859361 -0.0649387 -0.095227 -0.164432 -0.0525757 -0.0935228 -0.0882467 -0.0886459 -0.116137 -0.0622173 -0.0740057 -0.107477 -0.0668186 -0.111619 -0.166262 -0.163707 -0.0805576 -0.0656877 -0.0805222 -0.0822622 -0.116468 -0.0700647 -0.0976018 -0.0815066 -0.060802 -0.0452719 -0.0433986 -0.081836 -0.0631732 -0.0997051 -0.162596 -0.0712128 -0.0673191 -0.0907786 -0.161929 -0.0619559 -0.0947584 -0.0886047 -0.114456 -0.0918912 -0.130868 -0.141261 -0.0976353 -0.119421 -0.116408 -0.101081 -0.0450785 -0.100055 -0.1624 -0.0930184 -0.116877 -0.100184 -0.0825703 -0.0398755 -0.16552 -0.0804522 -0.0943476 -0.0623321 -0.1035 -0.0568158 -0.0884771 -0.0283686 -0.0758349 -0.0441559 -0.164911 -0.0548708 -0.0867361 -0.0215061 -0.161606 -0.0696358 -0.0823147 -0.0677078 -0.0578195 -0.0481038 -0.0985302 -0.0333751 -0.0654663 -0.166537 -0.0353125 -0.0972982 -0.0511312 -0.108571 -0.144615 -0.162027 -0.0923115 -0.102806 -0.166653 -0.0506318 -0.0920999 -0.0547729 -0.067277 -0.0933969 -0.099312 -0.0724072 -0.0886796 -0.0990014 -0.0673478 -0.0900583 -0.0912247 -0.164229 -0.0981587 -0.163157 -0.0913582 -0.161726 -0.0969238 -0.0745817 -0.0568266 -0.0934225 -0.1021 -0.1228 -0.0757024 -0.0721892 -0.0408783 -0.115491 -0.104843 -0.0164689 -0.074519 -0.0407096 -0.0923627 -0.0617128 -0.138379 -0.0857738 -0.163952 -0.0994909 -0.104057 -0.0877778 -0.0965705 -0.0590359 -0.112029 -0.165746 -0.0318176 -0.0150096 -0.0809084 -0.0752349 -0.0592932 -0.0667242 -0.0468758 -0.161998 -0.0241655 -0.080593 -0.113944 -0.0738037 -0.161536 -0.046957 -0.0965892 -0.163427 -0.104204 -0.0879697 -0.099607 -0.0868986 -0.0882505 -0.082531 -0.0499624 -0.164792 -0.165507 -0.0855894 -0.0672629 -0.0628235 -0.161677 -0.142572 -0.105758 -0.0818076 -0.127405 -0.096989 -0.0807611 -0.103247 -0.120729 -0.110968 -0.0781706 -0.0955756 -0.0840723 -0.0546836 -0.164022 -0.0880772 -0.087909 -0.0978595 -0.0662654 -0.162121 -0.0728018 -0.0843486 -0.0646661 -0.0787293 -0.118175 -0.165252 -0.073502 -0.0789607 -0.0839093 -0.0901355 -0.0413828 -0.127738 -0.0676603 -0.0600699 -0.0550542 -0.163879 -0.163927 -0.114543 -0.0822671 -0.0595921 -0.16387 -0.101295 -0.0866701 -0.111139 -0.0880241 -0.100729 -0.100697 -0.0495875 -0.0775417 -0.164248 -0.0832776 -0.163256 -0.163278 -0.108999 -0.0918845 -0.104065 -0.122402 -0.164857 -0.0727515 -0.103508 -0.0996549 -0.0414513 -0.0792328 -0.0746409 -0.165011 -0.0095444 -0.166313 -0.0893786 -0.0769827 -0.116914 -0.0460631 -0.042963 -0.0746592 -0.0626267 -0.0958561 -0.11994 -0.137592 -0.164395 -0.109991 -0.100985 -0.0951233 -0.086141 -0.0683393 -0.12683 -0.0311929 -0.0500584 -0.0847019 -0.112405 -0.0926063 -0.10108 -0.0838702 -0.164563 -0.120837 -0.102538 -0.0921057 -0.0639339 -0.0604275 -0.0593562 -0.0757121 -0.0487489 -0.163071 -0.163277 -0.164759 -0.162213 -0.0932185 -0.121727 -0.100707 -0.080107 -0.074878 -0.100661 -0.11468 -0.113692 -0.0402462 -0.0798344 -0.106257 -0.055522 -0.11029 -0.038333 -0.10616 -0.114375 -0.0923245 -0.0394539 -0.0634778 -0.0800643 -0.0953899 -0.0840674 -0.0624326 -0.0531566 -0.163751 -0.0979198 -0.0853897 -0.105827 -0.0690012 -0.0931437 -0.0837518 -0.0995852 -0.0983752 -0.10772 -0.0955319 -0.109248 -0.0732143 -0.101577 -0.0493915 -0.099948 -0.164306 -0.0899697 -0.0817627 -0.0907432 -0.0822795 -0.0547303 -0.100588 -0.0739927 -0.0829737 -0.0938706 -0.0838807 -0.164864 -0.0901407 -0.164138 -0.0869912 -0.165839 -0.105185 -0.0491599 -0.0762006 -0.0921294 -0.0751741 -0.0678112 -0.0730978 -0.0622714 -0.0886833 -0.107173 -0.0954315 -0.0480522 -0.108115 -0.0630029 -0.163628 -0.162308 -0.0871583 -0.0827514 -0.102846 -0.0741436 -0.114471 -0.0529504 -0.0799113 -0.0866291 -0.0350699 -0.0580609 -0.0469783 -0.0669272 -0.164419 -0.105659 -0.145455 -0.162933 -0.0949462 -0.0309845 -0.0960162 -0.0801571 -0.079668 -0.0853876 -0.109852 -0.0915349 -0.0954742 -0.101578 -0.0760537 -0.111154 -0.0987212 -0.109183 -0.0589136 -0.163996 -0.0429763 -0.0679283 -0.103572 -0.0846779 -0.0823588 -0.10557 -0.0959566 -0.0730805 -0.165567 -0.0927667 -0.0357342 -0.121465 -0.116625 -0.0708502 -0.066897 -0.100532 -0.0786772 -0.164466 -0.118014 -0.0611035 -0.137517 -0.0772656 -0.116403 -0.0844369 -0.166333 -0.0946361 -0.087848 -0.0959433 -0.0625935 -0.0883828 -0.0826052 -0.0720311 -0.0930487 -0.0489155 -0.100545 -0.0744394 -0.0410571 -0.0340695 -0.0668052 -0.0463863 -0.0756824 -0.0896618 -0.0875866 -0.0912553 -0.161324 -0.166414 -0.0902026 -0.0671547 -0.0920523 -0.0807604 -0.0908496 -0.130851 -0.0695172 -0.0709406 -0.0428737 -0.047631 -0.137253 -0.0917332 -0.0723323 -0.0740151 -0.0816819 -0.0133222 -0.111151 -0.163848 -0.0889733 -0.0849816 -0.0807909 -0.144126 -0.0983415 -0.0654334 -0.166753 -0.165637 -0.100157 -0.0576539 -0.0537973 -0.165084 -0.1654 -0.0894376 -0.0929762 -0.0410256 -0.0537143 -0.10492 -0.096056 -0.0690462 -0.0612114 -0.0265875 -0.117354 -0.0905959 -0.0642774 -0.0748082 -0.0930212 -0.164066 -0.0984574 -0.107708 -0.134795 -0.081749 -0.123325 -0.164883 -0.0996338 -0.101699 -0.164183 -0.0697003 -0.0421613 -0.0787241 -0.0925071 -0.0784028 -0.137189 -0.0926498 -0.0926811 -0.162947 -0.0726812 -0.0923151 -0.164876 -0.165356 -0.0573297 -0.0580868 -0.0817018 -0.163532 -0.0985605 -0.16425 -0.0888106 -0.164973 -0.165408 -0.165757 -0.163744 -0.0603648 -0.0967303 -0.0518454 -0.163296 -0.165714 -0.162384 -0.163863 -0.164574 -0.0889914 -0.0321123 -0.0945705 -0.0996327 -0.0995643 -0.0709006 -0.0959287 -0.0739338 -0.086504 -0.0817169 -0.10898 -0.0539417 -0.103319 -0.0489929 -0.0722169 -0.164262 -0.0961437 -0.111263 -0.103763 -0.10435 -0.080053 -0.16446 -0.162364 -0.0648252 -0.0804091 -0.098707 -0.101268 -0.108044 -0.0818258 -0.0933296 -0.1016 -0.0727402 -0.16327 -0.0871322 -0.0832071 -0.0614677 -0.112575 -0.0711065 -0.163723 -0.0878365 -0.0816892 -0.0827587 -0.0999819 -0.110811 -0.107716 -0.164256 -0.162473 -0.0464331 -0.0847867 -0.0294363 -0.105939 -0.0365476 -0.0596053 -0.0862493 -0.0937219 -0.163704 -0.166508 -0.097636 -0.0949869 -0.0923142 -0.103831 -0.0484389 -0.0798474 -0.163345 -0.111858 -0.165025 -0.161937 -0.120557 -0.164905 -0.0808768 -0.0936902 -0.0969035 -0.11176 -0.0470581 -0.105526 -0.163924 -0.162502 -0.0469274 -0.0934248 -0.0969261 -0.093446 -0.165394 -0.165347 -0.164226 -0.0944739 -0.163674 -0.0832396 -0.117698 -0.0912278 -0.0830771 -0.0893015 -0.0792566 -0.0601571 -0.0906241 -0.0592932 -0.0388256 -0.165723 -0.0680664 -0.0804846 -0.053583 -0.0929486 -0.0539855 -0.0839123 -0.106038 -0.0734429 -0.095625 -0.0569249 -0.163745 -0.0471721 -0.102616 -0.100623 -0.163471 -0.0824517 -0.163459 -0.0953131 -0.111844 -0.0822498 -0.13105 -0.120467 -0.164005 -0.163142 -0.0770156 -0.042276 -0.162836 -0.0764588 -0.0796317 -0.0773781 -0.0956359 -0.104008 -0.0874844 -0.0615643 -0.0741794 -0.0436274 -0.082745 -0.0797222 -0.16417 -0.164311 -0.1666 -0.089343 -0.165124 -0.167043 -0.0854748 -0.121044 -0.0781782 -0.164162 -0.095855 -0.0876895 -0.057102 -0.0887547 -0.0960075 -0.128973 -0.0734184 -0.118193 -0.164646 -0.110071 -0.0741151 -0.0857383 -0.048285 -0.16466 -0.0726585 -0.105804 -0.118507 -0.0740995 -0.110349 -0.0846768 -0.076771 -0.0992902 -0.0380037 -0.080749 -0.0714389 -0.0779129 -0.0906191 -0.100625 -0.0928126 -0.107138 -0.0980734 -0.0869255 -0.0839093 -0.164534 -0.166974 -0.163002 -0.0804485 -0.0846472 -0.113695 -0.0793618 -0.0903956 -0.164575 -0.165988 -0.103389 -0.0970414 -0.101221 -0.0777493 -0.0772215 -0.0943715 -0.0389011 -0.0940382 -0.0830309 -0.0750088 -0.0655967 -0.0898326 -0.163809 -0.166455 -0.105992 -0.0275231 -0.161799 -0.0828566 -0.163163 -0.0890632 -0.0393944 -0.0574925 -0.0329642 -0.0972097 -0.164176 -0.164178 -0.0928629 -0.0300062 -0.0480612 -0.0887525 -0.0668591 -0.165145 -0.102008 -0.0679505 -0.16536 -0.0872451 -0.0605417 -0.0796275 -0.0374704 -0.0985089 -0.0445231 -0.115438 -0.108983 -0.0809553 -0.164549 -0.11691 -0.0678443 -0.0853983 -0.0568075 -0.0822455 -0.0889373 -0.112714 -0.0574983 -0.0953847 -0.0957057 -0.0965488 -0.0673596 -0.092333 -0.0545608 -0.165294 -0.0917965 -0.164175 -0.165074 -0.0821846 -0.0954693 -0.0389289 -0.0715705 -0.163481 -0.164794 -0.0680881 -0.0909112 -0.0831018 -0.0693712 -0.166006 -0.0772367 -0.0953577 -0.165111 -0.0947183 -0.167105 -0.127426 -0.140619 -0.0990818 -0.105652 -0.0698122 -0.0934829 -0.0754392 -0.163715 -0.0960207 -0.110279 -0.089817 -0.166615 -0.0547404 -0.0922823 -0.118257 -0.140547 -0.139012 -0.106225 -0.0627738 -0.0718485 -0.086302 -0.0580077 -0.0713814 -0.0592246 -0.0706042 -0.107153 -0.16435 -0.0731351 -0.0979726 -0.164747 -0.0915372 -0.0930777 -0.166009 -0.0833706 -0.0590985 -0.164094 -0.133519 -0.0613756 -0.107673 -0.088701 -0.0719792 -0.0800963 -0.110157 -0.166008 -0.162152 -0.0857936 -0.0869472 -0.0413972 -0.163932 -0.0941502 -0.162949 -0.0841772 -0.100332 -0.0685221 -0.103806 -0.0877697 -0.0963174 -0.0655198 -0.0568158 -0.164719 -0.0634618 -0.0784592 -0.0155916 -0.164592 -0.0868306 -0.0641633 -0.0512117 -0.0369691 -0.0874708 -0.0744538 -0.0648113 -0.164273 -0.163485 -0.0877321 -0.0841911 -0.053483 -0.0656817 -0.164447 -0.0859751 -0.0896658 -0.0654771 -0.163562 -0.164111 -0.0827928 -0.0933061 -0.0914946 -0.0736713 -0.124742 -0.101797 -0.0779188 -0.163926 -0.0854535 -0.104963 -0.104496 -0.115187 -0.130531 -0.079648 -0.060369 -0.0942624 -0.083388 -0.163496 -0.163838 -0.165216 -0.160914 -0.16531 -0.161069 -0.163944 -0.162396 -0.165109 -0.124457 -0.0482294 -0.0866557 -0.0968406 -0.050363 -0.102024 -0.166307 -0.097762 -0.103307 -0.063497 -0.0723812 0.00169754 -0.0255502 -0.105052 -0.164039 -0.162208 -0.0577414 -0.0641442 -0.0486706 -0.0067995 -0.0662844 -0.064276 -0.0660953 -0.0984625 -0.104351 -0.0950969 -0.0529669 -0.102425 -0.078943 -0.0564587 -0.0910337 -0.162196 -0.109062 -0.0776068 -0.094096 -0.0574663 -0.164199 -0.112797 -0.10721 -0.0962973 -0.0770198 -0.164853 -0.0956159 -0.1673 -0.0993341 -0.0719383 -0.166292 -0.0644615 -0.165696 -0.0965776 -0.098832 -0.0392395 -0.0813494 -0.0885078 -0.0737753 -0.165422 -0.0995026 -0.127769 -0.079162 -0.0888977 -0.0874196 -0.116222 -0.113884 -0.0834586 -0.108192 -0.163173 -0.166464 -0.158414 -0.164727 -0.0987632 -0.163217 -0.0642033 -0.139455 -0.0936437 -0.105721 -0.103885 -0.0946002 -0.0689894 -0.0889959 -0.164226 -0.107195 -0.165599 -0.163631 -0.105 -0.163539 -0.0172291 -0.165426 -0.0812349 -0.105423 -0.0949676 -0.0964188 -0.166147 -0.166413 -0.164123 -0.139609 -0.164084 -0.0595288 -0.101334 -0.0547938 -0.163701 -0.162806 -0.0675884 -0.0357463 -0.0822194 -0.163698 -0.164477 -0.0907642 -0.0603347 -0.0855375 -0.0861045 -0.164335 -0.106894 -0.0950355 -0.164496 -0.0702367 -0.0852676 -0.062539 -0.163817 -0.16723 -0.163201 -0.0449677 -0.115513 -0.0540298 -0.0935512 -0.0868726 -0.0954142 -0.0345535 -0.100979 -0.0944747 -0.162665 -0.056715 -0.162536 -0.167689 -0.0970826 -0.106454 -0.0451 -0.0880706 -0.0947499 -0.115017 -0.0987443 -0.107647 -0.163095 -0.164154 -0.102613 -0.0866733 -0.0824411 -0.0728725 -0.0881106 -0.161172 -0.0976336 -0.0715797 -0.166424 -0.117257 -0.0945933 -0.165206 -0.092499 -0.097238 -0.0987986 -0.0804092 -0.0812129 -0.0855849 -0.0374147 -0.0934887 -0.098457 -0.0576934 -0.059759 -0.0675836 -0.089112 -0.0951414 -0.0924057 -0.0734665 -0.16405 -0.103654 -0.0875054 -0.113683 -0.081491 -0.103261 -0.0976222 -0.104607 -0.094798 -0.0540797 -0.0991055 -0.0932519 -0.0912247 -0.0762829 -0.0895638 -0.156565 -0.1649 -0.0841405 -0.0932774 -0.108328 -0.0577807 -0.0196761 -0.0362789 -0.0955055 -0.0857515 -0.0800093 -0.0867835 -0.162167 -0.0790159 -0.0713878 -0.164175 -0.0512058 -0.0740003 -0.0541352 -0.092714 -0.114156 -0.0921695 -0.164576 -0.0943141 -0.116389 -0.0691655 -0.068933 -0.0647241 -0.132176 -0.0850108 -0.0921443 -0.165279 -0.0594884 -0.163907 -0.0831712 -0.110362 -0.0394678 -0.0821635 -0.0729667 -0.0880308 -0.0990219 -0.164006 -0.0927978 -0.0888987 -0.163209 -0.093583 -0.120921 -0.166653 -0.0680905 -0.0797627 -0.0587884 -0.043192 -0.0962819 -0.092847 -0.0640908 -0.163732 -0.16388 -0.127538 -0.162938 -0.092977 -0.163581 -0.16299 -0.0524683 -0.165271 -0.0795928 -0.095003 -0.0842108 -0.0900435 -0.0936066 -0.111393 -0.121743 -0.0928656 -0.0758291 -0.0919543 -0.0629607 -0.0906839 -0.163993 -0.0889957 -0.106091 -0.0693281 -0.0901248 -0.164096 -0.161212 -0.11874 -0.0761418 -0.101443 -0.0752511 -0.0921769 -0.0646116 -0.0788906 -0.106432 -0.0603235 -0.104845 -0.165342 -0.0820833 -0.0890887 -0.0720282 -0.0855815 -0.082879 -0.0914796 -0.109464 -0.0797398 -0.16428 -0.093017 -0.0860285 -0.0979078 -0.164521 -0.0966238 -0.163066 -0.0918454 -0.0963123 -0.0890295 -0.103202 -0.0950201 -0.0994755 -0.0674522 -0.0766579 -0.0377789 -0.0615022 -0.0851413 -0.107419 -0.166331 -0.0677179 -0.0707653 -0.0931187 -0.131576 -0.100841 -0.0898068 -0.020389 -0.0781206 -0.0791167 -0.090099 -0.0523652 -0.0740973 -0.0965458 -0.0881882 -0.0745183 -0.0835772 -0.107353 -0.10065 -0.130594 -0.165388 -0.165535 -0.162831 -0.166134 -0.0934693 -0.101713 -0.11406 -0.10229 -0.0858764 -0.138916 -0.0882154 -0.124445 -0.164631 -0.0922256 -0.0817793 -0.0761951 -0.0840006 -0.0907236 -0.0895465 -0.0714763 -0.0819304 -0.0795989 -0.0842522 -0.100727 -0.107895 -0.163461 -0.164359 -0.107803 -0.075316 -0.0622065 -0.102342 -0.163964 -0.0977722 -0.0964925 -0.0919953 -0.165011 -0.0913538 -0.0999365 -0.16425 -0.165394 -0.0446474 -0.0754811 -0.163529 -0.0532161 -0.0790167 -0.0483294 -0.0895023 -0.0878762 -0.0844438 -0.0832451 -0.108116 -0.115257 -0.16591 -0.16521 -0.106475 -0.146308 -0.0899946 -0.103131 -0.0698992 -0.10531 -0.164465 -0.128468 -0.107388 -0.162383 -0.163245 -0.0469047 -0.0824856 -0.161587 -0.0770584 -0.103509 -0.118484 -0.0703315 -0.16259 -0.166259 -0.0775592 -0.0709718 -0.088322 -0.0967594 -0.0900493 -0.0523375 -0.122607 -0.0849893 -0.0862284 -0.0900597 -0.0697986 -0.0994442 -0.0775146 -0.0518227 -0.113373 -0.0921239 -0.0624583 -0.0904522 -0.0671322 -0.0887023 -0.11207 -0.162781 -0.085395 -0.091981 -0.164159 -0.0778674 -0.1653 -0.0520605 -0.0911627 -0.163805 -0.163685 -0.10905 -0.163148 -0.088923 -0.0667151 -0.140899 -0.16382 -0.0737141 -0.0889034 -0.106791 -0.164302 -0.0675931 -0.165198 -0.106035 -0.0853505 -0.0949586 -0.0973448 -0.166315 -0.0522853 -0.0910001 -0.0741875 -0.1643 -0.163798 -0.0962919 -0.163017 -0.100222 -0.107021 -0.165319 -0.0285943 -0.165304 -0.0972926 -0.162746 -0.16198 -0.165331 -0.164186 -0.127073 -0.0858197 -0.0813142 -0.11261 -0.0237592 -0.0446159 -0.0553815 -0.0923167 -0.163289 -0.108071 -0.10283 -0.071392 -0.0356651 -0.166052 -0.0965889 -0.0944249 -0.0912481 -0.0989378 -0.0968098 -0.105892 -0.0492545 -0.11249 -0.070131 -0.0844393 -0.0554986 -0.096951 -0.139246 -0.093183 -0.0898695 -0.057311 -0.0636453 -0.162218 -0.0965399 -0.0876815 -0.100094 -0.101165 -0.0844292 -0.0832833 -0.0928315 -0.16272 -0.163271 -0.0641453 -0.164484 -0.05851 -0.164949 -0.0676824 -0.165733 -0.162924 -0.162248 -0.105989 -0.0982236 -0.0730679 -0.0872784 -0.0276763 -0.103708 -0.0207909 -0.0823383 -0.0519057 -0.105491 -0.0714967 -0.0875882 -0.166986 -0.111202 -0.104683 -0.0707629 -0.0732844 -0.0990424 -0.117476 -0.092972 -0.164469 -0.113458 -0.0601048 -0.0945997 -0.0463867 -0.165588 -0.114396 -0.0802686 -0.101557 -0.164097 -0.0931698 -0.103668 -0.069223 -0.111199 -0.0362543 -0.0956952 -0.0781826 -0.0906259 -0.0805832 -0.0290819 -0.0942794 -0.10071 -0.16378 -0.165151 -0.0153975 -0.0855903 -0.101632 -0.164139 -0.163642 -0.0891462 -0.10407 -0.0947024 -0.080538 -0.161784 -0.166206 -0.084913 -0.0979789 -0.102938 -0.0922636 -0.0760432 -0.067365 -0.0672795 -0.109407 -0.0971512 -0.164829 -0.166215 -0.0638327 -0.0662193 -0.0926645 -0.0448516 -0.0921327 -0.0460632 -0.0745704 -0.0941696 -0.116534 -0.0663702 -0.107928 -0.163085 -0.163005 -0.0461014 -0.15224 -0.0806028 -0.0892014 -0.102187 -0.0730801 -0.0564354 -0.0811648 -0.0812968 -0.164866 -0.0638836 -0.163553 -0.162791 -0.0870739 -0.162414 -0.102554 -0.11131 -0.0943969 -0.068371 -0.0849031 -0.0682108 -0.097005 -0.166699 -0.0935384 -0.163114 -0.123566 -0.0989752 -0.165916 -0.101174 -0.100659 -0.108804 -0.0716437 -0.063322 -0.103468 -0.164029 -0.163768 -0.105202 -0.0774446 -0.117091 -0.0798268 -0.0874999 -0.11558 -0.0711925 -0.101454 -0.0866133 -0.0842317 -0.164125 -0.0868936 -0.0957862 -0.162813 -0.165807 -0.0837233 -0.162293 -0.0784421 -0.164024 -0.165679 -0.165568 -0.102889 -0.0895924 -0.0568183 -0.0784481 -0.0760947 -0.045591 -0.115703 -0.112579 -0.0683948 -0.0256322 -0.16517 -0.0918895 -0.0991424 -0.117462 -0.0991991 -0.0907686 -0.0381634 -0.0923685 -0.162834 -0.0889875 -0.0911492 -0.0969419 -0.0840223 -0.0739951 -0.108541 -0.113201 -0.0837244 -0.0830849 -0.0644701 -0.099284 -0.0708019 -0.0792322 -0.0995174 -0.0805294 -0.164273 -0.164325 -0.127903 -0.108979 -0.114618 -0.163602 -0.0947899 -0.0561539 -0.111162 -0.108236 -0.0973119 -0.0581532 -0.103703 -0.163391 -0.0947417 -0.164429 -0.108462 -0.0868805 -0.164226 -0.163378 -0.164004 -0.0905158 -0.122179 -0.0785943 -0.0623736 -0.0871189 -0.114279 -0.102007 -0.100543 -0.121473 -0.108366 -0.0873697 -0.0926446 -0.119284 -0.126695 -0.130601 -0.164182 -0.0935649 -0.0854327 -0.0737773 -0.0713512 -0.101861 -0.103041 -0.0986384 -0.0831266 -0.164497 -0.0509515 -0.163027 -0.0785761 -0.0930297 -0.0981026 -0.0952256 -0.0210681 -0.163196 -0.0212572 -0.0932264 -0.0926688 -0.163426 -0.0936532 -0.164628 -0.0609479 -0.101204 -0.0956094 -0.108574 -0.0412438 -0.0947324 -0.120194 -0.164893 -0.0395053 -0.16526 -0.111975 -0.165813 -0.0860451 -0.0599141 -0.16413 -0.16345 -0.0950939 -0.163547 -0.1674 -0.163869 -0.0663973 -0.0860587 -0.163316 -0.0968582 -0.0831872 -0.0874956 -0.0805775 -0.0884802 -0.166845 -0.164829 -0.0895014 -0.0644686 -0.0501757 -0.0689771 -0.0908135 -0.0855302 -0.0877334 -0.0812289 -0.0731201 -0.0938832 -0.093268 -0.0594763 -0.0796334 -0.0977728 -0.164831 -0.102689 -0.10965 -0.162992 -0.10402 -0.115403 -0.0958701 -0.102409 -0.0980749 -0.107908 -0.0882751 -0.0557664 -0.0930971 -0.0603362 -0.164507 -0.0519532 -0.0990894 -0.0513457 -0.107185 -0.165588 -0.16441 -0.0993253 -0.0917915 -0.0884005 -0.10715 -0.0780779 -0.0989292 -0.07767 -0.0806091 -0.0808829 -0.0840699 -0.0296497 -0.105603 -0.0583052 -0.0958341 -0.163733 -0.165607 -0.082356 -0.0810634 -0.102138 -0.067514 -0.0684364 -0.0950742 -0.0639527 -0.0941445 -0.103669 -0.16549 -0.0922148 -0.0959459 -0.0886059 -0.0994569 -0.164661 -0.165984 -0.0704071 -0.0715831 -0.0584492 -0.163407 -0.0645643 -0.102689 -0.0970771 -0.164747 -0.0954322 -0.0810228 -0.110221 -0.105472 -0.0954126 -0.101036 -0.0838742 -0.163225 -0.0915635 -0.163192 -0.048842 -0.0812231 -0.0671673 -0.0949083 -0.0932535 -0.0730172 -0.0876023 -0.162404 -0.105257 -0.16592 -0.0912084 -0.10156 -0.076647 -0.0768919 -0.0749162 -0.0849107 -0.164226 -0.104549 -0.108673 -0.164065 -0.0853822 -0.0898049 -0.105193 -0.166222 -0.0801822 -0.0733661 -0.0998946 -0.100485 -0.164641 -0.110639 -0.164575 -0.104568 -0.161391 -0.163417 -0.166018 -0.106053 -0.0884451 -0.119099 -0.163546 -0.0639377 -0.0927479 -0.129021 -0.164342 -0.163849 -0.105594 -0.0949354 -0.0891799 -0.0907141 -0.0909754 -0.097145 -0.0783102 -0.16278 -0.0746912 -0.164735 -0.0654095 -0.0442515 -0.165231 -0.0940969 -0.114248 -0.0915003 -0.16547 -0.0962873 -0.0986695 -0.0581625 -0.0972361 -0.0921534 -0.164396 -0.164031 -0.161893 -0.164062 -0.0822977 -0.129836 -0.136243 -0.0549494 -0.10127 -0.0853912 -0.0833184 -0.088465 -0.106064 -0.1645 -0.105721 -0.0962569 -0.165386 -0.164305 -0.0715358 -0.164856 -0.163878 -0.165517 -0.0769674 -0.0828472 -0.166623 -0.101488 -0.164878 -0.164114 -0.0912296 -0.166049 -0.165533 -0.0690703 -0.161948 -0.165038 -0.0708075 -0.073712 -0.0715468 -0.0688221 -0.097526 -0.109888 -0.0907882 -0.0800668 -0.162438 -0.166257 -0.108957 -0.0917379 -0.0826225 -0.109552 -0.162348 -0.085006 -0.16266 -0.165189 -0.167077 -0.0980195 -0.0851129 -0.163811 -0.1642 -0.164551 -0.164658 -0.112066 -0.0881063 -0.09118 -0.0958025 -0.089207 -0.104681 -0.0811537 -0.071829 -0.0980422 -0.091084 -0.0943019 -0.07913 -0.100528 -0.092799 -0.090172 -0.0510561 -0.092601 -0.16375 -0.0175626 -0.0701274 -0.165158 -0.0702727 -0.0901736 -0.067288 -0.165934 -0.162971 -0.0961699 -0.105334 -0.167616 -0.103483 -0.091409 -0.164545 -0.164479 -0.118842 -0.0791652 -0.0980567 -0.0782509 -0.080737 -0.121884 -0.125981 -0.126036 -0.0845891 -0.0904505 -0.102853 -0.0959159 -0.0732941 -0.096895 -0.166134 -0.162508 -0.165402 -0.125802 -0.108871 -0.0770818 -0.162823 -0.0990749 -0.0523916 -0.164466 -0.101213 -0.0998684 -0.163035 -0.108302 -0.0726142 -0.163085 -0.10704 -0.166616 -0.0908744 -0.162804 -0.0723451 -0.120203 -0.166245 -0.162983 -0.163184 -0.165584 -0.1629 -0.0756105 -0.0830311 -0.0806396 -0.0860697 -0.122054 -0.0784338 -0.163754 -0.110413 -0.163503 -0.0774024 -0.1009 -0.0551178 -0.0273329 -0.085749 -0.11357 -0.165042 -0.163392 -0.163636 -0.0441711 -0.166728 -0.0306079 -0.165893 -0.164494 -0.162997 -0.162576 -0.163544 -0.16286 -0.0966325 -0.163364 -0.0970222 -0.100208 -0.165503 -0.00539945 -0.163058 -0.0936848 -0.110084 -0.164121 -0.0933901 -0.164714 -0.100833 -0.164976 -0.093026 -0.0826986 -0.161734 -0.162867 -0.0850008 -0.0812509 -0.103949 -0.0756579 -0.10796 -0.101826 -0.164571 -0.115377 -0.163919 -0.124511 -0.10343 -0.0759887 -0.0919593 -0.120548 -0.163057 -0.160626 -0.16328 -0.113873 -0.164329 -0.165131 -0.0826538 -0.0876374 -0.0867558 -0.166647 -0.100521 -0.0926557 -0.0759737 -0.0976104 -0.0843789 -0.163388 -0.165747 -0.162664 -0.165313 -0.165147 -0.108119 -0.104472 -0.0768312 -0.098629 -0.123205 -0.162219 -0.107343 -0.101997 -0.0893404 -0.0949641 -0.165826 -0.164032 -0.0809404 -0.132677 -0.115636 -0.103884 -0.0879783 -0.0875039 -0.164652 -0.0770099 -0.100001 -0.0942172 -0.088168 -0.0943826 -0.112873 -0.164882 -0.109221 -0.0683704 -0.164958 -0.164469 -0.0934493 -0.122773 -0.0974208 -0.163919 -0.0808173 -0.067835 -0.165828 -0.163095 -0.162361 -0.164467 -0.108407 -0.0559102 -0.0970388 -0.163325 -0.165026 -0.0974534 -0.0950843 -0.104382 -0.0953015 -0.100834 -0.103207 -0.0427306 -0.110415 -0.163103 -0.165047 -0.0809912 -0.162937 -0.164331 -0.163636 -0.164216 -0.0702427 -0.096131 -0.165612 -0.0988806 -0.0996044 -0.162406 -0.163833 -0.165622 -0.16453 -0.0877812 -0.0699737 -0.0690711 -0.162665 -0.164095 -0.101124 -0.0936118 -0.0724743 -0.164451 -0.164257 -0.0717628 -0.108649 -0.0786933 -0.0660049 -0.0704897 -0.115345 -0.101217 -0.162935 -0.0581317 -0.163643 -0.0899674 -0.167173 -0.163923 -0.0799524 -0.0614214 -0.165716 -0.164377 -0.164253 -0.0935837 -0.164687 -0.0767542 -0.121144 -0.165768 -0.0930583 -0.164743 -0.0251596 -0.106669 -0.165218 -0.163215 -0.0849788 -0.100477 -0.109633 -0.164304 -0.164467 -0.0924385 -0.0998703 -0.113436 -0.165094 -0.0800523 -0.0873815 -0.0837765 -0.086184 -0.166055 -0.0799462 -0.165254 -0.165028 -0.0928412 -0.0913399 -0.110593 -0.0951283 -0.0980796 -0.103914 -0.126342 -0.103281 -0.104792 -0.0816212 -0.0645762 -0.163674 -0.162783 -0.0953934 -0.063615 -0.0933497 -0.0849461 -0.0785335 -0.0978471 -0.0872819 -0.165949 -0.117964 -0.0918435 -0.0788105 -0.164741 -0.165076 -0.0873104 -0.0836374 -0.0896828 -0.163337 -0.101634 -0.11131 -0.0844776 -0.106858 -0.12727 -0.164298 -0.103725 -0.165668 -0.163788 -0.0990002 -0.161972 -0.0778074 -0.0966307 -0.106224 -0.165009 -0.165282 -0.0876354 -0.101621 -0.0730373 -0.0923265 -0.112841 -0.0819078 -0.0973814 -0.0767223 -0.0938585 -0.162907 -0.0830417 -0.0883609 -0.16498 -0.0819874 -0.165665 -0.0919756 -0.163769 -0.0939135 -0.0881171 -0.164204 -0.165435 -0.100026 -0.0787579 -0.0699763 -0.165176 -0.164601 -0.164434 -0.0895442 -0.0838075 -0.119396 -0.0466461 -0.088148 -0.164349 -0.0920146 -0.0989606 -0.164956 -0.111357 -0.119985 -0.163682 -0.0899461 -0.16533 -0.103408 -0.164016 -0.162929 -0.0879472 -0.162879 -0.165956 -0.165216 -0.161656 -0.163032 -0.16094 -0.101788 -0.16451 -0.106843 -0.0560122 -0.165505 -0.0994618 -0.108987 -0.108938 -0.167926 -0.164396 -0.0416667 -0.0884765 -0.163791 -0.164914 -0.0974253 -0.0877737 -0.165922 -0.0872196 -0.120758 -0.163842 -0.0976145 -0.101678 -0.166346 -0.0843202 -0.0783206 -0.163628 -0.16339 -0.165138 -0.107363 -0.117985 -0.132226 -0.1125 -0.135476 -0.163852 -0.162254 -0.163196 -0.0836246 -0.167879 -0.101029 -0.0756611 -0.0653236 -0.0505309 -0.0582167 -0.0966103 -0.0873699 -0.0375621 -0.042766 -0.10293 -0.0962555 -0.0501475 -0.10307 -0.08373 -0.0994027 -0.164667 -0.163115 -0.0930981 -0.0800461 -0.0756157 -0.0558864 -0.0951787 -0.106374 -0.164105 -0.164105 -0.12168 -0.161647 -0.0874745 -0.0719574 -0.165362 -0.162755 -0.0805866 -0.163204 -0.1007 -0.165609 -0.101835 -0.162468 -0.162268 -0.165603 -0.165924 -0.0994753 -0.0621186 -0.164147 -0.118813 -0.0885531 -0.163765 -0.162724 -0.165034 -0.164287 -0.0789469 -0.0765455 -0.110353 -0.0756781 -0.102396 -0.086315 -0.163904 -0.165985 -0.0968978 -0.10335 -0.0708153 -0.098177 -0.096073 -0.0601695 -0.113795 -0.0903884 -0.111773 -0.0792706 -0.165043 -0.0941804 -0.164836 -0.165523 -0.102931 -0.071653 -0.161506 -0.163296 -0.16403 -0.164712 -0.0913206 -0.165206 -0.0878803 -0.0903839 -0.164759 -0.164504 -0.112205 -0.163666 -0.16192 -0.164267 -0.0918894 -0.10858 -0.105346 -0.162848 -0.0876289 -0.0804498 -0.163515 -0.0878385 -0.165001 -0.10106 -0.0920735 -0.165585 -0.165979 -0.163816 -0.0903902 -0.0759914 -0.0946173 -0.057477 -0.100737 -0.0903645 -0.0945688 -0.107111 -0.165186 -0.165223 -0.164122 -0.163945 -0.092609 -0.164316 -0.0982919 -0.114201 -0.164459 -0.0913546 -0.0930868 -0.164418 -0.103556 -0.164126 -0.0954857 -0.093621 -0.0489436 -0.0864763 -0.164931 -0.0900208 -0.166991 -0.0894739 -0.0763953 -0.0830268 -0.0948901 -0.089436 -0.116601 -0.0961487 -0.165566 -0.122593 -0.0671068 -0.100385 -0.163542 -0.164596 -0.131036 -0.101717 -0.0937776 -0.16559 -0.0829689 -0.0648408 -0.163268 -0.164907 -0.0856015 -0.0333261 -0.0711131 -0.0916393 -0.0787372 -0.165293 -0.0872368 -0.163928 -0.0989671 -0.165587 -0.096126 -0.161918 -0.163444 -0.16208 -0.165802 -0.0917403 -0.0785317 -0.103943 -0.0763213 -0.161806 -0.103785 -0.0956122 -0.112068 -0.0971892 -0.0900529 -0.165639 -0.165053 -0.0738651 -0.092202 -0.163381 -0.0925065 -0.109099 -0.0948932 -0.101134 -0.0943831 -0.163408 -0.163532 -0.163299 -0.0816436 -0.0786031 -0.0938081 -0.164487 -0.0784905 -0.166078 -0.0972328 -0.0856899 -0.0856663 -0.0308497 -0.164572 -0.0939988 -0.0988222 -0.0926625 -0.164425 -0.164629 -0.164907 -0.163909 -0.102147 -0.0797251 -0.109751 -0.164392 -0.111995 -0.0665965 -0.076473 -0.165095 -0.166053 -0.167451 -0.166987 -0.162221 -0.162658 -0.0874577 -0.0725838 -0.165347 -0.164183 -0.0851902 -0.0685633 -0.0616777 -0.084944 -0.0645063 -0.0597811 -0.164298 -0.0563264 -0.0813178 -0.104131 -0.165374 -0.163555 -0.163813 -0.123672 -0.0971633 -0.0934557 -0.106825 -0.163534 -0.161412 -0.163904 -0.0705417 -0.164633 -0.0704294 -0.163227 -0.16573 -0.163392 -0.164209 -0.0817285 -0.162644 -0.0783128 -0.162105 -0.164776 -0.165659 -0.1646 -0.0920498 -0.0914258 -0.0948111 -0.164328 -0.124717 -0.163476 -0.16411 -0.161979 -0.105391 -0.0968802 -0.11399 -0.0518177 -0.119897 -0.104535 -0.164153 -0.0436647 -0.164371 -0.164732 -0.0842951 -0.0706512 -0.0726445 -0.0950408 -0.064384 -0.0897963 -0.166212 -0.07997 -0.10842 -0.116359 -0.165752 -0.0992431 -0.162713 -0.113927 -0.0975365 -0.0906785 -0.165449 -0.165576 -0.104664 -0.0996235 -0.16348 -0.0822758 -0.0390108 -0.164234 -0.084428 -0.100501 -0.164156 -0.162764 -0.164358 -0.163341 -0.0823722 -0.1648 -0.0553877 -0.16397 -0.0995143 -0.164476 -0.164152 -0.161104 -0.16537 -0.068467 -0.0931219 -0.0969215 -0.164418 -0.161974 -0.165583 -0.101107 -0.0961286 -0.0990663 -0.111874 -0.0802871 -0.0860531 -0.0606455 -0.0620966 -0.00888023 -0.110937 -0.065172 -0.0611047 -0.0829723 -0.164053 -0.0848218 -0.163154 -0.164369 -0.164153 -0.166448 -0.162871 -0.145842 -0.103328 -0.108983 -0.163887 -0.106222 -0.105931 -0.116404 -0.163428 -0.0891935 -0.141366 -0.0656416 -0.105298 -0.104304 -0.0848368 -0.165483 -0.161589 -0.0918656 -0.093915 -0.0694577 -0.164535 -0.164138 -0.166482 -0.0861152 -0.0762863 -0.0891649 -0.096523 -0.0853269 -0.164587 -0.166784 -0.163959 -0.0977791 -0.0817135 -0.163563 -0.0959299 -0.0520209 -0.0968804 -0.10476 -0.16446 -0.0875333 -0.0919439 -0.166789 -0.0934567 -0.0747305 -0.167012 -0.103031 -0.113157 -0.0807076 -0.164964 -0.164021 -0.165705 -0.112924 -0.0988784 -0.114727 -0.0990571 -0.0997969 -0.0689037 -0.101219 -0.165187 -0.0969699 -0.0977813 -0.0912215 -0.065184 -0.163164 -0.164854 -0.166663 -0.103149 -0.0943747 -0.0687188 -0.0994555 -0.100894 -0.0930482 -0.166131 -0.165956 -0.163746 -0.165367 -0.166103 -0.0972119 -0.0970555 -0.0861493 -0.11396 -0.0905267 -0.165029 -0.164391 -0.0959933 -0.0924431 -0.0863014 -0.163462 -0.110934 -0.0999025 -0.0859781 -0.0822829 -0.0921058 -0.122588 -0.0905997 -0.163819 -0.0985908 -0.0878889 -0.16224 -0.164505 -0.0627591 -0.16441 -0.165926 -0.164826 -0.0969749 -0.165353 -0.166831 -0.164911 -0.105 -0.110095 -0.101366 -0.105592 -0.163625 -0.0546475 -0.0965636 -0.100283 -0.161794 -0.164739 -0.0858979 -0.0640666 -0.163085 -0.0856995 -0.0811973 -0.128323 -0.0917665 -0.163888 -0.0928279 -0.103778 -0.0721235 -0.089955 -0.0898274 -0.0921532 -0.165277 -0.165741 -0.16538 -0.0841973 -0.164214 -0.0711608 -0.117433 -0.0724602 -0.0556049 -0.0718315 -0.104266 -0.0764558 -0.104604 -0.0958078 -0.163139 -0.0720645 -0.115074 -0.162939 -0.165818 -0.102578 -0.16505 -0.0989507 -0.10013 -0.0768823 -0.0905021 -0.165953 -0.104007 -0.114304 -0.165397 -0.084585 -0.16649 -0.163633 -0.165075 -0.164919 -0.0912454 -0.0833911 -0.164837 -0.0944443 -0.0963842 -0.0989053 -0.102394 -0.104053 -0.166234 -0.0447661 -0.0946664 -0.106513 -0.0935667 -0.0754563 -0.118677 -0.127216 -0.120282 -0.0784712 -0.0936276 -0.0429499 -0.0960162 -0.165896 -0.093569 -0.0911816 -0.0859295 -0.16508 -0.102081 -0.0853332 -0.105284 -0.162834 -0.0881595 -0.166227 -0.107225 -0.165311 -0.164237 -0.0913419 -0.119572 -0.107085 -0.0877131 -0.0935873 -0.0854315 -0.122029 -0.0968287 -0.115749 -0.16339 -0.163762 -0.164148 -0.053522 -0.0836876 -0.0775059 -0.0931873 -0.163458 -0.0978065 -0.16466 -0.163721 -0.0608405 -0.0664848 -0.164896 -0.0868581 -0.0792555 -0.166859 -0.0780851 -0.111811 -0.1633 -0.0949605 -0.164202 -0.0724676 -0.104463 -0.164237 -0.166752 -0.0948787 -0.0797181 -0.0912064 -0.0906255 -0.164311 -0.0605225 -0.163362 -0.0840539 -0.0391941 -0.161813 -0.0910819 -0.0888943 -0.163487 -0.105586 -0.0910346 -0.0799637 -0.101597 -0.0896549 -0.161521 -0.164079 -0.0719175 -0.0966152 -0.0895353 -0.10965 -0.163147 -0.0793564 -0.0817571 -0.0925707 -0.16454 -0.104183 -0.164792 -0.11018 -0.0506768 -0.0750484 -0.0971152 -0.16375 -0.0990477 -0.164784 -0.0669682 -0.0823053 -0.0916066 -0.0885767 -0.0882777 -0.164477 -0.099665 -0.164378 -0.16382 -0.163623 -0.162608 -0.113776 -0.0935987 -0.0766748 -0.162751 -0.166288 -0.101223 -0.16624 -0.162966 -0.0537226 -0.166032 -0.0886581 -0.117616 -0.164641 -0.111438 -0.164985 -0.167697 -0.166189 -0.164243 -0.101207 -0.0896806 -0.0857759 -0.0693443 -0.164664 -0.165168 -0.0970989 -0.165085 -0.0965619 -0.123662 -0.0985751 -0.06878 -0.111452 -0.167471 -0.164107 -0.0678606 -0.105295 -0.163272 -0.162966 -0.165738 -0.164181 -0.162161 -0.165371 -0.164879 -0.164646 -0.10972 -0.0958805 -0.0992495 -0.162484 -0.165882 -0.161931 -0.0892642 -0.0817114 -0.164995 -0.165957 -0.164701 -0.0798177 -0.0822655 -0.165431 -0.0793428 -0.0974782 -0.164683 -0.0908003 -0.0877527 -0.103338 -0.0646918 -0.0912816 -0.0927248 -0.0741073 -0.16429 -0.163847 -0.0949016 -0.098864 -0.0476244 -0.102857 -0.115984 -0.162903 -0.162359 -0.16458 -0.0989708 -0.0990912 -0.162454 -0.0898397 -0.107052 -0.106071 -0.163995 -0.164201 -0.166284 -0.102711 -0.0793983 -0.116588 -0.117283 -0.114261 -0.10734 -0.166814 -0.165207 -0.129115 -0.0907993 -0.164672 -0.0923989 -0.0922252 -0.0796854 -0.0380049 -0.0953976 -0.163101 -0.163671 -0.0851306 -0.0830667 -0.0952419 -0.0827624 -0.0989819 -0.162308 -0.0860696 -0.163136 -0.101369 -0.0918098 -0.0941817 -0.0852014 -0.0955256 -0.104086 -0.16526 -0.163832 -0.108279 -0.0798441 -0.165405 -0.162411 -0.163027 -0.0588036 -0.16486 -0.164008 -0.10552 -0.163848 -0.102278 -0.0904607 -0.109388 -0.0738035 -0.067019 -0.10743 -0.113918 -0.164405 -0.0820194 -0.0780837 -0.0956238 -0.0661572 -0.0839144 -0.111514 -0.10123 -0.106848 -0.0985318 -0.164382 -0.164771 -0.0828637 -0.163152 -0.124454 -0.0852572 -0.110077 -0.0925776 -0.0990699 -0.0889459 -0.0973221 -0.0865207 -0.164488 -0.164069 -0.101332 -0.166297 -0.0922616 -0.0915394 -0.0873112 -0.0769923 -0.165179 -0.107668 -0.0817387 -0.087915 -0.0929361 -0.0445859 -0.0586184 -0.0545642 -0.056774 -0.164464 -0.161017 -0.0846949 -0.141902 -0.0715524 -0.103116 -0.094684 -0.0985872 -0.163771 -0.0401455 -0.16488 -0.097273 -0.163779 -0.162296 -0.165264 -0.10401 -0.119159 -0.166003 -0.164133 -0.163338 -0.164136 -0.16552 -0.111461 -0.0816295 -0.115443 -0.162067 -0.166116 -0.0959821 -0.16395 -0.0979209 -0.10565 -0.0750062 -0.0927634 -0.164286 -0.0972995 -0.0784522 -0.0938252 -0.076891 -0.107634 -0.0977546 -0.107254 -0.164237 -0.163616 -0.163346 -0.112981 -0.0717851 -0.0629287 -0.0995408 -0.164801 -0.0796622 -0.16428 -0.102241 -0.0874809 -0.0844017 -0.10706 -0.0814691 -0.164374 -0.0715433 -0.0977939 -0.0719489 -0.163249 -0.16488 -0.0797709 -0.104329 -0.164508 -0.0889711 -0.165149 -0.16369 -0.0637353 -0.108959 -0.0708142 -0.0856346 -0.0942568 -0.0535042 -0.0867907 -0.0758761 -0.165732 -0.162689 -0.0819494 -0.105862 -0.163838 -0.161633 -0.164343 -0.0657228 -0.107413 -0.0626468 -0.105196 -0.164712 -0.162392 -0.163483 -0.163605 -0.11427 -0.0745132 -0.118577 -0.0428579 -0.0415072 -0.164442 -0.0640025 -0.0716044 -0.110982 -0.0785603 -0.104027 -0.113365 -0.0873842 -0.16361 -0.101764 -0.0414782 -0.0976514 -0.0918186 -0.111872 -0.16517 -0.143034 -0.163476 -0.164909 -0.100134 -0.163839 -0.165955 -0.08672 -0.0854842 -0.163962 -0.0689774 -0.0733822 -0.166692 -0.164625 -0.164649 -0.0927375 -0.077038 -0.115874 -0.0912906 -0.163318 -0.103559 -0.0856338 -0.0984029 -0.106829 -0.0816829 -0.163835 -0.0966257 -0.109267 -0.109081 -0.0641962 -0.164694 -0.0774151 -0.165965 -0.164251 -0.0914953 -0.115163 -0.165331 -0.164703 -0.0422105 -0.162774 -0.12052 -0.112541 -0.0981271 -0.104574 -0.165773 -0.16222 -0.112684 -0.164684 -0.108337 -0.0742186 -0.101834 -0.0939807 -0.0937673 -0.0912121 -0.166118 -0.0798155 -0.162884 -0.16604 -0.164856 -0.108738 -0.0942694 -0.0685597 -0.164424 -0.140116 -0.0806434 -0.164304 -0.0871614 -0.0832677 -0.0818671 -0.0652534 -0.101959 -0.097932 -0.0816733 -0.164363 -0.165532 -0.165823 -0.164322 -0.164814 -0.165422 -0.164611 -0.165855 -0.164047 -0.115004 -0.0897168 -0.106343 -0.166011 -0.0828068 -0.112596 -0.0980633 -0.10258 -0.082331 -0.0620004 -0.164608 -0.0945025 -0.092949 -0.0987286 -0.0948163 -0.0474653 -0.0526756 -0.112505 -0.0954345 -0.0948796 -0.066883 -0.165694 -0.047683 -0.162916 -0.165942 -0.0772795 -0.164847 -0.110375 -0.12862 -0.0976506 -0.116073 -0.10351 -0.0953301 -0.0967613 -0.0973474 -0.0773328 -0.115463 -0.164157 -0.165889 -0.16699 -0.0884043 -0.0918547 -0.0909691 -0.0885039 -0.0840139 -0.102323 -0.127712 -0.0974065 -0.0943373 -0.0977992 -0.0942217 -0.0732983 -0.0952892 -0.165918 -0.163378 -0.0548831 -0.0974162 -0.10704 -0.162752 -0.0967303 -0.164794 -0.0722978 -0.0960422 -0.0788066 -0.165297 -0.165023 -0.0869191 -0.0992195 -0.0490674 -0.0848079 -0.0899572 -0.101605 -0.0388706 -0.0955513 -0.165996 -0.166652 -0.164406 -0.10629 -0.0266296 -0.0341305 -0.0288122 -0.0914116 -0.0970555 -0.102385 -0.071014 -0.167472 -0.166962 -0.102413 -0.0456401 -0.163197 -0.0887945 -0.163906 -0.108144 -0.109711 -0.0910253 -0.0898681 -0.0939141 -0.161679 -0.0784402 -0.0485555 -0.165694 -0.164743 -0.0734044 -0.0876574 -0.105568 -0.0499268 -0.081078 -0.16379 -0.0995166 -0.165122 -0.0919619 -0.110341 -0.162872 -0.0969249 -0.0999237 -0.0986527 -0.0887603 -0.103967 -0.117345 -0.0437848 -0.111509 -0.101417 -0.117203 -0.100714 -0.163841 -0.0970781 -0.0463876 -0.165389 -0.0825276 -0.0951283 -0.101832 -0.165934 -0.163459 -0.165567 -0.087032 -0.11628 -0.128123 -0.11 -0.0844707 -0.162071 -0.164809 -0.163274 -0.0767703 -0.0849858 -0.162283 -0.163543 -0.102913 -0.0957847 -0.161828 -0.0853413 -0.167818 -0.0848286 -0.0765871 -0.16396 -0.165113 -0.164043 -0.162483 -0.0892545 -0.116586 -0.163362 -0.0795652 -0.165348 -0.0985331 -0.161552 -0.162982 -0.093496 -0.087178 -0.0693501 -0.103856 -0.165105 -0.0918683 -0.0689257 -0.161549 -0.135578 -0.0677897 -0.16414 -0.131114 -0.10826 -0.0726257 -0.081886 -0.126836 -0.0748197 -0.0848929 -0.0590633 -0.0859808 -0.110755 -0.0907605 -0.0992932 -0.095728 -0.164166 -0.0845562 -0.165295 -0.104895 -0.0611763 -0.106374 -0.164349 -0.164563 -0.162768 -0.163652 -0.163917 -0.164876 -0.167154 -0.163581 -0.0819056 -0.119808 -0.164022 -0.163359 -0.0915332 -0.120501 -0.16451 -0.165177 -0.163816 -0.0895894 -0.164888 -0.0772211 -0.0905549 -0.0802208 -0.165451 -0.0505816 -0.163833 -0.09698 -0.16583 -0.0035923 -0.163899 -0.164115 -0.165421 -0.165144 -0.164672 -0.0966669 -0.118491 -0.121361 -0.103852 -0.0954059 -0.156356 -0.124524 -0.0252303 -0.16465 -0.0836727 -0.165506 -0.163379 -0.113947 -0.105112 -0.12782 -0.0849308 -0.0891679 -0.0776457 -0.0913967 -0.102267 -0.165021 -0.163494 -0.0995373 -0.0817936 -0.0776182 -0.064252 -0.0668234 -0.165182 -0.0856535 -0.0961579 -0.0793785 -0.0769249 -0.111745 -0.0873729 -0.101088 -0.0971713 -0.111989 -0.0817127 -0.164418 -0.164071 -0.167699 -0.0374066 -0.165217 -0.161861 -0.0776903 -0.164129 -0.0780163 -0.100589 -0.105693 -0.0930091 -0.165465 -0.0687543 -0.0707292 -0.165669 -0.16526 -0.0521807 -0.0932082 -0.165149 -0.165648 -0.0998374 -0.0976669 -0.060887 -0.0957962 -0.165823 -0.0659422 -0.164356 -0.0975302 -0.113638 -0.0899661 -0.115334 -0.1251 -0.1644 -0.0970408 -0.107405 -0.0986954 -0.0392728 -0.0463608 -0.0769047 -0.165049 -0.164698 -0.164501 -0.0921669 -0.16681 -0.0970355 -0.165738 -0.0908414 -0.0749329 -0.106858 -0.103935 -0.162424 -0.0709833 -0.109787 -0.163436 -0.0392951 -0.128243 -0.105793 -0.162389 -0.0827012 -0.102494 -0.164926 -0.0858297 -0.0860917 -0.0939317 -0.104075 -0.0906098 -0.108187 -0.164012 -0.164406 -0.108548 -0.0909567 -0.0935126 -0.0889413 -0.0955388 -0.0959628 -0.165642 -0.164063 -0.163556 -0.0682013 -0.0717384 -0.083123 -0.100657 -0.0904061 -0.0877601 -0.0971499 -0.100682 -0.161415 -0.107608 -0.0861394 -0.0787272 -0.164765 -0.138141 -0.0932705 -0.094049 -0.0568266 -0.164346 -0.160428 -0.113339 -0.118429 -0.165245 -0.162865 -0.120705 -0.0974575 -0.103204 -0.104134 -0.0763496 -0.119505 -0.100765 -0.0980704 -0.0896627 -0.10337 -0.163368 -0.0967711 -0.16557 -0.102345 -0.165252 -0.167184 -0.0918573 -0.1182 -0.16458 -0.0803815 -0.0596371 -0.121956 -0.0693798 -0.111595 -0.0793565 -0.108823 -0.16527 -0.161667 -0.111229 -0.0871711 -0.102394 -0.161831 -0.0924846 -0.165253 -0.161473 -0.0899244 -0.0906234 -0.165339 -0.0934271 -0.119995 -0.0882068 -0.0776912 -0.104336 -0.163336 -0.0951577 -0.103832 -0.117536 -0.101082 -0.0403762 -0.0425598 -0.162687 -0.0731599 -0.0814107 -0.138322 -0.0941973 -0.164095 -0.0832574 -0.0634396 -0.110262 -0.0967963 -0.12222 -0.16573 -0.101621 -0.0960329 -0.0689772 -0.163006 -0.165495 -0.165478 -0.0787588 -0.162977 -0.141161 -0.163638 -0.163786 -0.163923 -0.165438 -0.162426 -0.0807857 -0.0801466 -0.0753244 -0.122837 -0.101149 -0.0797276 -0.108286 -0.116853 -0.0894359 -0.0844761 -0.0629833 -0.0985865 -0.0895825 -0.0936613 -0.165186 -0.0745575 -0.105195 -0.106254 -0.0905556 -0.0976023 -0.166337 -0.0936452 -0.0895532 -0.0989475 -0.0986829 -0.164005 -0.16251 -0.108159 -0.145405 -0.11085 -0.0989257 -0.110031 -0.0969608 -0.165759 -0.164179 -0.111445 -0.11169 -0.10821 -0.0977297 -0.165052 -0.0942794 -0.161966 -0.165987 -0.112145 -0.097984 -0.077406 -0.0852498 -0.0672597 -0.0894696 -0.115581 -0.0714337 -0.165215 -0.0934682 -0.0860822 -0.165756 -0.091926 -0.164657 -0.0684594 -0.165522 -0.163552 -0.163411 -0.165797 -0.16582 -0.162963 -0.164956 -0.164787 -0.111522 -0.162854 -0.166118 -0.164203 -0.166589 -0.0894774 -0.114052 -0.0740301 -0.141248 -0.114207 -0.117232 -0.108269 -0.164289 -0.0866835 -0.134923 -0.0933537 -0.101132 -0.163973 -0.162142 -0.102389 -0.0990285 -0.0965289 -0.0953249 -0.166439 -0.162812 -0.161496 -0.0686426 -0.0952596 -0.0912435 -0.0873597 -0.0670223 -0.163693 -0.163005 -0.10465 -0.164792 -0.0816409 -0.10165 -0.108917 -0.0649063 -0.103025 -0.111984 -0.0896327 -0.102465 -0.123042 -0.063461 -0.117355 -0.0796912 -0.049319 -0.0755352 -0.163293 -0.163169 -0.0905897 -0.166075 -0.162824 -0.112369 -0.165012 -0.0889972 -0.0977397 -0.164016 -0.164876 -0.163704 -0.164288 -0.164777 -0.165229 -0.162263 -0.110126 -0.164463 -0.106775 