
            -0.148693 0.169208 0.170581 0.141839 0.157443 0.205903 0.191085 0.11342 0.181094 0.235323 0.197247 0.153712 0.147788 0.0426097 0.117082 0.224205 0.126271 0.099505 0.0426548 0.206172 0.188179 0.118555 0.208523 0.14403 0.120003 0.107206 0.0153478 0.0534696 0.100702 0.0730606 0.17885 0.145256 0.0784819 0.0911887 0.170575 0.137336 0.0918888 0.0949371 0.138463 0.0900088 0.144421 0.0885756 0.129683 0.171666 0.205914 0.156935 0.173845 0.0949406 0.177866 0.124582 0.152894 0.138194 0.193717 0.158113 0.0971742 0.154889 0.158111 0.156177 0.00127766 0.170507 0.0787711 0.109741 0.0317755 0.103899 -0.0083004 0.112152 0.111196 0.106469 0.0763368 0.0409028 0.0915088 0.118036 0.145168 0.117991 0.00830521 0.00318001 -0.0397693 0.0995941 0.0988919 0.111053 0.161928 0.0828676 0.0996802 0.103102 0.104551 0.0895836 0.153178 0.160479 0.108291 0.136817 0.0882807 0.0922663 0.121381 0.135434 0.118184 0.0398178 0.154804 0.100528 0.0657186 0.0678569 0.0478648 0.145576 0.127205 0.150246 0.08609 0.108252 0.0704636 0.120639 0.0729513 0.0538854 0.165996 0.10239 0.121681 0.142336 0.142343 -0.0175779 0.0938857 0.103202 0.107283 0.110159 0.0600516 0.128094 0.104724 0.100122 0.0592119 0.0892985 0.136583 0.0521056 0.0727278 0.13705 0.116986 0.0901397 0.132423 0.0208285 0.115746 0.0895406 0.120892 0.120371 0.0798302 0.0831181 0.0904741 0.071171 0.0536962 0.101203 0.098051 0.0727611 0.0674195 0.0773704 0.101785 -0.0205431 0.0737126 0.0515481 0.0627424 0.0948344 0.0267285 0.0715443 0.120347 0.0676675 0.0469244 0.0995553 0.0453938 0.0353815 -0.000609289 0.0329027 0.117767 0.0952821 -0.0198655 0.103847 0.0560373 0.0850068 0.13751 0.0739151 0.100142 0.0781865 0.122724 0.0197273 0.0993821 0.0892328 0.0989222 0.0521347 0.0701008 0.0355503 0.0355936 0.0826004 0.0521168 0.0487536 0.0659971 0.109741 0.0570133 0.0623946 0.0612152 0.000296463 0.0521549 0.115259 0.106066 0.116379 0.109933 0.0746035 0.0264039 0.121697 0.09146 0.0958522 0.0784395 0.0821795 0.111129 0.10539 0.138416 0.0716386 0.119836 0.0491324 -0.0454725 0.128789 0.0895033 0.0887025 0.0404212 0.0219154 0.0546016 0.0690396 0.0776322 -0.00426414 0.064308 0.0889331 0.0848237 0.0805898 0.132968 0.0879681 0.0958268 0.093028 0.0827717 0.0721651 0.0804259 0.0642587 0.0864301 0.115812 0.072974 0.0467617 0.0309316 0.0899953 0.0981006 0.108107 -0.0113662 0.0921921 0.0644232 0.0443765 0.0982717 0.0507379 0.0770294 -0.0207117 0.0337412 0.0575658 0.0617401 0.0378778 0.0468132 0.0821376 -0.0496401 0.0525173 0.10833 -0.0578109 0.0253643 0.0605457 0.0873924 0.0614228 0.100535 0.119976 0.0065653 0.102544 0.0602744 0.127025 0.118034 0.0834365 0.108248 0.0740063 0.0389962 0.0879472 -0.0487926 0.0456622 -0.00389958 0.0581561 0.0781466 0.0945674 0.0788978 0.0975461 -0.00891648 0.0190026 0.0806613 0.081349 0.0504631 0.0508113 0.0468853 0.0550105 0.0253825 0.0181857 0.081476 0.0954892 0.111681 0.0328232 0.0240604 0.0875807 0.107677 0.0580802 0.030731 0.0997585 0.072448 0.00443918 0.0719705 0.0907645 0.0437774 0.0623732 0.0505772 0.103868 0.0677289 0.0351152 0.0837998 0.081858 0.113751 0.0501418 0.0221017 0.00616193 0.0520126 -0.00676149 0.0343453 0.135736 0.0393845 0.0367724 0.0786702 0.0986609 0.0496076 0.116572 0.0103037 0.0874586 0.00988524 0.0606202 0.059083 0.0247958 0.0632112 0.0295951 0.0381633 0.107341 0.0626472 0.0626213 0.0439803 0.0989787 0.064485 0.0283272 0.0248431 0.0548809 0.0838412 0.111538 0.0769535 0.0608548 0.0302033 0.0380538 0.030089 0.0629675 0.0217638 0.123108 0.0968131 0.0252744 0.0799002 0.11311 0.0542913 0.0680384 0.0849979 0.106587 0.0919294 0.0933425 -0.0102548 0.0666338 0.102069 0.0605513 0.0555355 0.0687905 0.0103098 0.0498246 0.121516 -0.00849595 0.0468863 0.108316 0.088256 0.00928303 0.0563977 0.0392975 0.0592754 0.0629775 0.0755604 0.0121084 0.0637228 0.0499652 0.0488672 0.073251 0.0426715 0.0517173 0.0323128 0.00882302 0.0716511 0.075435 0.120711 0.0127356 0.057555 0.0648322 0.0749586 0.0220323 0.0590355 0.0063412 0.0547818 0.0428517 0.0293776 0.100248 0.0827246 0.0764193 0.0249347 0.0468609 0.0281493 0.0211847 0.123958 0.053961 0.0392058 0.0642744 0.0705616 0.113103 0.07137 0.0472333 0.0840748 0.0663757 0.058841 0.0260129 0.0299214 0.0830596 0.0243162 0.0427057 0.0246874 0.00320454 0.0524334 0.0588273 0.0261199 0.0547397 0.0133438 0.102069 0.0882229 0.0687955 0.0601917 0.0790583 0.0340441 0.0167017 0.0689436 -0.0614461 0.0917919 0.0509076 0.0337622 0.055746 0.0397262 0.0653726 0.0931449 0.00884111 0.0261036 0.031146 0.0453465 0.0490466 0.0728386 0.0628445 0.00393943 0.0833993 0.0117609 0.0428592 0.0740708 -0.0441156 0.0696548 -0.0465663 0.00277205 0.00904146 0.0681648 0.00542134 0.0457182 0.0595483 -0.00557532 0.0608332 0.104863 0.0305206 -0.00473999 0.0434067 0.0363597 0.0467364 -0.0121202 0.0542491 0.0616679 0.0815297 0.0318719 0.0890528 -0.0488047 -0.079716 0.0673789 0.00220535 0.0793271 -0.0386203 0.0606878 0.0232926 0.029537 0.038367 0.102874 0.060324 0.0496535 0.121519 0.0124236 0.0749003 -0.0333451 0.0983728 0.0745311 0.00736536 0.0427106 0.0450821 0.109148 0.102331 0.0582335 0.0104491 0.00493853 -0.0646404 0.0510013 0.0579169 0.0484713 0.0139823 0.0552141 0.0527873 0.0909557 0.0248606 0.0289502 0.0599025 0.0140067 0.0569952 0.0660348 0.0457374 -0.000607144 0.0244193 0.0424801 0.0334871 0.0354637 0.0772987 -0.0592712 0.0504423 0.0442785 0.0242612 0.0276633 0.0506717 0.0361561 0.0989559 0.0415738 0.0205354 0.0107675 0.0670528 -0.0227637 0.0770317 0.0456705 0.0495532 0.0899826 0.0452765 0.0344521 -0.0129793 0.0441804 0.0695123 0.0677854 0.00132057 0.0663546 0.0483422 0.105992 0.0824539 0.0392251 0.0484374 0.0279747 0.0175203 0.0801575 0.0524858 0.0196687 0.0854871 0.00574879 0.0911051 0.0778649 0.0674862 0.0707547 0.0498113 -0.00274989 0.0148843 0.0156562 0.0296043 0.0642488 0.0351518 0.0186644 0.0629818 0.0904092 0.0311488 0.0465406 0.0497914 0.0367227 -0.00110575 0.0223052 0.00482023 0.0673781 0.0166909 0.0191314 0.0305017 0.0587074 0.0500389 0.035787 0.0260008 0.0554871 -0.00182383 0.0434778 0.0411803 0.0346436 0.0448818 0.0393387 0.0271932 -0.0799772 0.0801937 -0.019342 0.0232577 0.037771 0.0334094 0.043458 0.0197276 0.043034 0.065053 0.0639334 0.0326702 0.0520172 0.0655655 0.0382221 0.043911 0.0635623 0.0684195 0.016915 -0.016953 0.0420698 0.029338 0.0620557 0.0404704 0.0492607 -0.0202956 0.025116 0.0235185 0.0260085 0.0238295 0.0654073 0.00207939 0.051319 0.0473899 0.053036 0.0340684 -0.0523724 0.0104648 0.0194928 0.0188309 0.000438514 0.0341808 0.0287642 0.0131042 0.00468237 0.00816911 -0.0146548 0.0473068 -0.0401612 0.00546997 0.0706861 0.0797065 0.00706797 0.044737 -0.0318959 0.0224296 0.0372645 -0.00769009 0.0874861 0.00814489 0.0161564 0.0347464 0.0341166 0.0600341 -0.00559535 0.0105916 0.0265351 0.0564703 -0.0096762 0.0404138 0.0153606 0.0346628 0.00962576 0.0404857 0.0795879 -0.00462121 0.0118438 0.0577459 0.0805078 -0.028321 0.000673392 0.0711533 0.0338391 0.0511768 -0.00923679 0.0294812 0.00094385 -0.000570062 0.021941 -0.0426947 -0.0302432 0.0152409 0.0370681 0.0582095 0.046715 -0.0238588 0.0296725 0.07286 0.049176 0.0456772 -0.0255541 0.0175728 0.0208455 0.0616307 0.0356639 0.0215882 -0.0432197 0.0410517 0.00323732 0.0122571 -0.000498245 0.0143916 0.0222009 0.0512324 0.0365465 0.00279177 0.0467723 0.074114 0.0814295 0.0181285 0.0524264 0.0487838 0.0212609 -0.00448113 0.0536662 0.0350786 0.0542621 0.00179935 0.0368506 -0.00576664 0.04264 0.0599947 0.0227445 0.0385159 0.0279892 0.052321 0.054612 0.0239791 0.0309682 0.065108 0.041809 0.0171897 0.0737586 0.0295438 -0.0149291 0.0351363 0.053364 0.0303543 0.0119625 0.0498564 0.0479149 0.032163 -0.0180837 0.0199775 0.0264401 0.0551768 -0.0138367 0.0172923 0.049513 0.049502 -0.0675642 0.00299747 0.0526127 -0.00956979 0.0624845 0.0160671 0.0804514 0.0310438 0.00631675 0.0187367 0.03296 0.0797468 0.0388333 0.0313437 0.0213244 0.0446042 0.0452691 0.0772381 0.0500866 -0.00215142 -0.0522173 0.035122 0.0581641 -0.0242563 0.010424 0.0555843 0.0150101 -0.0509896 0.0811512 0.0471198 0.0334897 0.0175461 -0.0209234 0.00923575 0.0233034 0.0600449 0.0666413 0.0631972 0.0379135 0.0206778 0.0289291 0.000699252 0.025363 -0.0251927 -0.0386089 0.0219034 0.0479142 -0.0386516 -0.0242736 0.0229905 0.0403327 0.0425802 -0.035532 0.0549852 -0.0366794 0.0517332 0.0105654 0.0270681 0.032125 0.0358061 0.0504378 0.00795634 0.0225235 0.0618464 -0.0105601 0.0400682 -0.0341965 0.067906 0.0260726 0.0438958 -0.0392694 0.0405193 0.00530825 0.0184219 0.00248001 0.035371 0.0319291 0.0228184 0.0871492 -0.00476254 0.0521791 0.0640359 0.0322384 0.0557976 -0.0157421 0.056798 0.0494485 0.035331 0.0251741 0.0442491 0.0288843 0.0407039 0.0400214 0.0278634 -0.0580198 -0.0207672 0.0303729 0.00460613 -0.0302061 -0.0273964 0.044921 0.041442 0.0499623 -0.048628 0.0508232 -0.0865414 0.0116974 0.0536598 0.040787 -0.086806 0.0291425 -0.0150899 0.0146569 0.00414817 -0.0211617 -0.057147 -0.0530673 0.0254648 0.023566 -0.013337 0.0128608 0.0135838 0.0377079 0.0174137 0.0449013 -0.0473738 0.0085055 0.00945107 0.0895638 0.0533334 0.056197 0.0439435 0.00621369 0.0243538 -0.0423427 0.000429104 0.0112384 0.0546368 -0.00828096 0.0361737 -0.0203192 0.0488757 0.00743991 0.0351661 0.0142157 0.0379955 0.00314503 0.0088071 0.0073544 -0.0309225 0.0423029 0.0262901 0.0248387 0.0348772 0.0787291 0.0246011 0.00806382 0.045129 0.00966346 0.0583163 -0.00369648 -0.011361 0.0106829 0.00843154 -0.00376904 -0.0204801 0.0187335 0.0340778 -0.00352856 0.052331 -0.02985 0.0528343 -0.00296699 0.0356658 -0.0211531 0.00404261 0.0130528 0.0440679 0.013278 -0.00778725 -0.065874 0.0361374 0.0229256 0.0550286 0.000377228 0.044077 -0.0608913 0.03081 -0.106667 -0.00893795 -0.0510557 0.0206481 0.0130601 0.0201857 -0.0164774 -0.014746 -0.0178781 0.0104399 0.0171292 -0.00344638 -0.0332409 0.0144628 0.0335519 0.0367253 0.0605434 0.0557505 -0.0638554 -0.0541025 0.0140552 -0.0140209 0.0198043 0.0507459 0.0449507 0.0257114 -0.0404853 -0.0609703 0.0224345 0.024189 0.0484517 -0.0246537 0.0141767 0.0255381 0.0227353 -0.0366218 0.0315469 -0.0011343 0.00407429 0.0425174 -0.0229899 0.0317246 0.0219032 0.0469697 0.00156835 -0.0234687 0.035479 0.00372522 -0.013785 0.0214803 0.029387 0.0466052 0.00995663 -0.00546193 0.024362 0.0530398 0.0815255 0.0402816 0.0623234 -0.000360033 -0.00790883 0.0569482 0.031202 0.0124444 -0.0131693 0.0645428 0.0405906 0.0501281 0.0189225 -0.00384533 0.014336 0.0329625 0.00818446 -0.0302857 0.0118142 -0.028399 0.0201569 -0.0264792 -0.0187964 0.0274914 0.05503 0.0369163 0.032212 -0.0324624 -0.0169998 -0.00116722 0.0383525 -0.0277315 0.0310462 0.0575628 -0.0163192 -0.0116041 -0.00962895 0.0316856 0.0126014 0.0433459 0.00152355 0.0661211 0.0167089 -0.0297582 -0.0178499 0.0351538 -0.0279725 0.00474548 0.0220431 0.0495647 -0.0466931 -0.0085073 0.0226565 0.0203181 -0.0120527 0.0334332 -0.0146499 0.047005 0.00700575 -0.016401 0.0272876 0.0186573 0.00908692 0.0063749 -0.00402375 0.00163686 -0.0261093 -0.0130881 0.0150826 -0.0136758 -0.0266911 0.0358639 0.0658807 0.0345323 -0.00147781 -0.00497985 -0.00820262 -0.0224955 0.0230867 -0.0480059 0.0769097 -0.00459803 -0.00765024 -0.0295504 0.077037 0.0273323 0.0301463 0.0161412 -0.0150184 -0.0078605 0.0271889 -0.0333582 0.00416092 0.0279185 0.00054014 0.0571624 -0.0593999 -0.0438815 0.0189095 -0.00224801 -0.0102423 0.0460273 -0.0254388 -0.00725566 0.0296081 0.0331093 0.00212243 0.00128559 -0.0687045 0.0195675 0.0126502 -0.0464259 -0.0260531 0.037951 0.0163019 -0.0150747 -0.00621852 -0.0951831 0.020812 0.0494429 0.0289353 0.0407134 -0.0136241 0.0522646 -0.0256749 -0.0520654 0.014486 -0.0875194 0.0355451 -0.0271728 0.00698859 -0.0175954 0.0348212 0.0333457 -0.0281435 0.0295659 0.000316392 0.0280602 0.021604 -0.00274561 -0.00203662 0.0308181 -0.106655 -0.00741897 0.0286723 0.0161172 0.0390146 0.00377462 -0.000618398 0.048884 0.0497628 0.0249699 0.0174793 0.0482793 0.0150023 -0.0480376 0.0145028 -0.0179787 -0.0421833 0.0414316 -0.0615622 -0.0333057 -0.0534658 -0.0417154 0.00536609 0.0718109 0.0318878 0.0753824 0.0102123 0.0310957 -0.012232 0.00337301 0.0502954 -0.0280843 -0.00911607 0.00473913 0.0018785 0.060739 0.00697199 -0.0334565 0.0188318 -0.0362071 -0.012038 -0.0597529 -0.00223282 -0.0224269 -0.0323339 -0.030059 0.00609843 -0.00771016 0.0553245 0.0281482 0.00644803 -0.00990621 -0.00322709 0.041965 0.00301406 -0.0192272 0.0301861 0.0204137 -0.0849274 0.0503005 -0.0100871 0.0185853 -0.0182429 -0.0522329 -0.0445803 0.0108793 0.0191005 0.0196474 0.0134584 0.0207391 -0.0225543 0.0188389 0.0242754 -0.0259595 -0.000919532 0.00928886 0.0253829 -0.0190432 0.0368431 0.0275119 0.0020149 -0.0106609 0.0292634 0.0184033 -0.0223866 0.0139199 -0.00370772 -0.0341462 0.0448634 0.019494 0.0305937 -0.00232317 0.0527509 0.0142252 -0.0385571 0.0393283 0.0181464 0.0235945 0.0413394 -0.0248183 -0.00242106 -0.0282082 0.0439683 0.0395 0.0434818 0.0216966 0.0472033 0.0348497 -0.0622895 -0.00337366 -0.124343 -0.013016 -0.00287464 -0.00306041 -0.0219428 -0.0275523 -0.000690308 0.039187 0.02456 0.034454 -0.0507223 0.0382756 -0.00165419 -0.0676678 -0.00570559 0.035859 -0.0460333 0.00508115 0.0468669 0.0411086 -0.0345041 -0.14375 -0.00121449 0.0149689 -0.0163077 0.0294134 0.00931825 -0.150079 -0.0154993 -0.00951486 0.0430396 2.74266e-06 -0.0491685 -0.00445198 0.0480119 0.0198319 0.00817273 0.0234353 0.0234048 0.0586559 0.0246575 0.013315 -0.0267602 0.0270786 -0.0509406 0.0137661 0.0432665 -0.114936 -0.00922831 0.0233009 0.0331601 0.0275803 -0.0235099 0.000100539 0.0015814 0.0639894 0.0276577 -0.000598185 0.00287569 -0.0484667 0.0352111 0.016729 0.0012775 0.0199492 -0.0552551 0.0127569 -0.0586338 0.00665667 0.0366389 0.0190174 0.00459381 -0.0451878 0.0180768 -0.00828004 -0.00119835 -0.0526582 0.00748733 0.0218642 -0.0461419 -0.0183081 -0.0432521 0.0134161 0.0224558 0.0461087 -0.046469 -0.0387911 0.0608617 0.0356817 0.00274329 0.0128707 -0.0181941 0.00533753 -0.0179347 -0.101317 -0.0242888 -0.0761466 -0.0226031 -0.0196796 -0.00413321 0.0177684 0.0156371 -0.0379207 0.0329055 -0.0147127 -0.0550744 0.0385074 -0.0323782 0.00667023 -0.0308948 -0.061457 -0.0315528 -0.0325522 -0.0242775 -0.0181508 0.00864713 0.00746796 0.00867902 -0.0277188 -0.0572953 -0.00485715 -0.0989717 -0.0639393 -0.0762951 0.0153704 -0.0152145 0.0351268 0.0131521 -0.0482225 -0.0166724 -0.0229436 0.0355853 0.0377025 -0.0689928 0.0449327 0.03375 0.0176671 -0.0168126 -0.0213611 0.0466489 0.016772 0.0387831 -0.0126089 -0.0407556 0.0286308 -0.0243992 0.00411379 0.0185255 -0.0399097 -0.013211 0.0151086 -0.019672 0.0386159 -0.0107245 0.0160964 0.0478983 0.0298048 -0.00951183 0.00392899 -0.0156906 -0.00396977 -0.0213538 -0.000665189 -0.0307342 0.000603362 -0.022741 0.0335566 -0.0279951 0.0137829 0.0287696 -0.0165167 -0.00808516 0.00672409 -0.0134128 -0.0308825 0.00724064 0.0240873 0.00701323 -0.0954255 0.0179237 -0.02886 0.031643 -0.00331888 -0.0294102 -0.00500626 -0.0155936 -0.0150339 -0.0109054 -0.089916 -0.0773004 -0.0151143 0.0194807 -0.0148378 0.0147678 0.00496522 0.00845702 0.0239743 -0.0174111 -0.00420551 -0.0147955 -0.0507545 -0.00256225 -0.0663859 -0.0747279 -0.112146 0.00128198 0.0183668 -0.0304096 -0.00593164 -0.0176053 -0.0162497 0.0182833 0.0167523 -0.00933874 -0.0308023 -0.0236811 0.00776636 -0.0174087 0.0193422 -0.00153808 -0.0245885 -0.0171821 -0.0142894 -0.0370303 0.00113918 0.0359347 0.0265539 0.0155044 -0.0472397 -0.0291731 0.00721357 -0.000663674 -0.0523475 -0.0103075 -0.000669654 0.0243226 -0.0257714 0.00435348 -0.0164561 0.0020367 -0.00131309 -0.0406539 0.0406525 -0.00828721 -0.0535791 0.0149839 -0.0569742 0.0345765 -0.0353349 -0.0566363 0.00103803 -0.0602921 0.0227407 0.0132386 -0.0474847 -0.0520415 -0.0742256 -0.0210614 0.0153717 -0.0015372 -0.0153402 -0.0274822 -0.0238922 0.00302019 -0.0658329 -0.0108464 -0.024115 -0.0020792 0.0413423 -0.0245687 -0.0439752 0.0509382 -0.00522581 -0.103446 -0.03936 0.0420411 -0.0345371 -0.0215737 0.0144442 0.00603887 -0.0029832 -0.016741 -0.0010008 -0.0071491 -0.0423748 -0.0399864 -0.0572484 0.00117944 -0.0104447 0.00907656 -0.0152313 -0.0115292 -0.0125658 -0.00793179 -0.0363214 0.0179689 -0.0218886 -0.0271978 0.000724365 -0.00361642 -0.00273256 0.0325908 0.0130866 -0.0671168 -0.0795808 0.0695568 -0.0285616 0.0390468 0.0281261 0.0170774 -0.0789747 -0.0180163 -0.0307521 -0.0548032 -0.016122 -0.00934645 -0.0749268 0.0612013 -0.0184317 0.00494012 0.0493854 0.0404716 -0.0239176 -0.025287 -0.000477803 -0.0840117 -0.00815561 -0.0149336 0.00256725 -0.00679378 0.0346633 0.00385592 -0.0110864 0.0199375 -0.0862421 -0.0341977 -0.00646975 -0.0286024 -0.0228616 0.00365904 -0.0125878 0.0319131 -0.0167439 0.0487872 -0.150572 -0.00980229 -0.0450835 -0.028238 -0.0424976 0.0200397 -0.00645107 -0.0870303 -0.00983277 -0.025974 -0.0552773 -0.0165649 -0.0463918 -0.0586664 -0.0202964 -0.0647398 0.0354901 -0.0352028 0.0269752 0.00378296 -0.0371912 -0.0190937 0.00261516 -0.00767282 0.0133306 -0.0498056 -0.0428595 -0.00220861 -0.0670748 -0.0455162 -0.00292098 0.0141149 -0.00485917 -0.0239817 -0.0559967 -0.0580489 -0.00145032 -0.0435795 -0.0246383 -0.0663201 0.0103152 -0.00991733 0.0267441 -0.0433656 0.0043003 -0.0311466 -0.0397271 -0.0123401 -0.0277505 0.0175082 -0.0106208 -0.00621181 0.0155558 -0.060275 0.0256303 0.0122508 -0.0708908 0.0120048 0.0479127 0.0411502 -0.0277783 0.00489335 -0.0225271 -0.0248601 -0.00733836 -0.0704993 -0.0397654 -0.0187792 -0.00330027 0.00425976 -0.0289925 -0.0474808 -0.0453443 -0.0634045 -0.0439418 -0.113941 0.00759347 -0.00634547 -0.00540968 -0.0538974 -0.0605776 -0.00955797 -0.00894848 -0.0168128 -0.0708667 0.0125997 0.024334 -0.0235845 -0.0151684 0.00550944 -0.0136468 -0.030063 -0.0564441 -0.00408131 -0.0704926 0.000163401 -0.0359138 -0.027098 -0.034787 0.0211737 -0.0644645 -0.0483879 -0.0482008 -0.0695836 -0.0896951 -0.00282775 -0.0280676 -0.000774782 -0.0331244 -0.0475593 -0.0115742 0.0231001 -0.0372122 0.00429545 -0.0299592 -0.132638 0.000178179 -0.0322005 -0.0420256 0.0183344 -0.00777211 -0.099246 0.017403 -0.0270636 -0.0174469 -0.0443141 -0.100473 -0.0895178 -0.051198 -0.00840276 0.0173951 0.0323676 -0.0153142 -0.0149381 -0.039033 -0.0110012 -0.018114 -0.0180031 0.011121 0.00160769 -0.0173674 -0.0669392 -0.0910433 -0.00254503 0.0178424 0.0149563 0.0298219 -0.018254 -0.00330924 -0.0202513 -0.089379 -0.0775803 -0.076967 -0.0272494 0.00813473 -0.0227197 -0.00247554 0.0139211 -0.0256115 -0.012046 -0.00334017 -0.0269356 0.00742125 -0.150164 -0.0465777 -0.00594242 -0.0671046 0.0253645 -0.0261425 -0.0910366 -0.0267603 -0.0558298 -0.000786694 -0.0119209 -0.0323804 -0.050199 -0.0172061 0.0597563 -0.00154175 0.0067529 -0.0250686 -0.0482123 -0.0576143 0.0114658 -0.00549749 -0.0572665 0.0127172 -0.00422475 0.0207915 -0.0430848 -0.102317 0.0197169 -0.0455984 -0.0303815 -0.0171718 -0.0288199 -0.000573292 -0.0665226 -0.0163262 -0.0430501 -0.0953895 -0.0794716 -0.067621 -0.00215104 -0.0607382 0.00588279 0.00213476 -0.0241799 -0.0647732 -0.0244957 -0.0485495 -0.00428194 -0.0199451 -0.0493854 -0.0342446 -0.0175939 -0.0949993 -0.0605963 -0.000745498 0.0200053 -0.0142387 -0.0139699 -0.0109001 -0.0169248 -0.0221626 -0.0270343 -0.0883699 -0.00597734 -0.00120404 -0.00309014 -0.0228984 -0.0231546 -0.0988488 0.00610509 0.00703171 0.0191131 -0.0321341 -0.0173188 -0.0123403 -0.0272008 0.00424313 -0.0233447 -0.0224126 -0.0197202 -0.0411131 -0.0423094 0.0117371 0.012385 -0.0244266 -0.0216869 -0.0093565 -0.0235301 -0.081984 -0.00312242 -0.0236138 -0.0474032 -0.0286513 -0.0531305 0.0306407 -0.0125236 -0.0308594 0.0364177 -0.0481279 -0.0417189 -0.0856621 0.0327696 0.0297577 -0.0535191 0.00971865 -0.0137319 -0.00360853 -0.025191 -0.0794247 -0.0527871 0.0253239 -0.0487347 -0.0677071 -0.00894619 -0.0960664 -0.000687325 0.00511143 -0.0190621 -0.0485741 -0.0461049 -0.00221366 0.0394014 0.00565186 -0.00906127 -0.0149414 0.0395585 -0.0645987 -0.0532028 -0.0303223 -0.0714403 0.00196524 -0.0696597 -0.0567728 -0.000826929 -0.06802 -0.0403632 -0.00520313 -0.0143337 -0.0264439 -0.017902 -0.0312104 -0.0207916 -0.00861221 -0.0120139 -0.00202559 -0.0256785 0.0154396 -0.0150644 -0.0405401 0.0178916 -0.0967942 -0.0149835 -0.0720495 -0.0163883 -0.0602935 -0.061947 -0.0732512 -0.0228702 -0.0528575 -0.0466281 -0.0989561 -0.0903156 -0.0307166 -0.0671904 -0.0518791 -0.0657512 -0.0562328 -0.0317867 -0.00582127 -0.0242887 -0.0667252 -0.0385292 -0.11834 -0.0229695 -0.036847 -0.0234849 -0.014116 -0.0279967 -0.0191859 -0.0160273 -0.0164014 -0.00577061 -0.0673623 0.00261451 -0.0802827 -0.132033 -0.0577785 -0.0313044 -0.00684984 0.00553081 -0.00534082 -0.0434764 0.04084 0.00453974 -0.0887417 -0.0489166 0.0162124 0.00162715 -0.0505003 -0.025026 -0.0151902 -0.0399068 -0.0162641 -0.0192469 -0.0693786 -0.00546169 0.00100231 -0.0208707 0.0242856 -0.0201214 -0.0554006 0.0269794 -0.0491719 -0.0239164 0.018238 -0.00477927 -0.0608139 -8.13537e-05 -0.0484388 0.00110863 -0.0488155 -0.0411849 -0.0865758 -0.0175528 -0.0675495 -0.0112905 -0.0351506 -0.0295332 -0.0412522 -0.0673628 0.0178603 -0.0386497 -0.0296888 -0.00949451 -0.0203254 -0.00666455 -0.0598002 -0.0182844 -0.00881868 0.00790665 0.0116953 0.0052437 -0.0408379 -0.0501533 -0.0253268 -0.0094207 -0.0605025 0.0346752 0.0482401 -0.0204718 -0.0563067 -0.047086 -0.0130623 -0.0591825 0.0145486 -0.0819497 -0.036775 -0.0414908 -0.0047495 -0.00749962 -0.00982293 -0.0894266 0.00571074 -0.0346156 -0.00566595 0.0271972 -0.00754445 0.0265229 0.00443259 -0.0739359 -0.0208666 0.0156094 -0.0522061 -0.0233748 -0.0434036 -0.0157152 -0.0327447 -0.00689471 -0.029527 -0.0954801 -0.0465809 -0.00997709 -0.0400665 -0.033012 0.0397069 -0.0209328 0.00198776 -0.00247056 0.00735138 -0.0400814 -0.0730681 -0.0624649 -0.0105089 -0.0473089 -0.000323045 -0.0347576 -0.0803368 0.0183085 -0.0359405 -0.0350301 -0.0586797 -0.0540308 -0.0747256 -0.0290651 -0.0910566 0.00547747 -0.125006 -0.101441 -0.0180848 -0.0231091 -0.0283621 -0.0508816 -0.0137963 -0.0598956 -0.0064029 -0.0206757 -0.0366907 -0.0221273 -0.0952572 -0.0123456 0.0137163 -0.0232121 -0.041823 -0.0326019 -0.0245548 -0.0458381 -0.0535656 -0.0537059 -0.0343692 -0.0257766 -0.112344 -0.0234287 -0.0241312 -0.0300131 -0.0766454 -0.0437675 -0.0361646 -0.050542 0.00227481 -0.0457884 0.00767234 -0.0421053 -0.00180969 -0.0536676 -0.0256314 -0.0780019 -0.064562 -0.0758298 -0.0580539 -0.130749 -0.00727936 -0.0336924 -0.0872384 -0.00122494 -0.0441402 -0.0849277 0.0012466 -0.0307853 -0.0635792 0.0536631 -0.0564525 -0.0277371 -0.0370502 -0.0585066 -0.0264329 0.00121162 -0.150496 0.00875155 -0.039183 -0.00708236 -0.0404614 -0.00647986 -0.00190511 -0.0645674 -0.0440676 -0.00326332 -0.149784 -0.023834 -0.014877 -0.0796078 -0.0531376 0.0274412 0.00288588 0.02037 0.000891359 -0.0244589 0.0108712 -0.0721236 -0.0396644 -0.0573829 0.0146984 -0.0498983 -0.0609032 -0.0391824 -0.00894037 -0.0465404 0.00932918 -0.0160212 -0.0388266 -0.0515266 0.0529717 -0.041117 -0.023069 -0.024224 -0.0778579 -0.0586256 -0.0119878 -0.0321774 -0.0111588 0.00845332 -0.0100549 -0.0449701 -0.0326921 -0.00205518 -0.0631751 -0.0584858 -0.00165088 -0.0488718 -0.0310218 -0.0463635 -0.0148632 -0.0976757 -0.0677799 -0.0529018 -0.00436962 -0.0369919 -0.0714375 0.0425492 -0.0267296 -0.0593115 -0.0175557 -0.00678994 -0.0837396 -0.0239798 -0.0161069 -0.0339809 -0.036771 -0.0334474 -0.0503749 -0.0456379 -0.0809614 -0.0450055 -0.0435194 0.0122961 -0.00980893 0.0161212 0.00504949 -0.0112295 -0.0967727 -0.116244 -0.0767962 -0.0200892 -0.0606011 0.00173885 -0.0747397 0.0142281 -0.0460539 -0.00186562 -0.0113344 -0.0395658 -0.0890602 -0.0497018 -0.0455261 -0.0657519 -0.0513995 -0.030592 -0.0506597 -0.0744261 -0.0962727 -0.0329809 -0.00705666 -0.0309046 -0.0468889 -0.0728814 -0.0343636 -0.0455911 -0.0067688 -0.0083491 -0.0641651 -0.0534199 -0.0448473 -0.108779 -0.0176879 -0.00256184 -0.0651697 -0.0703266 -0.0482067 -0.0487395 -0.0503445 -0.0589283 -0.0660509 -0.100667 -0.0481873 0.0200189 -0.00162582 -0.0325135 -0.0655152 -0.00774675 0.00691356 0.0133189 0.00205284 -0.114852 -0.00283299 -0.0135267 -0.0171323 -0.0144169 -0.0542935 -0.00470545 -0.0641793 -0.010975 -0.075274 -0.012126 -0.00205429 -0.0450366 -0.0251592 -0.0379783 -0.0421743 -0.036528 -0.0289486 -0.0587496 -0.0168526 -0.0758522 -0.104894 -0.0538115 -0.0662974 -0.0627502 -0.0464622 -0.0556786 -0.0176739 -0.0314063 -0.0354697 0.00862455 0.00110172 -0.0448495 -0.00127861 -0.0440175 -0.0150801 -0.0268518 -0.0622836 -0.0696833 -0.03646 -0.0729848 -0.0613181 -0.0455121 0.0100616 -0.0569314 -0.0456727 -0.0586433 -0.0685334 -0.0403783 -0.00448631 -0.00790829 -0.134144 0.00981663 -0.015783 0.000725834 -0.0316954 -0.0714315 -0.0357386 -0.0522305 -0.0531336 -0.0364924 -0.0646502 -0.0678477 -0.00234046 -0.0258138 -0.0821449 0.0283489 -0.0330518 -0.00622136 -0.00958414 -0.0236979 0.00355601 -0.0627297 -0.0292797 -0.0512392 -0.0591626 0.0188037 0.00866985 -0.0417896 -0.0145993 -0.0343998 -0.0759928 -0.0484281 -0.0289043 -0.0146895 -0.079735 -0.0814258 -0.0594498 0.0167393 -0.0621 -0.0238348 -0.104593 -0.0319903 -0.0468287 -0.00196403 0.0135679 -0.0753028 -0.0110656 0.000147538 -0.0553614 -0.059144 -0.0662437 -0.0440403 0.0411164 0.00299424 -0.012972 -0.0805865 -0.0435538 0.000571815 -0.0224452 -0.0115273 0.0353031 -0.0391285 -0.0346332 -0.132928 -0.0513459 -0.0586458 -0.060173 -0.041101 -0.0567351 -0.0106016 -0.0447955 -0.0252245 -0.0132164 -0.101274 -0.0414124 -0.0105986 -0.0277295 -0.0220655 -0.0591633 -0.0392211 -0.0152365 -0.0126052 -0.0425009 -0.055717 -0.0418003 0.00338341 -0.0218919 -0.0476289 -0.0651373 -0.0558938 -0.0284171 -0.0276702 -0.0153573 -0.0666532 -0.0391393 -0.0370819 -0.0731691 -0.0520319 -0.0281701 -0.0523665 -0.0397993 -0.04903 -0.0411061 -0.000851123 -0.0196309 -0.0380825 -0.0207639 -0.00153122 -0.0630161 -0.0163885 -0.0317519 0.0284081 -0.0307988 -0.0607381 -0.120776 0.000960664 -0.058888 -0.0795738 -0.0755469 -0.0629544 -0.0997875 -0.0978085 -0.0642207 -0.070463 -0.028309 -0.00562751 -0.00876815 -0.011058 -0.039195 -0.0179848 5.06514e-06 0.0479403 -0.0565315 -0.023659 -0.0485175 -0.0235288 -0.0384487 -0.0414919 -0.0845709 -0.0492386 -0.0561151 -0.0366874 -0.0464093 -0.0507924 -0.0345958 -0.0014883 -0.0558227 -0.0245391 -0.0438204 0.00163803 -0.148 -0.00418175 -0.0154088 -0.0816762 -0.0269491 -0.0419552 -0.0581135 -0.0408385 0.00423814 -0.0105564 -0.0296054 -0.0341117 0.0288516 -0.0896519 -0.00897584 -0.0843244 -0.0882 -0.00597033 -0.0457344 -0.0811215 -0.00779991 -0.0294425 -0.00436495 -0.0238082 -0.0642789 -0.0431206 -0.0296098 -0.0712218 -0.0167223 -0.044311 -0.0812368 -0.0752483 -0.0876116 0.0024777 -0.0596219 -0.0894756 -0.100475 0.0130128 -0.036334 -0.0374408 -0.047778 -0.0192394 -0.0346593 0.0332629 -0.0675538 0.0116601 -0.016372 -0.0397225 4.14847e-06 -0.0108276 -0.0520443 -0.0610644 -0.0695453 -0.0430774 -0.0149178 -0.0976851 -0.0255637 -0.0245421 -0.0939267 -0.0259693 0.0135 -0.0911441 -0.0644895 -0.0987298 -0.0426277 -0.00355134 -0.0501159 -0.00144278 -0.0644444 -0.024666 -0.00154234 -0.0180056 -0.106692 -0.0664102 -0.110961 -0.0788374 -0.0666408 -0.0407156 -0.0280546 -0.0661034 -0.109709 -0.00142685 -0.0810861 -0.110605 -0.0151136 -0.0647926 -0.0624285 -0.0492309 -0.0589924 -0.0279423 -0.0935738 -0.0305418 -0.0461678 -0.045333 -0.063217 -0.0523456 -0.0465892 0.0118674 -0.0570931 -0.0434421 -0.000924081 -0.0179279 -0.0638639 -0.0236915 -0.0483849 -0.0317377 -0.0722212 -0.0508192 -0.0562608 -0.029646 -0.0315538 -0.0648714 0.00578017 -0.0938893 -0.0661147 -0.0224971 -0.0619888 -0.033829 -0.027271 -0.0297421 -0.0424659 -0.0903805 0.000472197 -0.0118194 -0.0622864 0.0235452 -0.0283397 -0.0302198 -0.0588366 -0.0558991 -0.0339084 -0.0116884 -0.0498823 -0.059855 -0.117532 0.0113117 -0.0502616 -0.118764 -0.0154152 -0.148763 -0.0346438 -0.0461157 -0.0469492 -0.0881582 -0.00490685 -0.0279409 -0.0400462 -0.0911478 0.000535148 -0.077852 -0.0459248 -0.0680913 -0.0637883 -0.0710953 -0.0100211 -0.0529775 -0.0584986 -0.034094 -0.00513235 -0.0454474 -0.0372352 -0.116163 -0.028083 -0.0600139 -0.0366896 -0.0306593 -0.0608356 -0.16136 0.0102607 -0.0101649 -0.00190336 -0.0425141 -0.0260846 -0.0811287 -0.00630858 -0.0498399 -0.0389383 -0.000728469 -0.082508 -0.0705302 -0.0562168 -0.0649248 -0.0587023 -0.107296 -0.0709023 -0.0865151 -0.00833408 -0.0475275 -0.0277949 -0.0350879 -0.0234826 -0.0627019 -0.0352899 -0.0338712 -0.0647763 0.00856871 -0.125153 -0.0173877 -0.0949952 -0.0860948 -0.062408 -0.0213992 -0.0646003 -0.0033064 -0.0267897 0.00190677 0.0142142 -0.0575549 -0.00109362 -0.112046 -0.00765199 -0.102169 -0.130136 -0.0598554 0.011082 0.0126172 -0.0270321 -0.048491 -0.0766239 -0.0364975 -0.0161735 -0.0242912 -0.0598243 -0.0467103 -0.0553707 -0.0345658 0.0105073 -0.0489261 -0.0296802 -0.0638702 0.0230828 -0.09095 -0.0640004 -0.0873728 -0.0403745 -0.0776255 -0.0433157 -0.0632761 -0.0675704 -0.0590833 -0.0213673 -0.00402372 -0.0677426 -0.0728778 -0.0293574 -0.0122408 -0.102404 -0.0892406 -0.0195838 -0.063795 -0.0455077 -0.0125116 -0.0417564 -0.110815 -0.028243 0.00355988 0.00742522 -0.0735158 -0.0910502 -0.0678473 -0.0817979 -0.0523148 -0.0140563 -0.0528259 0.00553923 -0.0877263 0.0158149 -0.0455692 -0.0567743 -0.107959 -0.0773679 -0.0311664 -0.0746778 -0.0452476 -0.0790186 -0.0291726 -0.0906724 -0.0546275 -0.0199525 -0.106654 0.0151072 -0.0686142 -0.0235081 -0.0151988 -0.0576774 -0.00890018 -0.0299908 -0.103615 -0.00468815 0.00142494 -0.0667589 -0.0420932 -0.108794 -0.0618322 -0.054632 -0.0310434 -0.032733 -0.0311486 -0.0818499 -0.0457062 -0.0701702 -0.0756598 -0.0581522 -0.0223324 -0.0381166 -0.0350118 -0.059935 -0.0876132 -0.0473667 -0.0430957 -0.0637547 -0.0630953 -0.0924361 -0.0263781 -0.151551 0.0149211 -0.00420154 -0.0141468 -0.0682098 -0.00863374 -0.0553671 -0.0300942 -0.0725509 -0.121204 -0.0384042 -0.0912529 -0.0247817 -0.0387235 -0.0683545 -0.0992308 -0.0492962 -0.0500097 -0.101967 -0.0595266 -0.0763221 -0.0604809 -0.148597 -0.155604 -0.0525867 -0.116042 -0.0740854 -0.172564 -0.054054 -0.131318 -0.0515785 -0.0929453 -0.00600223 -0.0631582 -0.0122556 -0.0957301 -0.00462941 -0.0575178 -0.103334 -0.0780971 -0.0547956 -0.0232872 -0.0400504 -0.016696 -0.0587733 -0.0409626 -0.106522 -0.0239759 -0.084523 -0.0797433 -0.0538298 -0.0407187 -0.0531142 -0.0237603 -0.0843846 -0.0189109 -0.0296141 -0.0181254 -0.018555 -0.0869318 -0.0239892 -0.0656831 -0.0656733 -0.00561962 -0.0327389 -0.0143916 -0.0581459 -0.0325596 -0.016673 -0.0357335 -0.0613573 -0.0807042 -0.0719998 -0.0789615 -0.046395 -0.0394958 -0.0228302 0.0147995 -0.0598376 0.0428115 -0.0934177 -0.0205789 -0.0362298 -0.00712272 -0.018739 -0.0940466 -0.0280411 0.00656462 -0.0422164 -0.00552468 -0.0448244 -0.0320324 -0.0888472 -0.031368 -0.0726741 -0.0404015 -0.0914853 -0.0835346 -0.0647123 -0.0382992 -0.0288871 -0.0269854 -0.024949 -0.0763697 -0.0511982 -0.0293085 -0.0877322 -0.068153 -0.0431 -0.061588 -0.0492641 -0.0614195 -0.0272815 -0.0719337 -0.0272354 -0.118045 -0.106474 -0.00267843 -0.0357435 -0.0681217 -0.0672291 -0.0559478 -0.0366871 0.00518919 -0.0349921 -0.0448389 -0.0274872 -0.0767391 -0.00436286 -0.013348 -0.0354134 -0.0627576 -0.0600064 -0.0263812 -0.0967147 -0.0503315 -0.0466768 -0.0771489 -0.0660811 -0.0120369 -0.0421381 -0.0418716 -0.0547865 -0.0768219 -0.0531488 -0.0570044 -0.0435809 -0.0719014 -0.093055 -0.042376 -0.0737908 -0.0365404 -0.10525 -0.0293188 0.00435009 -0.072181 -0.0428684 -0.0924816 -0.0574626 -0.0508532 -0.0775239 -0.0361812 -0.0641745 -0.148573 -0.0465906 -0.0698223 -0.0729228 -0.102203 -0.0506858 -0.083897 -0.0473801 0.0038721 -0.0475035 -0.0892214 -0.0812928 -0.0754754 -0.0489775 -0.150724 -0.0866005 -0.0740589 -0.0968975 -0.0707976 -0.132575 -0.0572134 -0.097156 -0.04512 -0.0894489 -0.0396982 0.00411454 -0.121195 -0.049481 -0.0764416 0.00691495 -0.0323344 -0.0952168 -0.0508022 -0.0476444 -0.0418376 -0.0356971 -0.0724272 -0.00150736 -0.0673271 -0.0915694 -0.0394035 -0.065843 -0.0383289 -0.0677893 -0.0330712 -0.0696823 -0.0422361 -0.0732402 -0.0189043 -0.043196 -0.0676649 -0.098445 -0.0805309 -0.100073 -0.0670104 -0.0325849 -0.0307166 -0.0602355 -0.0260211 -0.0579603 -0.0823083 -0.0862769 -0.0224144 -0.0481189 -0.0155921 -0.0133239 -0.0718301 -0.0952843 -0.0210538 -0.0225433 -0.151805 -0.0721057 0.00716872 -0.0208269 -0.0785423 -0.0668042 0.00847739 -0.0387967 -0.0542603 -0.0324496 -0.084956 -0.0548291 -0.0690069 -0.0345189 -0.0940031 -0.0659088 -0.0263231 -0.066502 -0.0806399 -0.00391778 -0.0523117 -0.00721866 0.00669029 -0.0863005 -0.0366807 -0.0766168 0.0153158 -0.041931 -0.00024145 -0.0327619 -0.00594112 -0.0639863 -0.0978901 -0.0119337 -0.050323 -0.0526822 -0.114421 -0.065077 -0.149104 -0.108047 -0.0468065 -0.0672872 -0.0839247 -0.0206071 -0.037114 -0.0931432 -0.0790252 -0.0495404 -0.021175 -0.0800344 -0.101274 -0.059359 -0.0625236 -0.111102 -0.0280769 -0.0875915 -0.0492026 -0.0540938 -0.0335162 -0.0476955 -0.0210294 -0.0464003 -0.0672682 -0.0518664 -0.0136664 -0.0505713 -0.0547337 -0.014876 -0.0406697 -0.0872816 -0.0623483 -0.144392 -0.136191 -0.0485184 -0.0206822 -0.0412749 -0.0644592 -0.0914477 -0.024121 -0.0553174 -0.0243191 -0.0498701 -0.0874628 -0.0548658 -0.0408701 -0.00109718 -0.0212794 -0.0315679 -0.051899 -0.0658632 -0.0738501 -0.0663658 -0.0235434 -0.0576782 0.00365187 -0.0399832 -0.0304193 -0.128431 -0.0433603 -0.0882012 -0.0793301 -0.0873833 -0.0542356 -0.0384419 -0.0937553 -0.0589919 -0.149583 -0.064435 0.00324579 -0.0459181 -0.0450351 -0.0479336 -0.0829981 -0.0115351 -0.0756264 -0.0195203 -0.0868237 -0.129755 -0.09345 -0.0818427 -0.00174755 -0.0987031 -0.0442241 -0.143256 -0.0625269 -0.0904518 -0.0710241 -0.0437902 -0.0379334 -0.0297473 -0.0671296 -0.0834829 -0.0360944 -0.0669922 -0.0100548 -0.0726247 -0.0445269 -0.0583121 -0.0613489 -0.0475014 -0.0954572 -0.103688 -0.0883618 -0.0985969 -0.0563651 -0.0677656 0.00495167 -0.0509529 -0.0468769 -0.107178 -0.0348121 -0.0938108 -0.0234237 -0.00987772 -0.0224535 -0.0483226 -0.057814 -0.0963041 -0.0578642 -0.0169492 -0.106696 -0.0270912 -0.0710913 -0.0992371 -0.103681 -0.0441936 -0.0289708 -0.103833 -0.0351168 -0.0742565 -0.0634204 -0.101435 -0.0743815 -0.0538074 -0.091653 -0.0489708 -0.1496 -0.147585 -0.149847 -0.112493 -0.139149 -0.0932947 -0.0738202 -0.0354568 -0.0319802 -0.0561456 -0.000941861 -0.101085 -0.0312575 -0.0315821 -0.0874901 -0.0969494 -0.035012 -0.0320168 -0.0338429 -0.0413735 -0.0703681 -0.0401122 -0.0668387 -0.0478679 -0.0758749 -0.105406 -0.0949351 -0.0665261 -0.0733805 -0.0501068 -0.0683475 -0.12838 -0.0379617 -0.0579089 -0.0551189 -0.0544048 -0.100858 -0.0490973 -0.011249 -0.0461402 -0.064251 -0.121197 -0.142403 -0.040696 -0.0984308 -0.0497955 -0.0523245 -0.0626776 -0.066644 -0.104206 -0.0287218 -0.0848194 -0.0365826 -0.0711146 -0.0430387 -0.0180575 -0.0860333 -0.0381399 -0.0408245 -0.084243 -0.0665385 -0.0506887 -0.00715025 -0.0472734 -0.0594032 -0.0352417 -0.0351634 -0.0841642 -0.0329443 -0.06117 -0.0689899 -0.0399948 -0.0746855 -0.0960784 -0.0539062 -0.0442732 -0.102069 -0.0907828 -0.0456147 -0.0476182 -0.0593524 -0.0458655 -0.0521812 -0.088363 0.00246334 -0.110735 -0.00687203 -0.049244 -0.0605336 -0.0475631 -0.0468764 -0.0805736 -0.148807 -0.0604725 -0.000218614 -0.101858 -0.0630461 -0.0819424 -0.0531863 -0.0639469 -0.0264435 -0.106385 -0.0479524 -0.0895722 -0.0710207 -0.10193 -0.0586233 -0.0808133 -0.0645002 -0.0566015 -0.0745566 -0.0360165 -0.0515894 -0.0217405 -0.0848149 -0.0229748 -0.115712 -0.0636779 -0.104108 -0.00238059 -0.0648647 -0.0261658 -0.0733539 -0.0363222 -0.0824817 -0.0536893 -0.0306539 -0.089306 -0.150294 -0.0782507 -0.101327 -0.150158 0.00674776 -0.0856244 -0.0555524 -0.108652 -0.100518 -0.0424778 -0.0743895 -0.051487 -0.101985 -0.127205 -0.0705951 -0.0330605 -0.0504876 -0.0795952 -0.0543158 -0.0161356 -0.0722904 -0.0802953 -0.0756191 -0.0419632 -0.0667066 -0.131781 -0.00935277 -0.0537901 -0.0610318 -0.00850863 -0.0900167 -0.0769114 0.000620253 -0.0214517 -0.0372472 -0.03998 -0.0562959 -0.125958 -0.0214795 -0.0547583 -0.0285558 -0.0727349 -0.0347832 -0.0511643 -0.0552223 -0.0529796 -0.0581355 -0.0743927 -0.0571418 -0.0691981 -0.10218 -0.0470328 -0.0809672 -0.0452919 -0.0382582 -0.091457 -0.0689117 -0.0430864 -0.0499903 -0.090118 -0.0776096 -0.0857912 -0.0308244 -0.0482181 -0.0354546 -0.0928963 -0.0337053 -0.0662863 -0.0221384 -0.0596778 -0.0888675 -0.0342057 -0.070054 -0.0675094 -0.148438 -0.0435919 -0.0624364 -0.0687091 -0.0886233 -0.0977266 -0.088298 -0.14927 -0.0784 -0.0201142 -0.0497671 -0.0897414 -0.0460203 -0.0536126 -0.0587784 -0.105778 -0.059679 -0.0606242 -0.0960658 -0.10122 -0.0586377 -0.125916 -0.00814353 -0.0452125 -0.0918972 -0.0421486 -0.051074 -0.046703 -0.132667 -0.10144 -0.0472874 -0.077533 -0.0613019 -0.086429 -0.0885422 -0.0358457 -0.0446008 -0.0202202 -0.0591896 -0.146795 -0.0504369 -0.0484592 -0.069425 -0.0725236 -0.106415 -0.0309922 -0.0566756 -0.0367634 -0.022284 -0.0520132 -0.0700012 -0.0633161 -0.030822 -0.100541 -0.0369689 -0.037941 -0.0475782 -0.0702272 -0.057392 -0.0568435 -0.0341983 0.0160335 -0.0123686 -0.0342823 -0.0345417 -0.0284002 -0.101374 -0.0828108 -0.0528084 -0.0199755 0.00230695 -0.0269738 -0.0563353 -0.045533 -0.0388377 -0.105158 -0.0381981 -0.0260992 -0.0723213 -0.0683204 -0.0630839 -0.0224827 -0.0293379 -0.0826853 -0.0854627 -0.0526026 -0.0182042 -0.0596664 -0.069863 -0.0758243 -0.0644261 -0.0792272 -0.0714348 -0.0620589 -0.0832248 -0.033182 -0.0898971 -0.0748766 -0.0615712 -0.0161877 -0.0466053 -0.0716712 -0.0395768 -0.0717285 -0.0429962 -0.0526432 -0.0834196 -0.00675912 -0.0351666 -0.0835471 -0.0273934 -0.0192858 -0.0407598 -0.0522012 -0.0633271 -0.0692269 -0.0615896 0.0281579 -0.0637394 -0.0836619 -0.122648 -0.0724397 -0.0533316 -0.0278105 -0.00996041 -0.0514405 -0.060228 -0.0733303 -0.0638357 -0.0876343 -0.0571966 -0.0463602 -0.117887 -0.0863727 -0.08348 0.00760447 -0.146297 -0.149773 -0.15233 -0.133159 -0.125764 -0.113666 -0.102613 -0.115648 -0.0227904 -0.11312 -0.0291768 -0.0426168 -0.0522242 -0.070103 -0.122653 -0.0459867 -0.102199 -0.150607 -0.0910076 -0.0175749 -0.0565981 -0.0408462 -0.0859119 -0.0813573 -0.0830665 -0.0620252 -0.0566833 -0.0638659 -0.0605367 -0.0394407 -0.0589105 -0.12395 -0.0841658 -0.0686681 -0.0687344 -0.111098 -0.110592 -0.0612739 -0.0828433 -0.00539165 -0.0343405 -0.080753 -0.0798128 -0.0848679 -0.0434453 -0.061721 -0.149425 -0.00521375 -0.0171611 -0.0718384 -0.0951162 -0.0820018 -0.111573 -0.076297 -0.150913 -0.0982659 -0.080472 -0.0945046 -0.0734941 -0.0898434 -0.0524297 -0.0522882 -0.0969443 -0.0414739 -0.0763064 -0.0519613 -0.121895 -0.0481002 -0.0559397 0.00758599 -0.10899 -0.0939127 -0.0702024 -0.0761154 -0.109555 -0.047044 -0.0775036 -0.0972058 -0.0159985 -0.0900907 -0.080002 -0.0566037 -0.0256709 -0.0797396 -0.0758023 -0.063733 -0.0585456 -0.0699036 -0.105389 -0.0529865 -0.0811203 -0.0567461 -0.0564527 -0.0166005 -0.0446327 -0.0844457 -0.10007 -0.1092 -0.0991442 -0.0223517 -0.105584 -0.0779807 -0.0927447 -0.0841612 -0.0769534 -0.0667556 -0.0721999 -0.00170659 -0.0839086 -0.0959821 -0.128397 -0.0351347 -0.0447376 -0.106221 -0.10415 -0.146505 -0.118695 -0.0730818 -0.0149969 -0.0227129 -0.068112 -0.0154 -0.0449121 -0.101457 -0.0989378 -0.0241286 -0.0379399 -0.0977427 -0.0516633 -0.0386951 -0.0435774 0.0150307 -0.0958371 -0.0823265 -0.102041 -0.0951973 -0.150185 -0.0810187 -0.0499409 -0.0422137 -0.0313006 -0.08169 -0.0887913 -0.0772756 -0.0561047 -0.0242421 -0.0716991 -0.119578 -0.1129 -0.0451078 -0.0504759 -0.130079 -0.0972823 -0.0654271 -0.0602428 -0.0524342 -0.0329411 -0.111319 -0.0239016 -0.028685 -0.0966392 -0.0391986 -0.0962492 -0.112095 -0.0201954 -0.088319 -0.100646 -0.0782678 -0.148474 -0.0871145 -0.0417896 -0.0272799 -0.0755422 -0.0613166 -0.0968465 -0.0767454 -0.0433228 -0.00900537 -0.053689 -0.0927816 -0.032238 -0.0680031 -0.055121 -0.147079 -0.148769 -0.0417223 -0.11547 -0.0727275 -0.0802305 -0.0438504 -0.118968 -0.150129 -0.025119 -0.0410815 0.00870927 -0.0891441 -0.0664556 -0.0219332 -0.0331614 -0.0710037 -0.0798168 -0.0747145 -0.0542664 -0.0981911 -0.0820802 -0.0616669 -0.0914728 -0.0980746 -0.0399101 -0.0141157 -0.0627682 -0.0872185 -0.106194 -0.0230609 -0.0605321 0.0135844 -0.0477414 -0.0568132 -0.0598646 -0.093081 -0.0300783 -0.0410188 -0.0561488 -0.0471148 -0.151641 -0.0998565 -0.0223223 -0.0810575 -0.0508357 -0.0930848 -0.101092 -0.11494 -0.0921053 -0.085437 -0.0327991 -0.0951326 -0.109038 -0.115317 -0.0968735 -0.0705376 0.0120336 -0.0455771 -0.0442482 -0.0400991 -0.0324093 -0.0555555 -0.0848215 -0.0833085 -0.0984537 -0.103866 -0.0779001 -0.0468222 -0.100154 -0.00323193 -0.0789965 -0.0473425 -0.0130915 -0.064999 -0.0736661 -0.0910455 -0.0569158 -0.0544011 -0.133546 -0.110032 -0.0757782 -0.0545442 -0.0728486 -0.0981477 -0.0932936 -0.039666 -0.0129048 -0.0350537 -0.0352444 -0.0373783 -0.114455 -0.0978012 -0.0685433 -0.123468 -0.0803246 -0.00729133 -0.0155181 -0.0658443 -0.0764438 -0.0839659 -0.0752134 -0.108868 -0.0547174 -0.0282272 -0.0894642 -0.0600005 -0.0378676 -0.118263 -0.0819364 -0.00290748 -0.0704296 -0.0731198 -0.0643267 -0.151213 -0.0984132 -0.00899442 -0.105058 -0.044367 -0.0618296 -0.107091 -0.067914 -0.0495886 -0.0721806 -0.10521 -0.0587314 -0.0315185 -0.0752853 -0.0615806 -0.0928165 -0.116295 -0.0643057 -0.0418867 -0.151506 -0.0414286 -0.0156725 -0.0532835 -0.0507948 -0.0185007 -0.0664571 -0.0868464 -0.129914 -0.106558 -0.0317211 -0.0583986 -0.112151 -0.151327 -0.148005 -0.0652893 -0.0162987 -0.0989291 -0.0452864 -0.086277 -0.0329744 -0.071746 -0.0263295 -0.102908 -0.0653559 -0.10222 -0.0881665 -0.11929 -0.0702603 -0.154268 -0.0845661 -0.108943 -0.125779 -0.102231 -0.104066 -0.0476104 -0.0723663 -0.148647 -0.0448348 -0.150506 -0.0863075 -0.0683833 -0.132876 -0.0930168 -0.0678662 -0.0508221 -0.0296666 -0.00327864 -0.0960161 -0.0780445 -0.0767692 -0.0852844 -0.0568127 -0.0914664 -0.0648103 -0.14782 -0.12992 -0.0861408 -0.0884622 -0.123034 -0.10711 -0.0410516 -0.128022 -0.10399 -0.0672229 -0.0775991 -0.00734239 -0.057712 -0.0830671 -0.0535639 -0.0319863 -0.105174 -0.0137323 -0.0759851 -0.089844 -0.0448409 -0.0488613 -0.0540324 -0.0638839 -0.0922029 -0.0610965 -0.101924 -0.0535999 -0.0267762 -0.0244776 -0.106467 -0.0858803 -0.0143412 -0.0410523 -0.089584 -0.0373467 -0.017822 0.0219998 -0.151229 -0.0903994 0.00938826 -0.113679 -0.0798969 -0.0358739 -0.0701479 -0.0977891 -0.0546956 -0.101365 -0.14937 -0.028614 -0.148226 -0.0474999 -0.066567 -0.0693627 -0.0553468 -0.0499087 -0.101319 -0.0307935 -0.0376497 0.023837 -0.0634316 -0.0198856 -0.10226 -0.0933413 -0.08591 -0.0600303 -0.103136 -0.0424929 -0.057705 -0.102367 -0.0536522 -0.0428616 -0.094253 -0.0541442 -0.0909537 -0.0822751 -0.149507 -0.0826873 0.00636156 -0.0695966 -0.151141 -0.118252 -0.0610598 -0.108338 -0.0445123 -0.0629911 -0.0300029 -0.0922698 -0.0721405 -0.0991052 -0.0781746 -0.0684851 -0.0550414 -0.0922735 -0.029196 -0.0711902 -0.0835965 -0.0830812 -0.0565234 -0.0863917 -0.0450374 -0.112641 -0.102713 -0.0979194 -0.149156 -0.0277285 -0.100708 -0.0427804 -0.109009 -0.09556 -0.083141 -0.0820488 -0.0727262 -0.0477875 -0.0664809 -0.0539728 -0.0747761 -0.0958122 -0.0474616 -0.0502159 -0.113512 -0.0871861 -0.0965039 -0.0365407 -0.0785298 -0.0872342 -0.0648067 -0.0695148 -0.157563 -0.0709998 -0.0943878 -0.0344348 -0.105916 -0.0507605 -0.0832963 -0.00322984 -0.113308 -0.0963302 -0.0504979 -0.0727388 -0.105741 -0.110469 -0.0298972 -0.0431419 -0.049669 -0.0353527 -0.071863 -0.087907 -0.108958 -0.0141146 -0.038099 -0.136578 -0.0668181 -0.0628185 -0.101723 -0.0630341 -0.0675176 -0.0661595 -0.0618569 0.0151477 -0.0609551 -0.0941202 -0.148845 -0.0549518 -0.109696 -0.0376747 -0.0865747 -0.084767 -0.105958 -0.149248 -0.049412 -0.0782991 -0.117627 -0.0895582 -0.0837174 -0.0381532 -0.0661109 -0.0594598 -0.033272 -0.113568 -0.0876239 -0.0912414 -0.040939 -0.0826667 -0.0966462 -0.0192957 -0.0589815 -0.0508909 -0.0590171 -0.0284859 -0.0644655 -0.0361028 -0.0757088 -0.0600394 -0.105703 -0.0282876 -0.0722239 -0.0659347 -0.0383347 -0.102449 -0.0796428 -0.0247369 -0.0814117 -0.0502505 -0.0518064 -0.0490221 -0.0955887 -0.0247083 -0.106963 -0.149555 -0.0804713 -0.0559047 -0.0563235 -0.0814293 -0.0205827 -0.0991775 -0.0739242 -0.05661 -0.0529527 -0.0542321 -0.0916167 -0.0462507 -0.110307 -0.130015 -0.0940109 -0.151643 -0.0586586 -0.14969 -0.0243984 -0.0932911 -0.0813157 -0.0313654 -0.0333492 -0.0706208 -0.150405 -0.0739777 -0.0999891 -0.0873004 0.00391592 -0.104644 -0.0172715 -0.0496535 -0.133527 -0.069519 -0.0893739 -0.149871 -0.101743 -0.0464129 -0.136059 -0.0804304 -0.00873058 -0.0376183 -0.0356013 -0.0284597 -0.0361531 -0.107073 -0.103325 -0.0517057 -0.0914698 -0.042333 -0.106911 -0.0440006 -0.0250727 -0.0710399 -0.117016 -0.09027 -0.0850997 -0.0255403 -0.0889044 -0.0401722 -0.0685174 -0.104114 -0.0294677 -0.0438005 -0.0668094 -0.0620176 -0.0756807 -0.0662703 -0.057423 -0.15027 -0.115866 -0.120272 -0.135508 -0.109048 -0.0857454 -0.0843579 -0.0946424 -0.0747989 -0.0606951 -0.108139 -0.127689 -0.0861715 -0.0446946 -0.0422292 -0.148798 -0.112965 -0.0370414 -0.0532943 -0.078972 -0.0800681 -0.147446 -0.0549336 -0.103263 -0.150688 -0.148282 -0.104532 -0.0533411 -0.085938 -0.0878045 -0.147983 -0.0622034 -0.0552517 -0.0977254 -0.0977392 -0.15065 -0.0972377 -0.109517 -0.080541 -0.122334 -0.0665112 -0.107161 -0.0545978 -0.0836556 -0.0609933 -0.0674665 -0.059399 -0.0713158 -0.0212789 -0.0769618 -0.105325 -0.101265 -0.0958116 -0.0795254 -0.0382751 -0.0887524 -0.0934792 -0.135526 -0.107965 -0.0906784 -0.115995 -0.0765319 -0.0850948 -0.0127577 -0.0873982 -0.117887 -0.0992899 -0.0870606 -0.0694269 -0.0677567 -0.0872521 -0.107442 -0.0457166 -0.050405 -0.0559666 -0.0664677 -0.10879 -0.0589198 -0.0790073 -0.0995409 -0.152232 -0.147603 -0.151292 -0.143345 -0.150066 -0.0878327 -0.0471161 -0.106029 -0.101649 -0.0758386 -0.0907998 -0.0896965 -0.0574547 -0.0542319 -0.0879281 -0.0599755 -0.0955795 -0.0999565 -0.077475 -0.081829 -0.0360685 -0.0882609 -0.077051 -0.0714865 -0.0323001 -0.038526 -0.0559356 -0.0173408 -0.0814144 -0.0969704 -0.0838691 -0.148444 -0.0907619 -0.0831039 -0.0924933 -0.0679486 -0.0629001 -0.0500166 -0.0770905 -0.0631949 -0.110753 -0.082188 -0.114184 -0.103615 -0.0510132 -0.0589471 -0.151112 -0.057971 -0.0806944 -0.0101572 -0.0920587 -0.0612231 -0.0664841 -0.0789907 -0.0412594 -0.0288387 -0.0722274 -0.101066 -0.111732 -0.0662894 -0.095008 -0.0778409 -0.102905 -0.0706688 -0.0995513 -0.0603184 -0.0749492 -0.0952703 -0.06979 -0.0198636 -0.0823094 -0.0594911 -0.06972 -0.089179 -0.0736925 -0.11343 -0.0293084 -0.0556889 -0.0376141 -0.0420628 -0.0812567 -0.0440212 -0.149272 -0.114329 -0.0741787 -0.0549136 -0.0582299 -0.0367457 -0.0958592 -0.0401612 -0.102251 -0.0962145 -0.0780341 -0.0948632 -0.0516521 -0.0463525 -0.0203846 -0.0526059 -0.0594326 -0.152984 -0.0719619 -0.10992 -0.0962412 -0.0987608 -0.0555256 -0.0894655 -0.0429988 -0.0989666 -0.0949561 -0.0760255 -0.0840721 -0.115812 -0.10298 -0.0684253 -0.0841592 -0.0805266 -0.0656925 -0.0698956 -0.0797695 -0.0868984 -0.0817453 -0.0832809 -0.108355 -0.0909048 -0.121066 -0.106616 -0.0900597 -0.0714778 -0.0176563 -0.096481 -0.149806 -0.0207372 -0.0981638 -0.00750788 -0.112823 -0.112392 -0.107431 -0.0847711 -0.119153 -0.116444 -0.0830884 -0.151789 -0.0620106 -0.0984973 -0.109677 -0.106935 -0.0969545 -0.0808127 -0.118781 -0.0552144 -0.0626627 -0.0706154 -0.101349 -0.0782078 -0.114641 -0.0895762 -0.0218958 -0.0964899 -0.0773548 -0.0805325 -0.0531835 -0.090099 -0.113934 -0.0804766 -0.0291384 -0.0648258 -0.100642 -0.0420738 -0.0409841 -0.0862777 -0.0752964 -0.0488439 -0.0302898 -0.0756134 -0.055924 -0.151028 -0.0792119 -0.11347 -0.0829699 -0.0808175 -0.0589602 -0.0582872 -0.0597125 -0.0760954 -0.105723 -0.0922344 -0.0757984 -0.0668608 -0.0766063 -0.149447 -0.0732015 -0.0619492 -0.0987198 -0.100107 -0.114007 -0.0556889 -0.0739425 -0.0261358 -0.0780657 -0.0554212 -0.088264 -0.0752307 -0.0936007 0.00615505 -0.109524 -0.0326005 -0.0656795 -0.0384265 -0.0899186 -0.0305724 -0.0726048 -0.103626 -0.0187831 -0.0853517 -0.119866 -0.045751 -0.0406478 -0.070254 0.00697966 -0.0684894 -0.0765672 -0.071247 -0.0849036 -0.0961814 -0.108226 -0.0873984 -0.0946491 -0.0710924 -0.0627645 -0.100338 -0.103985 -0.101534 -0.112392 -0.0602471 -0.0514628 -0.0143005 -0.06561 -0.0614435 -0.133015 -0.0520686 -0.12074 -0.0930925 -0.104522 -0.0840031 -0.0831001 -0.0409686 -0.083602 -0.0350165 -0.091899 -0.112004 -0.0997744 -0.0572661 -0.065948 -0.0559159 -0.0310514 -0.0996547 -0.163687 -0.0641862 -0.0270234 -0.129062 -0.104983 -0.0785306 -0.0990621 -0.0759716 -0.0411634 -0.0396332 -0.0997308 -0.105381 -0.100396 -0.0559709 -0.0151344 -0.136462 -0.0957343 -0.0795004 -0.0644647 -0.102095 -0.0605542 -0.0791882 -0.101187 -0.0946977 -0.0251787 -0.0786316 -0.11045 -0.056471 -0.103178 -0.0877455 -0.113818 -0.0414017 -0.0722252 -0.0726293 -0.104959 -0.117677 -0.0824807 -0.150671 -0.0687253 -0.0919274 -0.149149 -0.0721517 -0.077923 -0.0362671 -0.150014 -0.12425 -0.113601 -0.0970462 -0.0729427 -0.151272 -0.147381 -0.0559261 -0.107484 -0.0556516 -0.0699672 -0.0523096 -0.0687054 -0.0958079 -0.0908628 -0.0875493 -0.150583 -0.110335 -0.0527381 -0.0740917 -0.0834931 -0.070242 -0.0956606 -0.0232053 -0.148875 -0.0860519 -0.153417 -0.0965752 -0.150711 -0.150775 -0.0971341 -0.0954768 -0.0772573 -0.110306 -0.101487 -0.0555165 -0.0983239 -0.111681 -0.119551 -0.0571455 -0.100117 -0.00100087 -0.0725841 -0.12828 -0.09865 -0.0932356 -0.0970874 -0.0979968 -0.107614 -0.0901861 -0.0609168 -0.150754 -0.070132 -0.0470516 -0.0773205 -0.119101 -0.0655862 -0.0582959 -0.115504 -0.0977747 -0.1007 -0.0781366 -0.0945628 -0.067784 -0.120368 -0.125888 -0.023953 -0.0818622 -0.118607 -0.0495073 -0.0841179 -0.0965246 -0.0612145 -0.134996 -0.0794544 -0.0693585 -0.0772552 -0.103539 -0.148934 -0.100181 -0.103699 -0.133479 -0.12107 -0.0625137 -0.0923905 -0.122069 -0.149349 -0.0631037 -0.110268 -0.080747 -0.0687358 -0.147273 -0.110165 -0.0958655 -0.0941277 -0.0909458 -0.0228179 -0.091163 -0.149585 -0.123313 -0.0751633 -0.108274 -0.118206 -0.0596965 -0.0309379 -0.0444211 -0.098442 -0.147098 -0.10427 -0.134077 -0.0946592 -0.0531103 -0.0800254 -0.0618976 -0.149913 -0.149825 -0.152188 -0.108465 -0.0788515 -0.0448096 -0.0475305 -0.0643366 -0.044148 -0.0473632 -0.0831389 -0.112113 -0.0584761 -0.107336 -0.0703524 -0.116357 -0.106598 -0.0836245 -0.0865867 -0.0903578 -0.0562819 -0.104155 -0.0494422 -0.0946479 -0.14909 -0.0152618 -0.0495062 -0.0405552 -0.0928802 -0.149414 -0.100693 -0.150396 -0.0735999 -0.0891616 -0.0690713 -0.0913846 -0.0842519 -0.055712 -0.0888023 -0.0580175 -0.0845034 -0.104187 -0.089132 -0.109458 -0.0721152 -0.0970266 -0.111871 -0.0920575 -0.111293 -0.0800179 -0.037949 -0.104646 -0.0520182 -0.0748507 -0.149957 -0.10879 -0.0551834 -0.0378116 -0.0725264 -0.103163 -0.158717 -0.0662626 -0.11289 -0.0657903 -0.0748238 -0.103949 -0.112767 -0.0964912 -0.0745223 -0.0757373 -0.0746045 -0.0864906 -0.0296319 -0.0938698 -0.0694631 -0.111064 -0.0675263 -0.117593 -0.129649 -0.12961 -0.094407 -0.1056 -0.150352 -0.136087 -0.148457 -0.149577 -0.0862762 -0.0653665 -0.111884 -0.136738 -0.134525 -0.131621 -0.0486389 -0.0948903 -0.0891103 -0.0635817 -0.0550621 -0.125599 -0.118326 -0.083246 -0.0788314 -0.105073 -0.0901584 -0.0927257 -0.0620675 -0.0584177 -0.151658 -0.0844839 -0.129709 -0.0274032 -0.149542 -0.0758025 -0.0939646 -0.115632 -0.0989727 -0.082519 -0.102853 -0.0540247 -0.0890246 -0.0737119 -0.0676778 -0.0815804 -0.124731 -0.0471841 -0.0692947 -0.0353682 -0.0705313 -0.1088 -0.0867267 -0.0064931 -0.100826 -0.0913836 -0.069535 -0.150489 -0.0723278 -0.123635 -0.150856 -0.0974982 -0.116962 -0.104184 -0.069366 -0.0773482 -0.150478 -0.0898208 -0.0666176 -0.15492 -0.0569952 -0.147419 -0.0848771 -0.0442276 -0.150275 -0.0806748 -0.132716 -0.0629174 -0.123828 -0.151668 -0.147596 -0.105713 -0.08913 -0.104915 -0.0929244 -0.0476606 -0.102637 -0.0682429 -0.10535 -0.0710293 -0.072406 -0.15132 -0.150337 -0.0399144 -0.0895951 -0.104634 -0.117811 -0.10409 -0.046561 -0.0902462 -0.0828144 -0.0598516 -0.06734 -0.0593319 -0.130997 -0.0380982 -0.061826 -0.0637294 -0.0779926 -0.0964257 -0.0545043 -0.0781617 -0.118771 -0.0549628 -0.0707413 -0.0951472 -0.0995207 -0.0857628 -0.106558 -0.0982895 -0.118968 -0.114 -0.0875025 -0.0603611 -0.0849261 -0.0864688 -0.0850225 -0.101778 -0.145572 -0.0793283 -0.0990368 -0.147709 -0.101686 -0.0678005 -0.0762019 -0.146765 -0.149223 -0.072273 -0.0912641 -0.101904 -0.0821612 -0.106744 -0.107267 -0.101568 -0.148813 -0.0984685 -0.0959372 -0.0852168 -0.134193 -0.041673 -0.0871863 -0.084574 -0.0761169 -0.123239 -0.151605 -0.100527 -0.0972366 -0.105908 -0.0924438 -0.101472 -0.106139 -0.0547168 -0.0636376 -0.0684415 -0.0794267 -0.120517 -0.0962382 -0.0693852 -0.110915 -0.102035 -0.0315476 -0.0856537 -0.0987442 -0.0792271 -0.0402128 -0.119747 -0.0700402 -0.0663713 -0.0793209 -0.0833962 -0.104205 -0.0920222 -0.0805971 -0.150256 -0.0588934 -0.0348081 -0.128605 -0.108796 -0.0572067 -0.0814856 -0.0972897 -0.0780336 -0.0834415 -0.0498905 -0.0835498 -0.0933105 -0.0960252 -0.0422967 -0.0751095 -0.0801804 -0.110071 -0.0477478 -0.060083 -0.088763 -0.108015 -0.0931219 -0.100622 -0.0931686 -0.0317562 -0.0576096 -0.0926276 -0.0921768 -0.051171 -0.0997719 -0.100492 -0.107453 -0.100927 -0.0804188 -0.0783185 -0.103325 -0.12242 -0.0810878 -0.0512912 -0.0613299 -0.0220075 -0.150241 -0.0837168 -0.0674798 -0.100769 -0.0726989 -0.0675755 -0.0948143 -0.0990877 -0.0430166 -0.151072 -0.0891169 -0.095072 -0.150218 -0.029338 -0.083201 -0.106461 -0.0611358 -0.0407729 -0.104752 -0.0807249 -0.0876036 -0.0411165 -0.0933625 -0.116064 -0.0883503 -0.106677 -0.0605882 -0.0522713 -0.106621 -0.15347 -0.0714854 -0.0826759 -0.0688863 -0.0816384 -0.061841 -0.0917025 -0.148331 -0.0916749 -0.10768 -0.0571426 -0.0540249 -0.0944374 -0.101924 -0.0945933 -0.0477433 -0.0887192 -0.0934261 -0.0549097 -0.0781967 -0.074143 -0.079514 -0.098865 -0.107834 -0.0504193 -0.113896 -0.0985393 -0.0702666 -0.0839408 -0.0855024 -0.148913 -0.0982482 -0.0800609 -0.123247 -0.103299 -0.0780813 -0.0429145 -0.107899 -0.0826939 -0.106791 -0.14769 -0.0782094 -0.104423 -0.0782917 -0.0851941 -0.0500321 -0.0772351 -0.109571 -0.0935741 -0.0697528 -0.0512213 -0.0672032 -0.148688 -0.148533 -0.1121 -0.100769 -0.0819733 -0.11557 -0.11839 -0.085478 -0.126777 -0.157731 -0.0868858 -0.0789478 -0.0600823 -0.100017 -0.094144 -0.0678416 -0.0740691 -0.14967 -0.0713368 -0.0705711 -0.150881 -0.112935 -0.0792316 -0.0876968 -0.102131 -0.06975 -0.0409786 -0.114472 -0.11465 -0.0696964 -0.0603962 -0.0964097 -0.108236 -0.150392 -0.103798 -0.125561 -0.0520382 -0.105365 -0.107312 -0.0650448 -0.150416 -0.101237 -0.152269 -0.0750403 -0.0663127 -0.100638 -0.0666573 -0.0653876 -0.0830514 -0.101202 -0.150101 -0.116877 -0.0657834 -0.0525859 -0.105201 -0.0958362 -0.116312 -0.0574788 -0.111176 -0.108681 -0.072974 0.00142635 -0.0798426 -0.0882064 -0.0610973 -0.0912569 -0.0809112 -0.0907231 -0.100189 -0.122877 -0.148829 -0.0911026 -0.0710234 -0.0650772 -0.0947351 -0.0489327 -0.100697 -0.0680597 -0.15049 -0.100821 -0.0586595 -0.148207 -0.0979618 -0.0909111 -0.137658 -0.094735 -0.0975298 -0.0751798 -0.103645 -0.0866953 -0.0424332 -0.113019 -0.0748331 -0.0979544 -0.0943411 -0.0863282 -0.0943412 -0.070309 -0.110425 -0.059236 -0.0502353 -0.085696 -0.0967029 -0.112017 -0.0516599 -0.0839376 -0.0786147 -0.121145 -0.116339 -0.0920301 -0.0937438 -0.0793607 -0.107523 -0.100613 -0.0614087 -0.0982099 -0.149978 -0.0497934 -0.111345 -0.077518 -0.120072 -0.0871367 -0.0994369 -0.108578 -0.114186 -0.148938 -0.0855385 -0.112081 -0.106131 -0.0733357 -0.151065 -0.0450656 -0.0932075 -0.147219 -0.0580503 -0.0883408 -0.0646929 -0.111469 -0.0855195 -0.105151 -0.148546 -0.052843 -0.0516777 -0.0725735 -0.102711 -0.0823751 -0.102878 -0.100353 -0.0467245 -0.115417 -0.02093 -0.0804835 -0.0551133 -0.0354265 -0.063975 -0.0476138 -0.0925156 -0.104619 -0.0572445 -0.0680381 -0.0722946 -0.0901319 -0.118792 -0.0672616 -0.0723708 -0.0614517 -0.0943309 -0.0734148 -0.151426 -0.15133 -0.0898596 -0.0928963 -0.0863082 -0.0871218 -0.0781515 -0.113078 -0.091791 -0.110539 -0.12756 -0.12746 -0.0835157 -0.0786147 -0.104806 -0.0239584 -0.083605 -0.0693407 -0.0452293 -0.0761478 -0.0704923 -0.151582 -0.0996565 -0.112796 -0.0508345 -0.0873037 -0.0931265 -0.123707 -0.149001 -0.15038 -0.0889911 -0.109837 -0.152079 -0.0960569 -0.0832964 -0.150409 -0.124409 -0.0939667 -0.102798 -0.0826152 -0.0721301 -0.0882849 -0.0985435 -0.103196 -0.0251896 -0.0849585 -0.150709 -0.148032 -0.092249 -0.150821 -0.102625 -0.100575 -0.149257 -0.146444 -0.107592 -0.102788 -0.149522 -0.115457 -0.10407 -0.103559 -0.149022 -0.073532 -0.098265 -0.0473458 -0.0957733 -0.10948 -0.104037 -0.0828837 -0.0680461 -0.0650718 -0.149684 -0.0929437 -0.146553 -0.0437072 -0.0606246 -0.04384 -0.0969237 -0.0841565 -0.14855 -0.0851975 -0.0851006 -0.0538974 -0.0812286 -0.0404196 -0.085057 -0.0973853 -0.0930646 -0.0724248 -0.150883 -0.084271 -0.0917583 -0.0607276 -0.147413 -0.149418 -0.104907 -0.0630007 -0.0657317 -0.0914243 -0.0873292 -0.0844346 -0.0975834 -0.0817779 -0.0975745 -0.149653 -0.0415745 -0.102383 -0.0783156 -0.0696326 -0.0443831 -0.0770833 -0.0591329 -0.114205 -0.0621478 -0.0627272 -0.152107 -0.0400484 -0.0301264 -0.0799761 -0.0265711 -0.0968505 -0.055761 -0.0992441 -0.0396518 -0.149325 -0.0994226 -0.0753001 -0.0911373 -0.0879957 -0.109676 -0.149177 -0.0926271 -0.126227 -0.165961 -0.122297 -0.106185 -0.13883 -0.102588 -0.0815691 -0.130292 -0.103756 -0.0824526 -0.151959 -0.148953 -0.147565 -0.0866173 -0.0546926 -0.0725057 -0.124133 -0.101446 -0.101746 -0.076987 -0.148827 -0.122622 -0.122221 -0.059607 -0.0913713 -0.0700416 -0.152381 -0.0735965 -0.150809 -0.0183029 -0.149264 -0.0728458 -0.044548 -0.0650994 -0.147547 -0.0957561 -0.10018 -0.0918244 -0.102306 -0.0985397 -0.0724334 -0.108777 -0.104602 -0.100834 -0.0478537 -0.149107 -0.0982478 -0.0960263 -0.116996 -0.0890201 -0.151529 -0.0655067 -0.0859053 -0.117895 -0.0760085 -0.0989251 -0.102159 -0.108486 -0.0983542 -0.0636239 -0.113669 -0.0867736 -0.150896 -0.153272 -0.115359 -0.117117 -0.140967 -0.0854239 -0.0910622 -0.0793339 -0.099376 -0.149653 -0.151489 -0.0265636 -0.0989352 -0.0508707 -0.0865525 -0.147812 -0.07637 -0.0823372 -0.0681126 -0.0525233 -0.0996253 -0.0829412 -0.0944295 -0.0952083 -0.151169 -0.109912 -0.0820466 -0.085465 -0.097754 -0.105539 -0.112194 -0.0908781 -0.100782 -0.112908 -0.0900035 -0.113029 -0.10444 -0.0858247 -0.0961469 -0.082881 -0.0535248 -0.0367241 -0.12316 -0.0385906 -0.0906047 -0.138604 -0.0460745 -0.149028 -0.150665 -0.0819639 -0.0831386 -0.150982 -0.149741 -0.101528 -0.114935 -0.104797 -0.0216893 -0.146819 -0.0528752 -0.118095 -0.017258 -0.148075 -0.100417 -0.101701 -0.0971742 -0.106335 -0.103508 -0.0705151 -0.0350646 -0.120215 -0.0832454 -0.0852656 -0.0984394 -0.0720035 -0.0910252 -0.105988 -0.15029 -0.148086 -0.149949 -0.0930388 -0.0956331 -0.0977584 -0.0907839 -0.0991877 -0.122895 -0.151737 -0.151609 -0.0782378 -0.0767642 -0.0916363 -0.153221 -0.149718 -0.100311 -0.150748 -0.0773519 -0.120243 -0.0928378 -0.10208 -0.0773767 -0.116041 -0.110287 -0.124757 -0.0903005 -0.0314342 -0.086678 -0.0853093 -0.065724 -0.150747 -0.0992357 -0.149293 -0.0455418 -0.147618 -0.0838217 -0.0665197 -0.106408 -0.0539448 -0.0534915 -0.062487 -0.0797815 -0.0748487 -0.0575393 -0.00657593 -0.0711645 -0.0769377 -0.148986 -0.148284 -0.0768914 -0.106111 -0.0931964 -0.0808088 -0.150337 -0.15015 -0.0241072 -0.150717 -0.0832295 -0.0878538 -0.0859765 -0.0941766 -0.108463 -0.151999 -0.0584225 -0.0544167 -0.0691668 -0.0780827 -0.149753 -0.150385 -0.148502 -0.10793 -0.0868563 -0.0487921 -0.0937458 -0.0957622 -0.0939393 -0.109991 -0.123102 -0.108218 -0.0592756 -0.035465 -0.0816189 -0.0979981 -0.0834622 -0.11601 -0.084325 -0.0597946 -0.0506937 -0.0731729 -0.0874763 -0.0531296 -0.0514284 -0.0636477 -0.086176 -0.105287 -0.0716818 -0.096985 -0.0771771 -0.0790439 -0.106642 -0.0815518 -0.0945153 -0.106324 -0.102461 -0.151876 -0.099841 -0.0700255 -0.149636 -0.152045 -0.0502538 -0.0986641 -0.110864 -0.110468 -0.0824561 -0.0264255 -0.0862054 -0.107661 -0.109784 -0.122099 -0.0689414 -0.0845096 -0.152667 -0.10136 -0.0990982 -0.076117 -0.0826496 -0.0991027 -0.089677 -0.0852949 -0.111498 -0.0600302 -0.0657639 -0.0985175 -0.09263 -0.107731 -0.1238 -0.0543606 -0.0703526 -0.0849004 -0.120431 -0.115771 -0.0669547 -0.063973 -0.0977895 -0.095032 -0.0965544 -0.146742 -0.10873 -0.11464 -0.0417887 -0.0505895 -0.0507891 -0.150447 -0.0832695 -0.151629 -0.100486 -0.0723562 -0.0448268 -0.0720562 -0.042496 -0.081832 -0.0633014 -0.149038 -0.0751878 -0.0785877 -0.0353937 -0.0860711 -0.0618912 -0.0799548 -0.150022 -0.0551456 -0.0804322 -0.0843531 -0.087431 -0.155387 -0.107987 -0.0836337 -0.106758 -0.0912642 -0.142724 -0.148012 -0.150352 -0.0905777 -0.0738942 -0.110746 -0.0671893 -0.10759 -0.0443874 -0.120198 -0.0621103 -0.0853316 -0.0411077 -0.0366023 -0.0730486 -0.0508782 -0.0977688 -0.149813 -0.0753788 -0.0961916 -0.099574 -0.148201 -0.0789128 -0.0975101 -0.115152 -0.0916807 -0.0931308 -0.138698 -0.136759 -0.109079 -0.114824 -0.117532 -0.108926 -0.0333304 -0.0914486 -0.152345 -0.0925162 -0.118321 -0.1066 -0.0852526 -0.0408553 -0.151851 -0.0828271 -0.102101 -0.0626637 -0.108905 -0.0734218 -0.102806 -0.047266 -0.138299 -0.0507902 -0.151924 -0.0928475 -0.06442 -0.0698234 -0.149244 -0.095939 -0.108997 -0.0851324 -0.0251794 -0.0788398 -0.0951329 -0.042974 -0.0869495 -0.147363 -0.00802212 -0.0925094 -0.0756742 -0.0807659 -0.140969 -0.149495 -0.108791 -0.0866377 -0.150784 -0.112507 -0.114373 -0.0793864 -0.105864 -0.100201 -0.100121 -0.0797395 -0.107437 -0.0972279 -0.0555878 -0.0983713 -0.0783437 -0.148286 -0.120761 -0.148679 -0.116736 -0.151255 -0.0881998 -0.0646852 -0.0415766 -0.112613 -0.114099 -0.117324 -0.0851176 -0.0724372 -0.0648222 -0.141688 -0.0986097 -0.0206443 -0.0914839 -0.0302562 -0.0967966 -0.0500624 -0.132864 -0.105499 -0.150332 -0.0923647 -0.112128 -0.105692 -0.0868832 -0.0808492 -0.108839 -0.151162 -0.0627826 -0.0373458 -0.0743799 -0.0665016 -0.0951236 -0.0513175 -0.0835896 -0.147564 -0.0654856 -0.0706653 -0.142453 -0.0719524 -0.151376 -0.0696741 -0.0888593 -0.148857 -0.0926203 -0.0475081 -0.0988206 -0.0855504 -0.0907315 -0.120002 -0.0621912 -0.148791 -0.152639 -0.0621043 -0.10201 -0.0795963 -0.151891 -0.131971 -0.0975484 -0.109617 -0.115864 -0.0984845 -0.063951 -0.0974683 -0.110051 -0.0705887 -0.084209 -0.0912396 -0.12195 -0.0507691 -0.151474 -0.0946302 -0.0776477 -0.1119 -0.0825882 -0.152356 -0.0696987 -0.0996261 -0.0741683 -0.0987248 -0.101303 -0.149177 -0.0536886 -0.102531 -0.110612 -0.0991528 -0.0446117 -0.118336 -0.104184 -0.0612535 -0.0588217 -0.14789 -0.148316 -0.133302 -0.088452 -0.0710822 -0.150051 -0.117087 -0.105947 -0.102337 -0.0881132 -0.0994397 -0.107592 -0.0675438 -0.0802621 -0.15195 -0.0803209 -0.14663 -0.150914 -0.103744 -0.118568 -0.118877 -0.116628 -0.14746 -0.0969842 -0.0931394 -0.0807015 -0.0443491 -0.0698615 -0.0959662 -0.151515 -0.0490437 -0.150772 -0.0788152 -0.0736371 -0.09751 -0.0338175 -0.0691039 -0.0618711 -0.0734565 -0.0953488 -0.109723 -0.119224 -0.148747 -0.122269 -0.0938552 -0.095019 -0.106626 -0.0829326 -0.111051 -0.0554488 -0.0636618 -0.108546 -0.0956109 -0.105886 -0.0993051 -0.0801463 -0.150625 -0.145598 -0.0929513 -0.0871398 -0.110558 -0.071083 -0.0977869 -0.103598 -0.0467743 -0.149363 -0.150213 -0.15015 -0.150115 -0.0899577 -0.130231 -0.105682 -0.100144 -0.068499 -0.105618 -0.125657 -0.116588 -0.0365619 -0.0993833 -0.0932097 -0.0578201 -0.119735 -0.0628318 -0.10557 -0.0919781 -0.0751799 -0.0654348 -0.0596498 -0.102106 -0.0874281 -0.0914789 -0.0683568 -0.0477815 -0.149145 -0.108172 -0.0985024 -0.105121 -0.0752188 -0.116271 -0.0629944 -0.0949026 -0.100383 -0.104153 -0.100127 -0.101336 -0.0723683 -0.0846086 -0.0434802 -0.103671 -0.150602 -0.0977571 -0.0886272 -0.102554 -0.0757978 -0.0694542 -0.105028 -0.111186 -0.130353 -0.0900027 -0.0911797 -0.148358 -0.0798763 -0.148271 -0.0775498 -0.148008 -0.114969 -0.0704036 -0.0829061 -0.120477 -0.0819948 -0.0604601 -0.0806697 -0.0757029 -0.0890983 -0.119908 -0.0970777 -0.0693242 -0.0406629 -0.0650211 -0.15131 -0.149218 -0.119177 -0.0781096 -0.10065 -0.0908344 -0.100338 -0.061565 -0.0897033 -0.0926037 -0.0360991 -0.0553574 -0.110164 -0.0999599 -0.146949 -0.112216 -0.144074 -0.149312 -0.126276 -0.00521464 -0.083717 -0.0871751 -0.0974576 -0.0798116 -0.0866017 -0.0945205 -0.0879579 -0.0756742 -0.107628 -0.111493 -0.0993227 -0.114179 -0.0960069 -0.148318 -0.0706902 -0.0942284 -0.0919844 -0.0822672 -0.0841368 -0.120047 -0.110228 -0.0806597 -0.149212 -0.073108 -0.0697544 -0.119736 -0.104396 -0.0598707 -0.0724615 -0.102276 -0.0730116 -0.150957 -0.0790496 -0.0823967 -0.135008 -0.121124 -0.0910496 -0.10405 -0.150981 -0.109564 -0.0755406 -0.100293 -0.088053 -0.0966614 -0.0900445 -0.0380757 -0.110713 -0.047924 -0.0984263 -0.0871668 -0.0797661 -0.0989988 -0.0368878 -0.0934427 -0.071907 -0.0966201 -0.0970949 -0.0886325 -0.149305 -0.146683 -0.091704 -0.0751708 -0.102493 -0.0868001 -0.108404 -0.119853 -0.121219 -0.0474149 -0.0260381 -0.0499085 -0.121719 -0.0980341 -0.0236878 -0.0907869 -0.068588 -0.0462615 -0.113995 -0.150072 -0.0925928 -0.0989009 -0.0983719 -0.130565 -0.133182 -0.0901207 -0.151688 -0.151315 -0.10189 -0.069107 -0.0752852 -0.147076 -0.151089 -0.0804753 -0.105322 -0.0713428 -0.100388 -0.130376 -0.108153 -0.0511205 -0.0554369 -0.0312735 -0.108844 -0.104381 -0.0848436 -0.0879174 -0.0817708 -0.151044 -0.10912 -0.166274 -0.156394 -0.118584 -0.142831 -0.148816 -0.0954477 -0.099044 -0.147749 -0.0653465 -0.0667551 -0.0763957 -0.0936143 -0.0868885 -0.114784 -0.0887369 -0.0709254 -0.15011 -0.0944311 -0.100214 -0.15059 -0.150103 -0.0593591 -0.0664846 -0.0945271 -0.148328 -0.109617 -0.149603 -0.0908481 -0.150656 -0.150357 -0.147557 -0.149428 -0.082433 -0.10839 -0.0447427 -0.150469 -0.146369 -0.147095 -0.151519 -0.149008 -0.0921388 -0.0480513 -0.11212 -0.0942789 -0.107495 -0.081821 -0.0893076 -0.0983935 -0.084451 -0.0904699 -0.100901 -0.0518824 -0.0903153 -0.0803059 -0.0663485 -0.146723 -0.0895785 -0.113275 -0.114162 -0.124632 -0.087016 -0.147898 -0.150045 -0.0708003 -0.0959999 -0.0974932 -0.0985011 -0.11215 -0.0982181 -0.0804467 -0.125241 -0.0974893 -0.15208 -0.0906059 -0.0947804 -0.090544 -0.0979147 -0.0819701 -0.150949 -0.103331 -0.0772113 -0.0987019 -0.100834 -0.0994789 -0.117804 -0.14991 -0.151141 -0.0225282 -0.0883075 -0.0468825 -0.0882459 -0.0698475 -0.0606633 -0.0505896 -0.111282 -0.151265 -0.148072 -0.102191 -0.0969186 -0.108473 -0.0979191 -0.103185 -0.0901658 -0.14948 -0.0912523 -0.152358 -0.149581 -0.103585 -0.150793 -0.0854154 -0.104547 -0.0976984 -0.106512 -0.0646055 -0.100869 -0.151776 -0.149721 -0.0609106 -0.105371 -0.092989 -0.0837634 -0.151482 -0.151077 -0.148229 -0.109369 -0.150992 -0.0956361 -0.116918 -0.108942 -0.101527 -0.0960954 -0.0904834 -0.0737694 -0.0934264 -0.0651326 -0.0503852 -0.150999 -0.0688067 -0.102919 -0.0849727 -0.107437 -0.0678105 -0.0970185 -0.128282 -0.0902491 -0.0967494 -0.09067 -0.150741 -0.0331668 -0.0895626 -0.104107 -0.151566 -0.0960628 -0.15044 -0.109833 -0.11295 -0.101097 -0.131466 -0.126808 -0.148801 -0.147677 -0.109102 -0.0997963 -0.150462 -0.101997 -0.0139062 -0.0830209 -0.0912776 -0.127385 -0.0868812 -0.0761848 -0.0908322 -0.0606444 -0.102929 -0.0478696 -0.148053 -0.145632 -0.149819 -0.0945285 -0.151501 -0.148999 -0.123321 -0.152212 -0.122995 -0.149733 -0.105742 -0.105139 -0.0493621 -0.055103 -0.0985967 -0.129553 -0.0960247 -0.13262 -0.149426 -0.101384 -0.0777051 -0.0992841 -0.0779109 -0.149865 -0.0715152 -0.0889308 -0.103978 -0.0503859 -0.112918 -0.114199 -0.0781205 -0.0911173 -0.079015 -0.0767047 -0.0648726 -0.0745838 -0.0955975 -0.0995301 -0.0936862 -0.150491 -0.0987695 -0.11161 -0.112919 -0.149812 -0.149769 -0.149395 -0.112552 -0.129811 -0.121875 -0.0698281 -0.110238 -0.150379 -0.147559 -0.092684 -0.0887115 -0.100493 -0.118241 -0.0908709 -0.108376 -0.0745123 -0.0964571 -0.0772556 -0.0867324 -0.0727368 -0.129871 -0.150454 -0.148031 -0.113915 -0.0590389 -0.151236 -0.0920171 -0.150514 -0.0861602 -0.0432591 -0.0966402 -0.063095 -0.0756131 -0.149954 -0.149431 -0.097862 -0.074126 -0.0805847 -0.0923084 -0.0624857 -0.150296 -0.0999945 -0.0650556 -0.150356 -0.107002 -0.0652097 -0.10065 -0.0792505 -0.0989884 -0.0750471 -0.108353 -0.109507 -0.0945904 -0.151227 -0.105264 -0.11163 -0.0778626 -0.0890166 -0.0885289 -0.111147 -0.0935403 -0.0615826 -0.0999204 -0.111202 -0.0837709 -0.0493811 -0.0962381 -0.086943 -0.150217 -0.0922486 -0.146602 -0.149818 -0.10733 -0.103928 -0.0478651 -0.070164 -0.150266 -0.148026 -0.110496 -0.0881745 -0.0993537 -0.0665831 -0.1508 -0.109722 -0.0834118 -0.150535 -0.0934305 -0.151748 -0.108654 -0.116769 -0.0821327 -0.0987937 -0.112855 -0.0777144 -0.10425 -0.151061 -0.0966012 -0.111367 -0.106007 -0.150346 -0.054341 -0.109665 -0.101084 -0.121879 -0.12061 -0.115641 -0.0834868 -0.0438242 -0.081999 -0.0579319 -0.0711635 -0.0452627 -0.095538 -0.103583 -0.151197 -0.104806 -0.104263 -0.15175 -0.0961283 -0.0912645 -0.149492 -0.0851799 -0.0803164 -0.148091 -0.13721 -0.0991956 -0.113372 -0.115041 -0.115706 -0.102358 -0.112104 -0.149294 -0.148254 -0.0858879 -0.0980982 -0.0623468 -0.151031 -0.105819 -0.149151 -0.0772325 -0.0997676 -0.0962413 -0.105713 -0.0979767 -0.0930771 -0.0977335 -0.072765 -0.15068 -0.0554927 -0.0993979 0.0183988 -0.148059 -0.0575937 -0.0780731 -0.0598802 -0.0650458 -0.126292 -0.101096 -0.0762775 -0.14978 -0.151282 -0.0907349 -0.0948889 -0.0477315 -0.0597273 -0.148054 -0.0665839 -0.0965136 -0.0491796 -0.152214 -0.147993 -0.0978756 -0.10491 -0.0915231 -0.11153 -0.0823596 -0.100687 -0.0802282 -0.148551 -0.0967312 -0.121507 -0.105042 -0.135911 -0.115352 -0.0784076 -0.0852231 -0.106233 -0.0968269 -0.149697 -0.150465 -0.149901 -0.151511 -0.151345 -0.149653 -0.149262 -0.151068 -0.150684 -0.130286 -0.0884326 -0.101288 -0.0917883 -0.0550362 -0.0747424 -0.152445 -0.102945 -0.103454 -0.07464 -0.0894449 -0.0459499 -0.0576889 -0.0966767 -0.149971 -0.149917 -0.0722593 -0.0981735 -0.113251 -0.0829723 -0.0768052 -0.0831887 -0.0903922 -0.0975848 -0.115558 -0.112619 -0.0858753 -0.085968 -0.069679 -0.0634666 -0.103432 -0.149927 -0.118062 -0.101415 -0.116459 -0.0769228 -0.149035 -0.119322 -0.0768118 -0.083497 -0.0757737 -0.151896 -0.0989163 -0.147524 -0.105854 -0.0896505 -0.149174 -0.0769035 -0.151673 -0.0984034 -0.131309 -0.0472302 -0.107661 -0.0737765 -0.107453 -0.150592 -0.100171 -0.112325 -0.0971429 -0.113056 -0.0777978 -0.123704 -0.14282 -0.0947717 -0.112893 -0.149485 -0.151211 -0.115798 -0.150885 -0.0966283 -0.152124 -0.101993 -0.110078 -0.105082 -0.113568 -0.106526 -0.0537004 -0.0709728 -0.0886767 -0.149236 -0.106084 -0.149036 -0.150347 -0.0985117 -0.148501 -0.0741731 -0.150414 -0.0932475 -0.101953 -0.10527 -0.0931083 -0.152563 -0.150885 -0.151718 -0.126136 -0.149849 -0.0860338 -0.0971079 -0.0818758 -0.149616 -0.148343 -0.0974647 -0.0803777 -0.103756 -0.149877 -0.149813 -0.102179 -0.0543337 -0.0847234 -0.0843995 -0.152784 -0.0971603 -0.112759 -0.149302 -0.0637134 -0.101329 -0.105699 -0.148263 -0.150394 -0.150686 -0.0702843 -0.106572 -0.0614066 -0.101869 -0.100826 -0.0931169 -0.0659194 -0.108831 -0.0948493 -0.148088 -0.101938 -0.1514 -0.151582 -0.106279 -0.0885032 -0.0588777 -0.0925692 -0.0909151 -0.119198 -0.105898 -0.102102 -0.149343 -0.150187 -0.0973004 -0.105821 -0.0852468 -0.0890167 -0.138492 -0.149519 -0.10855 -0.0836923 -0.148335 -0.116858 -0.100014 -0.151701 -0.0991485 -0.123499 -0.12587 -0.112134 -0.0975005 -0.0886109 -0.022106 -0.111471 -0.113897 -0.0508618 -0.091623 -0.0376071 -0.10772 -0.105754 -0.0912086 -0.0666841 -0.148987 -0.109542 -0.0775279 -0.103021 -0.109498 -0.0972739 -0.102041 -0.107632 -0.0894703 -0.0689038 -0.0970407 -0.0922727 -0.0883067 -0.0817374 -0.0790915 -0.188806 -0.150293 -0.0640654 -0.107125 -0.111219 -0.0906295 -0.0488795 -0.0437765 -0.0940606 -0.0860978 -0.0658774 -0.0884748 -0.149788 -0.0715182 -0.0816171 -0.150773 -0.0838417 -0.0689623 -0.0601318 -0.0925689 -0.104872 -0.0779062 -0.150359 -0.110797 -0.119455 -0.100643 -0.0950682 -0.11017 -0.139178 -0.0951598 -0.0840641 -0.150704 -0.0639773 -0.151251 -0.0860689 -0.118561 -0.0911358 -0.0763707 -0.0862244 -0.098825 -0.099069 -0.14822 -0.0886467 -0.0967213 -0.150056 -0.107281 -0.126998 -0.149694 -0.067291 -0.0843115 -0.086636 -0.0727786 -0.0915885 -0.0992882 -0.0961721 -0.149665 -0.148468 -0.111371 -0.150612 -0.0912508 -0.149381 -0.15113 -0.0791201 -0.151197 -0.118956 -0.107064 -0.118977 -0.117135 -0.11811 -0.143423 -0.122207 -0.0516315 -0.0860477 -0.107156 -0.10476 -0.0967112 -0.150277 -0.097229 -0.0962385 -0.104044 -0.0871891 -0.150956 -0.148969 -0.10633 -0.0874312 -0.0992648 -0.097588 -0.0865198 -0.0898226 -0.0787158 -0.098873 -0.0829367 -0.123454 -0.151444 -0.110156 -0.0854072 -0.089282 -0.0872139 -0.0720885 -0.095696 -0.10975 -0.0581175 -0.148935 -0.0954925 -0.101004 -0.0982932 -0.151893 -0.0964498 -0.151165 -0.0985825 -0.109958 -0.0850887 -0.0960143 -0.104497 -0.108218 -0.0788811 -0.0811283 -0.0543083 -0.072388 -0.0975494 -0.0931321 -0.150528 -0.0853059 -0.0907068 -0.088731 -0.126666 -0.10491 -0.0982197 -0.0727425 -0.0765415 -0.0611336 -0.0816811 -0.0643675 -0.0489935 -0.110132 -0.101468 -0.0864144 -0.0870646 -0.123763 -0.0932251 -0.124786 -0.1495 -0.150908 -0.150266 -0.152155 -0.0950942 -0.117087 -0.119494 -0.113848 -0.0965828 -0.147917 -0.0946153 -0.13525 -0.149558 -0.100925 -0.101279 -0.0901068 -0.0979519 -0.117006 -0.0906527 -0.0987227 -0.108418 -0.096996 -0.0943887 -0.110525 -0.104946 -0.150025 -0.149203 -0.102816 -0.0970114 -0.0809264 -0.106338 -0.150101 -0.0913022 -0.0832669 -0.0921571 -0.15273 -0.0954644 -0.0948002 -0.153468 -0.147128 -0.0595684 -0.063627 -0.150449 -0.0899812 -0.0830039 -0.0635549 -0.083514 -0.0783667 -0.0996536 -0.0974732 -0.102811 -0.111725 -0.14996 -0.148942 -0.103416 -0.112663 -0.0943708 -0.104368 -0.0761166 -0.12307 -0.145812 -0.120305 -0.0940316 -0.152942 -0.148035 -0.0519628 -0.0678485 -0.153726 -0.10062 -0.105342 -0.111991 -0.0657432 -0.148816 -0.150204 -0.0914229 -0.089718 -0.0965475 -0.0920813 -0.0542621 -0.0648164 -0.130979 -0.0937584 -0.11302 -0.0743437 -0.0635666 -0.100227 -0.0670012 -0.0726026 -0.117444 -0.0886069 -0.107137 -0.0956673 -0.0622747 -0.0991337 -0.103558 -0.14942 -0.123956 -0.109524 -0.14999 -0.0807481 -0.147961 -0.0742799 -0.0846222 -0.148968 -0.148573 -0.0923278 -0.15095 -0.0887141 -0.0879829 -0.104885 -0.149006 -0.104465 -0.0941398 -0.142966 -0.150754 -0.125756 -0.150283 -0.109696 -0.0896464 -0.101796 -0.105444 -0.148187 -0.131713 -0.0860807 -0.0883271 -0.149741 -0.152897 -0.0956785 -0.151202 -0.110107 -0.09889 -0.148789 -0.0638229 -0.146467 -0.104259 -0.145165 -0.149978 -0.150425 -0.148646 -0.129415 -0.114435 -0.0889259 -0.0974337 -0.076338 -0.0672438 -0.0976017 -0.0929046 -0.146688 -0.110471 -0.1019 -0.0948185 -0.0852682 -0.150863 -0.0900059 -0.102274 -0.121235 -0.10923 -0.102819 -0.12548 -0.0480655 -0.107129 -0.100255 -0.074401 -0.0780245 -0.0956916 -0.142556 -0.125668 -0.147068 -0.118629 -0.0977675 -0.149677 -0.116837 -0.0901696 -0.102736 -0.104209 -0.091536 -0.104407 -0.0877818 -0.148062 -0.15026 -0.0638769 -0.148476 -0.069972 -0.150191 -0.113268 -0.152641 -0.153088 -0.149148 -0.106725 -0.109276 -0.0941041 -0.0934763 -0.0504428 -0.0966838 -0.0412706 -0.081559 -0.0844644 -0.107277 -0.105408 -0.104121 -0.148191 -0.0962532 -0.112977 -0.0689628 -0.0856801 -0.108998 -0.112254 -0.0877192 -0.148681 -0.133911 -0.101513 -0.0932825 -0.0710957 -0.147734 -0.0943754 -0.101781 -0.113595 -0.148961 -0.116001 -0.107803 -0.0746521 -0.122747 -0.0714413 -0.0978286 -0.0967778 -0.0955827 -0.129442 -0.0516946 -0.109801 -0.111558 -0.147465 -0.14827 -0.0781481 -0.102075 -0.101277 -0.149928 -0.149405 -0.0925005 -0.131302 -0.0898294 -0.0893123 -0.15038 -0.149599 -0.0925889 -0.0986807 -0.107378 -0.08295 -0.0903949 -0.0652636 -0.0617779 -0.101656 -0.117077 -0.152417 -0.148524 -0.0928102 -0.102039 -0.0963689 -0.0573372 -0.0847792 -0.0579442 -0.114596 -0.105421 -0.10431 -0.091738 -0.111891 -0.14908 -0.150966 -0.0885717 -0.142936 -0.108267 -0.11409 -0.110057 -0.068834 -0.0590392 -0.0732607 -0.0811325 -0.149304 -0.0610747 -0.150773 -0.150488 -0.118333 -0.151032 -0.095875 -0.110327 -0.106529 -0.0843443 -0.0827404 -0.0642337 -0.10818 -0.14979 -0.105826 -0.149633 -0.10688 -0.0959806 -0.150323 -0.107046 -0.104337 -0.115066 -0.0932146 -0.0872997 -0.105618 -0.14992 -0.149462 -0.115213 -0.0829042 -0.113724 -0.106164 -0.101807 -0.190848 -0.108725 -0.101225 -0.0889619 -0.0914169 -0.149872 -0.0909177 -0.106244 -0.150787 -0.149737 -0.0890307 -0.152655 -0.0737817 -0.150772 -0.149122 -0.149665 -0.106502 -0.0963135 -0.0945815 -0.0792724 -0.0803741 -0.0740421 -0.112757 -0.108838 -0.118084 -0.0120896 -0.150067 -0.0825856 -0.0955034 -0.116804 -0.0919167 -0.0875646 -0.0865139 -0.0928685 -0.150836 -0.111194 -0.100315 -0.10224 -0.0981271 -0.102486 -0.113896 -0.128494 -0.0774099 -0.100314 -0.0582722 -0.106038 -0.115146 -0.0903042 -0.0905589 -0.107172 -0.149967 -0.148251 -0.116103 -0.109682 -0.113157 -0.149169 -0.0918073 -0.0441404 -0.078648 -0.122476 -0.0881386 -0.0878558 -0.115259 -0.151292 -0.0604697 -0.149646 -0.0985359 -0.074959 -0.151023 -0.150455 -0.149991 -0.120011 -0.111451 -0.0805485 -0.0406114 -0.112407 -0.111409 -0.0870217 -0.074454 -0.126312 -0.103784 -0.0969452 -0.10321 -0.0939637 -0.104453 -0.133601 -0.150694 -0.11214 -0.0863157 -0.0960227 -0.0991948 -0.093049 -0.106634 -0.10027 -0.0684311 -0.150257 -0.0862856 -0.148804 -0.115443 -0.102427 -0.0921011 -0.124213 -0.0653735 -0.151672 -0.0389862 -0.0896949 -0.103491 -0.150429 -0.102461 -0.147258 -0.0896505 -0.109921 -0.10406 -0.110129 -0.0470507 -0.095161 -0.11137 -0.150599 -0.0754666 -0.149181 -0.105041 -0.150169 -0.0954696 -0.0451484 -0.147412 -0.151317 -0.0913561 -0.150887 -0.149107 -0.147436 -0.0992789 -0.0849395 -0.146624 -0.106227 -0.0800839 -0.101274 -0.103904 -0.0957059 -0.150402 -0.150563 -0.109733 -0.0640795 -0.102441 -0.0729915 -0.127327 -0.0964623 -0.0862555 -0.0689407 -0.0794289 -0.103761 -0.0975421 -0.0556859 -0.107575 -0.086837 -0.148221 -0.0839859 -0.134325 -0.149735 -0.0977504 -0.105195 -0.102062 -0.115965 -0.106321 -0.0973055 -0.100307 -0.0539628 -0.0920168 -0.0647238 -0.147456 -0.0647621 -0.0700878 -0.090774 -0.110462 -0.149881 -0.149906 -0.100381 -0.112856 -0.0869201 -0.125445 -0.0846379 -0.110049 -0.0879187 -0.0826077 -0.0508792 -0.0954898 -0.029315 -0.10324 -0.0854452 -0.118582 -0.148878 -0.147184 -0.112467 -0.0974785 -0.0822063 -0.0736335 -0.0802263 -0.101223 -0.0795331 -0.082246 -0.08786 -0.148278 -0.098243 -0.089861 -0.0992708 -0.087341 -0.150327 -0.150248 -0.106977 -0.0947445 -0.0632731 -0.15033 -0.0887589 -0.0888507 -0.0965632 -0.149572 -0.0968232 -0.0480634 -0.104508 -0.128413 -0.0857044 -0.109212 -0.0898798 -0.153124 -0.0996246 -0.150364 -0.0321367 -0.0668615 -0.114367 -0.0917022 -0.0888814 -0.095737 -0.0914637 -0.14967 -0.119945 -0.149208 -0.0872019 -0.101332 -0.0761568 -0.0713284 -0.0999875 -0.0775291 -0.151025 -0.105799 -0.118476 -0.14808 -0.10429 -0.0980322 -0.112979 -0.146355 -0.0899224 -0.0826368 -0.0900591 -0.0993935 -0.151367 -0.0995706 -0.14911 -0.0827587 -0.146922 -0.149348 -0.151847 -0.0955046 -0.120196 -0.120506 -0.151345 -0.105441 -0.120921 -0.155666 -0.148474 -0.150504 -0.107922 -0.0988663 -0.0902128 -0.0966826 -0.0850644 -0.110022 -0.128953 -0.148 -0.0710391 -0.14982 -0.0625616 -0.0661648 -0.148247 -0.0869917 -0.111943 -0.0947036 -0.148484 -0.108371 -0.0901774 -0.067893 -0.102036 -0.0867489 -0.149564 -0.150409 -0.149479 -0.150599 -0.0847386 -0.117476 -0.134505 -0.101154 -0.0948144 -0.0912424 -0.0965211 -0.0998973 -0.100652 -0.150381 -0.120154 -0.10923 -0.14878 -0.147687 -0.100314 -0.152158 -0.149949 -0.151846 -0.0966837 -0.119751 -0.150464 -0.0977752 -0.149118 -0.152748 -0.0852813 -0.149969 -0.150607 -0.113071 -0.148902 -0.148883 -0.0778567 -0.0675995 -0.105301 -0.0576966 -0.126176 -0.111031 -0.111606 -0.0780141 -0.150884 -0.149583 -0.0951312 -0.0912662 -0.0951426 -0.0965317 -0.151229 -0.0980943 -0.150846 -0.150757 -0.149563 -0.0975007 -0.0863328 -0.151286 -0.149047 -0.148281 -0.150874 -0.124035 -0.119785 -0.0995301 -0.099719 -0.0708596 -0.109042 -0.0841006 -0.090696 -0.0935099 -0.099225 -0.0842619 -0.107248 -0.0932069 -0.0932336 -0.0926521 -0.070596 -0.0805068 -0.152392 -0.0762084 -0.0968937 -0.149711 -0.103304 -0.105651 -0.0690006 -0.14991 -0.145761 -0.0934926 -0.119386 -0.150721 -0.0750024 -0.092273 -0.150511 -0.15034 -0.122661 -0.105801 -0.097803 -0.104805 -0.11263 -0.111427 -0.110901 -0.139826 -0.11095 -0.104773 -0.103039 -0.0931072 -0.0980571 -0.0934196 -0.150807 -0.148191 -0.150017 -0.132956 -0.112083 -0.109607 -0.151247 -0.104435 -0.0814748 -0.150658 -0.102363 -0.0788351 -0.1516 -0.104195 -0.0655662 -0.149069 -0.0940431 -0.15062 -0.106121 -0.150934 -0.116399 -0.115438 -0.149874 -0.14672 -0.149059 -0.148921 -0.14941 -0.0990835 -0.0965208 -0.120703 -0.093257 -0.104635 -0.101125 -0.15055 -0.0950581 -0.150758 -0.0957726 -0.0919835 -0.0778067 -0.0607618 -0.0908438 -0.0958249 -0.147656 -0.150086 -0.149518 -0.0795525 -0.151342 -0.0927931 -0.148855 -0.148861 -0.154074 -0.15024 -0.148824 -0.153328 -0.090287 -0.149371 -0.0879231 -0.11128 -0.150216 -0.0197517 -0.147794 -0.0827329 -0.090516 -0.150649 -0.0965248 -0.148985 -0.113202 -0.150609 -0.0944789 -0.0741144 -0.149013 -0.152624 -0.0837229 -0.0920816 -0.103064 -0.0762248 -0.0934831 -0.0701291 -0.148783 -0.12362 -0.150228 -0.135626 -0.108994 -0.141956 -0.102879 -0.115654 -0.148492 -0.148896 -0.147633 -0.100505 -0.148104 -0.150104 -0.0863335 -0.102636 -0.0972684 -0.150094 -0.0967219 -0.0863138 -0.0900994 -0.103913 -0.090896 -0.150499 -0.151208 -0.148887 -0.149564 -0.150233 -0.126351 -0.105671 -0.105447 -0.111344 -0.128509 -0.150211 -0.0965272 -0.108945 -0.0750508 -0.0987844 -0.149929 -0.149066 -0.0932183 -0.140471 -0.108004 -0.10104 -0.0848525 -0.0836786 -0.151323 -0.0920249 -0.113566 -0.100024 -0.0904715 -0.0964812 -0.0571737 -0.148233 -0.111414 -0.0980899 -0.148741 -0.150393 -0.0926506 -0.104447 -0.0974305 -0.149118 -0.0516265 -0.0735575 -0.152174 -0.152052 -0.148314 -0.149373 -0.115223 -0.0724626 -0.108197 -0.149774 -0.152393 -0.0993818 -0.115455 -0.115118 -0.111911 -0.0845305 -0.127632 -0.0788125 -0.123253 -0.150543 -0.148815 -0.0962685 -0.15062 -0.149952 -0.150464 -0.149079 -0.0847041 -0.087814 -0.149517 -0.0979041 -0.0992206 -0.148691 -0.152752 -0.152146 -0.149768 -0.0814514 -0.0856067 -0.0935289 -0.15002 -0.148417 -0.103287 -0.124238 -0.0842757 -0.149368 -0.148326 -0.0803054 -0.0995164 -0.0709261 -0.086291 -0.0715242 -0.133037 -0.106837 -0.150515 -0.0851571 -0.148844 -0.0900652 -0.151321 -0.148787 -0.0773672 -0.0703195 -0.148476 -0.149016 -0.151441 -0.106025 -0.150597 -0.0849332 -0.124591 -0.151758 -0.087789 -0.149734 -0.0792222 -0.0914771 -0.150896 -0.14699 -0.10253 -0.0970933 -0.108192 -0.148558 -0.149738 -0.112015 -0.112837 -0.103951 -0.150107 -0.077667 -0.100901 -0.114741 -0.0896954 -0.151683 -0.0869694 -0.15116 -0.150308 -0.0874825 -0.0905239 -0.113419 -0.104784 -0.115939 -0.110124 -0.131839 -0.119116 -0.0978348 -0.102114 -0.0835286 -0.147461 -0.149903 -0.0702081 -0.103205 -0.100742 -0.101279 -0.0793157 -0.101138 -0.0828368 -0.154565 -0.122526 -0.0904 -0.0912792 -0.149118 -0.148346 -0.112018 -0.103206 -0.113316 -0.148701 -0.0946813 -0.106691 -0.0931371 -0.0977468 -0.118586 -0.147878 -0.0982394 -0.149835 -0.14855 -0.115927 -0.147147 -0.095689 -0.0949506 -0.1287 -0.148523 -0.149943 -0.0904433 -0.110468 -0.0812541 -0.0912028 -0.100756 -0.110815 -0.106556 -0.0908345 -0.085093 -0.151131 -0.0948008 -0.100913 -0.150318 -0.0749284 -0.15207 -0.0988204 -0.149873 -0.0742991 -0.101978 -0.147389 -0.148954 -0.098869 -0.107156 -0.0899808 -0.15085 -0.150866 -0.149343 -0.0886412 -0.0814533 -0.103516 -0.0539801 -0.089216 -0.148128 -0.093849 -0.0860011 -0.150373 -0.118872 -0.104989 -0.148665 -0.102865 -0.150699 -0.0920232 -0.152128 -0.150932 -0.0986071 -0.152537 -0.147394 -0.149998 -0.153292 -0.149496 -0.149341 -0.110107 -0.150049 -0.103326 -0.117097 -0.148179 -0.125528 -0.122273 -0.114909 -0.149153 -0.148188 -0.0487541 -0.0846594 -0.149304 -0.146829 -0.104244 -0.118281 -0.147164 -0.108606 -0.100303 -0.146042 -0.12073 -0.0984757 -0.147974 -0.101154 -0.0645859 -0.14971 -0.152463 -0.151196 -0.126307 -0.116048 -0.146544 -0.143979 -0.13916 -0.149104 -0.148986 -0.150959 -0.105072 -0.150442 -0.0870206 -0.0931179 -0.131182 -0.104209 -0.0968969 -0.0956932 -0.0792825 -0.11666 -0.0963866 -0.119436 -0.099547 -0.0403084 -0.103733 -0.0857961 -0.0915916 -0.150737 -0.150519 -0.123289 -0.105505 -0.107124 -0.0786789 -0.0986955 -0.128658 -0.150527 -0.151187 -0.105047 -0.150221 -0.0932872 -0.081104 -0.150595 -0.152099 -0.0989449 -0.149877 -0.130865 -0.148901 -0.097551 -0.148463 -0.149179 -0.149941 -0.149444 -0.0971043 -0.0680138 -0.15087 -0.124829 -0.096446 -0.148754 -0.148741 -0.149356 -0.152609 -0.0882736 -0.103576 -0.112735 -0.0651026 -0.108432 -0.0906934 -0.147432 -0.149935 -0.100977 -0.101281 -0.0952167 -0.0917161 -0.0781697 -0.111467 -0.109528 -0.103752 -0.130289 -0.0920916 -0.149503 -0.103271 -0.149544 -0.149526 -0.102918 -0.0549376 -0.147534 -0.150157 -0.14664 -0.150549 -0.0951688 -0.150373 -0.0855013 -0.08597 -0.149263 -0.150456 -0.0916893 -0.150042 -0.14917 -0.150408 -0.0667401 -0.128794 -0.102887 -0.148143 -0.102987 -0.101893 -0.150769 -0.0968367 -0.152059 -0.117095 -0.0970487 -0.15033 -0.148919 -0.150106 -0.091573 -0.103463 -0.121563 -0.081743 -0.102423 -0.0918014 -0.081342 -0.115589 -0.151777 -0.151284 -0.146663 -0.149192 -0.110067 -0.149912 -0.0930885 -0.120858 -0.147209 -0.0899171 -0.10677 -0.149235 -0.100511 -0.149049 -0.118298 -0.0885662 -0.0712532 -0.0899428 -0.150956 -0.102327 -0.150588 -0.108676 -0.0889072 -0.0890153 -0.0945322 -0.0977926 -0.152673 -0.100556 -0.149118 -0.104246 -0.0898601 -0.107463 -0.150363 -0.147894 -0.111233 -0.0913633 -0.112407 -0.151904 -0.101607 -0.129566 -0.148803 -0.147785 -0.0873629 -0.0656932 -0.089143 -0.11384 -0.101998 -0.15098 -0.0974358 -0.152934 -0.0856348 -0.14956 -0.0827302 -0.151497 -0.15094 -0.148483 -0.149387 -0.0960484 -0.120912 -0.104899 -0.0714447 -0.120507 -0.104376 -0.0880633 -0.10704 -0.0978107 -0.0953365 -0.150004 -0.149087 -0.0621845 -0.120996 -0.151123 -0.0899055 -0.109345 -0.103048 -0.107474 -0.102072 -0.147993 -0.152699 -0.149844 -0.0947821 -0.0906327 -0.0970714 -0.153915 -0.108769 -0.148527 -0.103173 -0.0943956 -0.103568 -0.045112 -0.149071 -0.105042 -0.0964191 -0.0923076 -0.150065 -0.150416 -0.147695 -0.15003 -0.0917746 -0.113658 -0.112354 -0.149925 -0.127671 -0.0924576 -0.0924305 -0.150129 -0.152188 -0.149439 -0.15153 -0.147479 -0.14906 -0.094214 -0.0786418 -0.148328 -0.148054 -0.0702312 -0.0808485 -0.0893197 -0.113243 -0.0915529 -0.0704821 -0.150869 -0.088196 -0.0769585 -0.108112 -0.150706 -0.151372 -0.149033 -0.121546 -0.0991056 -0.129863 -0.105839 -0.147309 -0.149443 -0.150075 -0.0842094 -0.150097 -0.0766695 -0.149314 -0.148634 -0.151642 -0.150455 -0.100858 -0.151078 -0.0781884 -0.149818 -0.149149 -0.150305 -0.150414 -0.105698 -0.109658 -0.0957645 -0.150495 -0.0929502 -0.151126 -0.148661 -0.150477 -0.111116 -0.0935971 -0.0951919 -0.0854877 -0.112499 -0.0990209 -0.150153 -0.0348485 -0.150745 -0.149971 -0.0840328 -0.0768192 -0.0627981 -0.117317 -0.0814267 -0.0947181 -0.150294 -0.0920158 -0.105797 -0.116183 -0.149133 -0.0922627 -0.150625 -0.109184 -0.104767 -0.0988864 -0.15042 -0.147601 -0.0975127 -0.129593 -0.149643 -0.0995999 -0.0605662 -0.150677 -0.0933415 -0.0968804 -0.149479 -0.148992 -0.151655 -0.150335 -0.097792 -0.148046 -0.0923749 -0.148175 -0.101936 -0.150933 -0.149772 -0.147623 -0.151428 -0.0919046 -0.106832 -0.106029 -0.151174 -0.148526 -0.148666 -0.100348 -0.122427 -0.108425 -0.0904252 -0.0907461 -0.0894917 -0.056313 -0.0618723 -0.0401092 -0.110675 -0.087176 -0.0921211 -0.109549 -0.151384 -0.106745 -0.149324 -0.152114 -0.148989 -0.15015 -0.148374 -0.124076 -0.124574 -0.13215 -0.151356 -0.118984 -0.104369 -0.0829259 -0.148744 -0.0930571 -0.140047 -0.056888 -0.111575 -0.10626 -0.0922644 -0.151393 -0.150687 -0.0893436 -0.106901 -0.0467354 -0.14928 -0.149227 -0.149945 -0.0963622 -0.0779902 -0.088601 -0.100781 -0.0907074 -0.147446 -0.151445 -0.151285 -0.0877858 -0.108112 -0.148502 -0.113688 -0.056107 -0.0639426 -0.0885032 -0.148769 -0.0392165 -0.103054 -0.149233 -0.109261 -0.0912222 -0.149542 -0.0950237 -0.107972 -0.0928923 -0.149571 -0.148857 -0.148894 -0.11911 -0.079965 -0.0975224 -0.087369 -0.0975725 -0.079464 -0.101149 -0.150782 -0.117042 -0.101462 -0.0881155 -0.0918339 -0.151418 -0.151133 -0.150913 -0.108854 -0.0822618 -0.0522332 -0.104682 -0.0993746 -0.0771432 -0.150472 -0.149346 -0.14957 -0.15142 -0.149387 -0.109812 -0.0972868 -0.105582 -0.105067 -0.106542 -0.149129 -0.148819 -0.0984268 -0.0889115 -0.0952317 -0.152819 -0.0966124 -0.0955393 -0.104347 -0.0991046 -0.110461 -0.138118 -0.12394 -0.151728 -0.101487 -0.104574 -0.150381 -0.149372 -0.101793 -0.147093 -0.151103 -0.149381 -0.089142 -0.150427 -0.146405 -0.150027 -0.101995 -0.0960191 -0.0994988 -0.103685 -0.150823 -0.0696261 -0.102888 -0.118012 -0.151489 -0.14811 -0.0932242 -0.0634877 -0.152262 -0.0865817 -0.0942592 -0.112659 -0.127433 -0.152573 -0.103539 -0.108849 -0.109945 -0.0936105 -0.0643821 -0.0944428 -0.147138 -0.149494 -0.150185 -0.0957331 -0.15067 -0.0595848 -0.105699 -0.0820833 -0.0717085 -0.0722625 -0.104086 -0.122318 -0.114072 -0.0952385 -0.15134 -0.0694658 -0.127561 -0.149598 -0.151359 -0.102104 -0.150113 -0.101932 -0.106515 -0.101026 -0.0815431 -0.147329 -0.103854 -0.11857 -0.150438 -0.0981615 -0.149866 -0.148365 -0.152245 -0.147005 -0.0981038 -0.0791952 -0.150894 -0.100281 -0.0882456 -0.108384 -0.106555 -0.121734 -0.148882 -0.0663371 -0.108137 -0.0978206 -0.0959242 -0.0962467 -0.112394 -0.129507 -0.103806 -0.0942776 -0.117896 -0.0765515 -0.0666138 -0.151915 -0.0998939 -0.0985423 -0.0907295 -0.149269 -0.0874018 -0.10181 -0.0974502 -0.150007 -0.104726 -0.150115 -0.0908887 -0.15013 -0.149362 -0.0865531 -0.125775 -0.101584 -0.0868925 -0.0955942 -0.0940427 -0.086388 -0.10183 -0.129641 -0.149309 -0.147937 -0.151458 -0.0948318 -0.0831257 -0.0909555 -0.0964445 -0.148378 -0.090935 -0.149348 -0.151955 -0.0794068 -0.0967765 -0.147968 -0.0884728 -0.108346 -0.150245 -0.0893643 -0.107332 -0.147626 -0.111766 -0.153909 -0.0751127 -0.103407 -0.150207 -0.152925 -0.101598 -0.0726037 -0.0931879 -0.0918902 -0.147649 -0.0725358 -0.146348 -0.0886211 -0.0599956 -0.150398 -0.0799157 -0.0944261 -0.151199 -0.0988438 -0.103181 -0.101352 -0.0943901 -0.0935201 -0.151594 -0.151536 -0.0978711 -0.11544 -0.102603 -0.100313 -0.147796 -0.102092 -0.0897941 -0.0955863 -0.151288 -0.09906 -0.150887 -0.0960347 -0.0642198 -0.101088 -0.0871888 -0.149517 -0.0937171 -0.149824 -0.0523243 -0.0729236 -0.0869414 -0.0972387 -0.108954 -0.150614 -0.0916159 -0.15016 -0.147531 -0.149555 -0.14951 -0.117392 -0.10252 -0.128036 -0.149924 -0.148806 -0.103402 -0.149784 -0.150137 -0.107475 -0.148347 -0.0920405 -0.109761 -0.151082 -0.11516 -0.147567 -0.150376 -0.150486 -0.148835 -0.124489 -0.106941 -0.132107 -0.0836506 -0.151313 -0.149063 -0.0954792 -0.151646 -0.1009 -0.138036 -0.108705 -0.0853351 -0.114178 -0.148887 -0.148324 -0.095543 -0.0988251 -0.152308 -0.15173 -0.149288 -0.152234 -0.14903 -0.14836 -0.149199 -0.149628 -0.1161 -0.116973 -0.11093 -0.150134 -0.149602 -0.151399 -0.0945217 -0.104479 -0.149979 -0.149727 -0.147817 -0.0880209 -0.0831615 -0.150419 -0.105561 -0.09158 -0.14842 -0.0984688 -0.101675 -0.0967299 -0.115225 -0.0909374 -0.0938264 -0.0919923 -0.150258 -0.14911 -0.0986485 -0.0937861 -0.0399499 -0.104285 -0.117498 -0.150937 -0.14792 -0.150774 -0.0833517 -0.100193 -0.150446 -0.0942535 -0.113214 -0.0958569 -0.148639 -0.148972 -0.151104 -0.118254 -0.073625 -0.124317 -0.131513 -0.10809 -0.0897073 -0.148287 -0.150621 -0.106665 -0.0947249 -0.149035 -0.0977532 -0.107965 -0.0825605 -0.0772989 -0.0939845 -0.150075 -0.151899 -0.108687 -0.0944049 -0.0932314 -0.0944034 -0.109714 -0.151487 -0.0967598 -0.150407 -0.0964144 -0.115637 -0.0860723 -0.085826 -0.0916782 -0.100412 -0.148776 -0.147393 -0.121302 -0.108616 -0.151635 -0.150378 -0.149366 -0.0654272 -0.149613 -0.149227 -0.104982 -0.150588 -0.101212 -0.0470123 -0.10912 -0.098908 -0.106479 -0.0791932 -0.125467 -0.149677 -0.0974459 -0.0944568 -0.0963222 -0.0999014 -0.0934734 -0.115374 -0.0927785 -0.148732 -0.11113 -0.150022 -0.150388 -0.0954616 -0.150695 -0.106887 -0.119017 -0.117231 -0.0858909 -0.0927848 -0.101137 -0.0986841 -0.0891138 -0.15132 -0.150072 -0.0874589 -0.150235 -0.0885467 -0.0854153 -0.090563 -0.0768558 -0.150911 -0.111166 -0.0970759 -0.102511 -0.109282 -0.0440238 -0.109492 -0.0854517 -0.0761536 -0.15222 -0.151559 -0.11239 -0.155532 -0.0930948 -0.118068 -0.0919581 -0.102547 -0.150232 -0.0601958 -0.148777 -0.0966893 -0.150239 -0.149927 -0.151331 -0.0896188 -0.114802 -0.146681 -0.151328 -0.14897 -0.152335 -0.149676 -0.128841 -0.106042 -0.126135 -0.14992 -0.148757 -0.0996315 -0.15014 -0.101425 -0.0845241 -0.090499 -0.0949413 -0.150174 -0.101548 -0.0699096 -0.0840985 -0.062777 -0.117976 -0.104134 -0.0950901 -0.149833 -0.1516 -0.149617 -0.123394 -0.0587234 -0.0685015 -0.113715 -0.149767 -0.0566912 -0.147546 -0.0893428 -0.0774425 -0.0896902 -0.12358 -0.114173 -0.148119 -0.102766 -0.10707 -0.106619 -0.15009 -0.151095 -0.0776685 -0.110426 -0.151328 -0.0913443 -0.15056 -0.149603 -0.08884 -0.109204 -0.0849196 -0.0922431 -0.110402 -0.0732089 -0.117868 -0.0782319 -0.148816 -0.150003 -0.103194 -0.0845109 -0.151118 -0.150283 -0.151507 -0.104696 -0.106564 -0.0601323 -0.114752 -0.15006 -0.149101 -0.148976 -0.150043 -0.134528 -0.0891898 -0.121847 -0.0585676 -0.0678196 -0.148747 -0.111072 -0.08803 -0.102001 -0.104209 -0.121908 -0.100149 -0.103647 -0.152525 -0.0955081 -0.0709652 -0.104438 -0.0883441 -0.120712 -0.150147 -0.121384 -0.151011 -0.148054 -0.0948757 -0.150479 -0.149195 -0.085428 -0.0828092 -0.149687 -0.0694974 -0.0937143 -0.151757 -0.147995 -0.149036 -0.0952999 -0.109091 -0.11893 -0.1181 -0.149927 -0.154278 -0.0634618 -0.118085 -0.100019 -0.0991399 -0.149936 -0.0931566 -0.108504 -0.0821493 -0.0837522 -0.149663 -0.104497 -0.147086 -0.150845 -0.105329 -0.106633 -0.149772 -0.150129 -0.0663463 -0.149475 -0.116442 -0.106364 -0.0866085 -0.0840808 -0.148813 -0.147821 -0.103152 -0.149624 -0.11863 -0.0831197 -0.108745 -0.106403 -0.106453 -0.129734 -0.148908 -0.108432 -0.149848 -0.149716 -0.15032 -0.11773 -0.103015 -0.0935734 -0.150037 -0.135845 -0.0715211 -0.148594 -0.102873 -0.0888559 -0.0962519 -0.0858311 -0.109175 -0.101232 -0.0742351 -0.151796 -0.14874 -0.148154 -0.150372 -0.150084 -0.148328 -0.151512 -0.148797 -0.150591 -0.0948933 -0.0834613 -0.109226 -0.150602 -0.0975048 -0.133019 -0.0958514 -0.106649 -0.0683449 -0.0615161 -0.150938 -0.0906561 -0.0876712 -0.127387 -0.102737 -0.0838248 -0.059323 -0.110623 -0.110664 -0.100898 -0.0780917 -0.150449 -0.0601596 -0.151009 -0.14705 -0.0760055 -0.149464 -0.111146 -0.123473 -0.0950867 -0.103933 -0.096183 -0.088833 -0.105685 -0.111526 -0.109041 -0.115641 -0.149307 -0.151922 -0.150058 -0.0952906 -0.0881241 -0.0933839 -0.117829 -0.105955 -0.109806 -0.131567 -0.115651 -0.10711 -0.094515 -0.111854 -0.095432 -0.101592 -0.150268 -0.149886 -0.0734333 -0.0976999 -0.119495 -0.150183 -0.10193 -0.148595 -0.105856 -0.102906 -0.0924036 -0.150513 -0.150515 -0.0982764 -0.0999402 -0.0819759 -0.10743 -0.0953578 -0.0982223 -0.0612401 -0.0938804 -0.15147 -0.150319 -0.150998 -0.109087 -0.102108 -0.0980167 -0.09942 -0.0908387 -0.0876865 -0.0930109 -0.108541 -0.150622 -0.150442 -0.100364 -0.0580634 -0.149623 -0.108717 -0.147901 -0.128736 -0.106239 -0.0984921 -0.094281 -0.117264 -0.152272 -0.0997274 -0.0572483 -0.150936 -0.148732 -0.0952511 -0.0998778 -0.102999 -0.0735452 -0.106628 -0.150617 -0.103444 -0.15064 -0.0883148 -0.0942481 -0.149842 -0.104657 -0.106152 -0.0959626 -0.0993847 -0.109961 -0.130019 -0.0827002 -0.104753 -0.0924967 -0.0881476 -0.103601 -0.150253 -0.0965285 -0.0809068 -0.150961 -0.0930498 -0.0938587 -0.0947501 -0.150771 -0.149502 -0.152129 -0.0771082 -0.117292 -0.163408 -0.12405 -0.11177 -0.152733 -0.147056 -0.146917 -0.0953776 -0.083475 -0.15019 -0.150254 -0.100299 -0.105448 -0.149917 -0.094823 -0.147982 -0.0893198 -0.085651 -0.15149 -0.149943 -0.150129 -0.148389 -0.0906774 -0.10842 -0.149225 -0.111364 -0.151615 -0.110826 -0.152597 -0.149347 -0.10645 -0.102612 -0.145097 -0.0877186 -0.148723 -0.100922 -0.087408 -0.150625 -0.133572 -0.112162 -0.149837 -0.104807 -0.0955501 -0.101975 -0.0961377 -0.105956 -0.119338 -0.0928387 -0.106805 -0.111732 -0.104904 -0.0856337 -0.113223 -0.0999009 -0.148496 -0.0849065 -0.151773 -0.107136 -0.0906978 -0.0940424 -0.15138 -0.149738 -0.149839 -0.14976 -0.150916 -0.151063 -0.149696 -0.149319 -0.078447 -0.115114 -0.149029 -0.148087 -0.116531 -0.137246 -0.150013 -0.1475 -0.147315 -0.110905 -0.150122 -0.0908924 -0.0693496 -0.084492 -0.152357 -0.068902 -0.149079 -0.11046 -0.149566 -0.0692825 -0.152754 -0.150049 -0.150641 -0.150769 -0.150028 -0.0878142 -0.133806 -0.120527 -0.0863253 -0.0866706 -0.139201 -0.108377 -0.0115169 -0.151153 -0.0902487 -0.150763 -0.150924 -0.102696 -0.112748 -0.158858 -0.0961033 -0.0914181 -0.097271 -0.0965991 -0.0979572 -0.150187 -0.151447 -0.094122 -0.118275 -0.108375 -0.109371 -0.109311 -0.150111 -0.114634 -0.107281 -0.094146 -0.0984675 -0.100945 -0.106021 -0.109535 -0.0874691 -0.125653 -0.0931066 -0.1482 -0.152235 -0.151291 -0.0945631 -0.148392 -0.148726 -0.102036 -0.149867 -0.0613102 -0.109363 -0.101256 -0.0841764 -0.150423 -0.0988257 -0.0796728 -0.151831 -0.14953 -0.10681 -0.109255 -0.148372 -0.152045 -0.0992462 -0.0998978 -0.0967961 -0.104293 -0.149663 -0.0731237 -0.150668 -0.0901252 -0.120944 -0.0882788 -0.113021 -0.121836 -0.150057 -0.104906 -0.10574 -0.0926665 -0.0440769 -0.0666573 -0.0571852 -0.152634 -0.150722 -0.151651 -0.0753927 -0.149894 -0.0893682 -0.151436 -0.112473 -0.0964511 -0.0931617 -0.106557 -0.147258 -0.0996575 -0.113317 -0.147728 -0.0868353 -0.125471 -0.126996 -0.150687 -0.111729 -0.110445 -0.152613 -0.0878295 -0.0958378 -0.0816074 -0.0995613 -0.0993044 -0.111305 -0.149603 -0.151791 -0.102187 -0.0972116 -0.10923 -0.101768 -0.0879943 -0.0966701 -0.150812 -0.151594 -0.150449 -0.0795801 -0.121304 -0.0810573 -0.100514 -0.12042 -0.0986892 -0.108128 -0.107119 -0.148839 -0.123079 -0.12663 -0.095477 -0.146386 -0.125103 -0.0836396 -0.0884118 -0.0846195 -0.15042 -0.148022 -0.113254 -0.120356 -0.150386 -0.149354 -0.137725 -0.103171 -0.084567 -0.108338 -0.077978 -0.11012 -0.109265 -0.0875426 -0.0785197 -0.0969957 -0.148821 -0.0963604 -0.147055 -0.107382 -0.150138 -0.15056 -0.0777168 -0.141955 -0.15008 -0.0554927 -0.067477 -0.124542 -0.0846862 -0.115667 -0.0779562 -0.103055 -0.149356 -0.149931 -0.116356 -0.0994973 -0.106829 -0.152724 -0.113961 -0.151675 -0.148337 -0.104668 -0.0951293 -0.150926 -0.0989164 -0.116409 -0.0922218 -0.103108 -0.120012 -0.148795 -0.0743389 -0.101476 -0.125138 -0.0818584 -0.0319762 -0.0646658 -0.149257 -0.110536 -0.108525 -0.137871 -0.107359 -0.151332 -0.0921784 -0.131356 -0.115505 -0.0845215 -0.123829 -0.149942 -0.0906983 -0.0982151 -0.0977753 -0.148887 -0.150754 -0.148718 -0.0823348 -0.150914 -0.134982 -0.148877 -0.14941 -0.15098 -0.1513 -0.150227 -0.10437 -0.111924 -0.0886408 -0.110724 -0.0933367 -0.0820216 -0.107423 -0.134182 -0.112086 -0.116134 -0.0730632 -0.110414 -0.0827756 -0.0890116 -0.147934 -0.0519036 -0.112358 -0.0996714 -0.0965228 -0.0907582 -0.151454 -0.0905109 -0.0825724 -0.101089 -0.0943592 -0.149008 -0.148512 -0.116934 -0.117472 -0.0984306 -0.100769 -0.0967973 -0.0886932 -0.148832 -0.151233 -0.104197 -0.104589 -0.148452 -0.107131 -0.149035 -0.0914947 -0.150166 -0.148766 -0.113633 -0.0984236 -0.0584996 -0.101033 -0.0692688 -0.0938155 -0.119302 -0.102194 -0.15172 -0.0873141 -0.0717102 -0.148793 -0.087908 -0.148481 -0.0890215 -0.150522 -0.150122 -0.148554 -0.147076 -0.149315 -0.151317 -0.149323 -0.148151 -0.107914 -0.15054 -0.153061 -0.148634 -0.152244 -0.116557 -0.123323 -0.06979 -0.11945 -0.098257 -0.13861 -0.11918 -0.152566 -0.0931467 -0.144724 -0.107548 -0.107415 -0.150887 -0.14883 -0.117708 -0.0979851 -0.0875684 -0.10471 -0.148075 -0.151087 -0.149787 -0.111552 -0.0903574 -0.0890483 -0.0911309 -0.0969998 -0.151204 -0.150774 -0.0982597 -0.147737 -0.0953675 -0.101243 -0.0745747 -0.0612238 -0.0904391 -0.104696 -0.108797 -0.13342 -0.111379 -0.0940731 -0.121731 -0.0984607 -0.0715493 -0.0955685 -0.150315 -0.151307 -0.084295 -0.150631 -0.148542 -0.127913 -0.153738 -0.0873639 -0.0812991 -0.147553 -0.149152 -0.147838 -0.149659 -0.148797 -0.149714 -0.150638 -0.120754 -0.15104 -0.124149 -0.0917921 -0.147276 -0.150263 -0.098506 -0.0693595 -0.112987 -0.150636 -0.132056 -0.109539 -0.149723 -0.149343 -0.0947628 -0.151782 -0.151326 -0.0813802 -0.106025 -0.147139 -0.0986478 -0.063492 -0.0670741 -0.149024 -0.108854 -0.101002 -0.147237 -0.0924818 -0.120827 -0.0981437 -0.106246 -0.0820971 -0.10729 -0.0814731 -0.11791 -0.100136 -0.133494 -0.0851277 -0.0967043 -0.103983 -0.105063 -0.105155 -0.0934673 -0.149986 -0.148744 -0.151108 -0.151074 -0.122241 -0.108045 