
            -0.0897848 0.0554997 -0.113605 -0.065029 -0.183114 -0.0115324 -0.169791 -0.204647 0.346167 -0.470503 0.328517 -0.255598 -0.48518 -0.0751893 0.245948 -0.00808232 0.333979 -0.0610701 -0.253358 -0.399682 0.333783 0.14271 0.185629 0.24973 -0.18976 -0.0334788 -0.13582 -0.321088 0.502298 0.19089 -0.0125682 0.219132 -0.117262 0.461225 0.148313 0.320163 -0.281119 0.365847 0.413434 0.0949055 0.121085 -0.508404 -0.342519 -0.160903 -0.349009 -0.130752 0.433275 0.352837 0.219274 -0.482899 0.256637 -0.00627223 -0.166518 0.303502 -0.321171 0.292381 0.0939484 -0.350949 0.22855 -0.20681 0.126769 -0.0938005 0.0384303 0.178795 -0.134085 -0.110548 0.178894 0.249384 0.235945 -0.217378 0.277084 -0.217383 -0.181641 0.306238 -0.0256888 0.273669 0.0167795 0.210302 -0.0783337 -0.282274 -0.224767 0.133326 -0.360636 0.0175467 0.328265 0.0714783 -0.137334 0.00778147 0.184732 -0.0842478 -0.0130272 -0.370516 0.148549 0.379145 -0.277794 -0.474148 0.218753 -0.0190981 -0.165648 -0.147643 -0.07019 0.0851751 0.133801 -0.0947129 0.0854141 0.155659 0.340955 -0.0530117 0.235264 0.376681 -0.253289 -0.36296 -0.247676 -0.209603 0.0400402 -0.0906063 0.0871019 -0.018374 0.24187 0.0327307 0.354419 0.0673177 0.128988 0.0948376 0.0389606 -0.111182 -0.239546 -0.0783513