
            0.104319 -0.45188 -0.262064 0.2495 0.165017 0.0934342 -0.411368 0.306744 0.251287 -0.0713559 -0.122081 -0.00785917 0.212045 0.0815705 -0.228652 0.162035 -0.261811 0.439146 0.135802 0.581298 -0.201499 0.054557 -0.148838 0.200366 -0.117711 -0.333404 -0.158135 -0.00234063 -0.393439 0.263081 -0.466043 0.406158 0.36831 0.0367134 0.126022 0.0827567 0.0693723 -0.226196 0.354762 -0.285021 -0.00776658 0.398855 0.277995 0.165776 -0.451624 0.230075 0.191023 -0.147464 -0.0844088 0.336222 -0.27018 -0.235115 -0.129325 -0.210377 -0.171449 -0.0142216 -0.10422 -0.0676171 0.074533 0.251169 0.450412 -0.149191 0.100113 -0.0209247 0.124086 -0.109493 0.394615 -0.067693 0.265779 0.312778 -0.221907 0.352233 0.136642 0.160342 0.0181141 -0.432174 0.0539183 0.388788 -0.0122761 -0.113952 0.00165217 -0.312352 -0.279535 0.264542 -0.694839 -0.244971 -0.37879 -0.112936 -0.106942 -0.107152 -0.555941 0.478917 0.269327 -0.155636 0.50751 0.0316779 -0.21066 0.227617 0.197441 0.421108 0.348328 0.00330746 -0.20162 0.0990942 0.0853631 -0.101014 -0.435571 0.169002 -0.358528 -0.456153 0.377328 -0.158945 -0.259257 -0.123338 0.0339234 0.370581 0.0279847 0.419738 0.168278 0.817234 -0.10235 0.0937742 -0.323343 -0.0843004 0.370076 0.175899 -0.850013 0.286027