-0.089784830808639526367187500000 0.055499661713838577270507812500 -0.113605298101902008056640625000 -0.065029039978981018066406250000 -0.183114469051361083984375000000 -0.011532394215464591979980468750 -0.169790819287300109863281250000 -0.204647094011306762695312500000 0.346167117357254028320312500000 -0.470503121614456176757812500000 0.328516632318496704101562500000 -0.255597591400146484375000000000 -0.485179573297500610351562500000 -0.075189277529716491699218750000 0.245947808027267456054687500000 -0.008082324638962745666503906250 0.333979249000549316406250000000 -0.061070147901773452758789062500 -0.253357708454132080078125000000 -0.399682044982910156250000000000 0.333782941102981567382812500000 0.142710313200950622558593750000 0.185629323124885559082031250000 0.249729767441749572753906250000 -0.189760074019432067871093750000 -0.033478844910860061645507812500 -0.135819643735885620117187500000 -0.321088343858718872070312500000 0.502297818660736083984375000000 0.190889522433280944824218750000 -0.012568184174597263336181640625 0.219131574034690856933593750000 -0.117262445390224456787109375000 0.461224883794784545898437500000 0.148312956094741821289062500000 0.320163309574127197265625000000 -0.281118899583816528320312500000 0.365846633911132812500000000000 0.413434296846389770507812500000 0.094905495643615722656250000000 0.121084913611412048339843750000 -0.508403718471527099609375000000 -0.342519402503967285156250000000 -0.160903185606002807617187500000 -0.349008500576019287109375000000 -0.130752444267272949218750000000 0.433274507522583007812500000000 0.352837175130844116210937500000 0.219273969531059265136718750000 -0.482899457216262817382812500000 0.256636977195739746093750000000 -0.006272234022617340087890625000 -0.166518494486808776855468750000 0.303501546382904052734375000000 -0.321170598268508911132812500000 0.292380690574645996093750000000 0.093948408961296081542968750000 -0.350949108600616455078125000000 0.228549540042877197265625000000 -0.206809654831886291503906250000 0.126769006252288818359375000000 -0.093800485134124755859375000000 0.038430329412221908569335937500 0.178794667124748229980468750000 -0.134084895253181457519531250000 -0.110548190772533416748046875000 0.178894072771072387695312500000 0.249384313821792602539062500000 0.235944598913192749023437500000 -0.217377975583076477050781250000 0.277084380388259887695312500000 -0.217382952570915222167968750000 -0.181641191244125366210937500000 0.306238114833831787109375000000 -0.025688808411359786987304687500 0.273669093847274780273437500000 0.016779482364654541015625000000 0.210301667451858520507812500000 -0.078333683311939239501953125000 -0.282273530960083007812500000000 -0.224766865372657775878906250000 0.133326068520545959472656250000 -0.360635995864868164062500000000 0.017546683549880981445312500000 0.328265279531478881835937500000 0.071478329598903656005859375000 -0.137333765625953674316406250000 0.007781469728797674179077148438 0.184731811285018920898437500000 -0.084247827529907226562500000000 -0.013027174398303031921386718750 -0.370515555143356323242187500000 0.148549184203147888183593750000 0.379144817590713500976562500000 -0.277793705463409423828125000000 -0.474148452281951904296875000000 0.218753457069396972656250000000 -0.019098075106739997863769531250 -0.165647640824317932128906250000 -0.147642716765403747558593750000 -0.070190034806728363037109375000 0.085175149142742156982421875000 0.133801221847534179687500000000 -0.094712868332862854003906250000 0.085414141416549682617187500000 0.155659005045890808105468750000 0.340954989194869995117187500000 -0.053011722862720489501953125000 0.235264256596565246582031250000 0.376680582761764526367187500000 -0.253288537263870239257812500000 -0.362960278987884521484375000000 -0.247676089406013488769531250000 -0.209602996706962585449218750000 0.040040239691734313964843750000 -0.090606287121772766113281250000 0.087101921439170837402343750000 -0.018374029546976089477539062500 0.241869658231735229492187500000 0.032730698585510253906250000000 0.354419052600860595703125000000 0.067317672073841094970703125000 0.128987744450569152832031250000 0.094837576150894165039062500000 0.038960609585046768188476562500 -0.111182093620300292968750000000 -0.239546418190002441406250000000 -0.078351259231567382812500000000 